tree
version=v4
num_class=1
num_tree_per_iteration=1
label_index=0
max_feature_idx=41
objective=lambdarank
feature_names=race_date venue_code exhibition_time exhibition_start_timing pred_course nat_win_rate motor_rate boat_rate weight branch course_run_count course_quinella_rate course_trifecta_rate course_1st_rate course_avg_st nige_count makuri_count sashi_count wind_speed wave_height local_win_rate venue_course_1st_rate venue_course_2nd_rate venue_course_3rd_rate st_std_dev syn_win_rate series_avg_rank makuri_rate nige_rate inner_st_gap slit_formation anti_nige_potential wall_strength follow_potential tenji_z_score linear_rank is_linear_leader weight_diff high_wind_alert local_perf_diff wind_vector_long wind_vector_lat
feature_infos=-1:0:1:2:3:4:5:6:7:8:9:10:11:12:13:14:15:16:17:18:19:20:21:22:23:24:25:26:27:28:29:30:31:32:33:34:35:36:37:38:39:40:41:42:43:44:45:46:47:48:49:50:51:52:53:54:55:56:57:58:59:60:61:62:63:64:65:66:67:68:69:70:71:72:73:74:75:76:77:78:79:80:81:82:83:84:85:86:87:88:89:90:91:92:93:94:95:96:97:98:99:100:101:102:103:104:105:106:107:108:109:110:111:112:113:114:115:116:117:118:119:120:121:122:123:124:125:126:127:128:129:130:131:132:133:134:135:136:137:138:139:140:141:142:143:144:145:146:147:148:149:150:151:152:153:154:155:156:157:158:159:160:161:162:163:164:165:166:167:168:169:170:171:172:173:174:175:176:177:178:179:180:181:182:183:184:185:186:187:188:189:190:191:192:193:194:195:196:197:198:199:200:201:202:203:204:205:206:207:208:209:210:211:212:213:214:215:216:217:218:219:220:221:222:223:224:225:226:227:228:229:230:231:232:233:234:235:236:237:238:239:240:241:242:243:244:245:246:247:248:249:250:251:252:253:254:255:256:257:258:259:260:261:262:263:264:265:266:267:268:269:270:271:272:273:274:275:276:277:278:279:280:281:282:283:284:285:286:287:288:289:290:291:292:293:294:295:296:297:298:299:300:301:302:303:304:305:306:307:308:309:310:311:312:313:314:315:316:317:318:319:320:321:322:323:324:325:326:327:328:329:330:331:332:333:334:335:336:337:338:339:340:341:342:343:344:345:346:347:348:349:350:351:352:353:354:355:356:357:358:359:360:361:362:363:364:365:366:367:368:369:370:371:372:373:374:375:376:377:378:379:380:381:382:383:384:385:386:387:388:389:390:391:392:393:394:395:396:397:398:399:400:401:402:403:404:405:406:407:408:409:410:411:412:413:414:415:416:417:418:419:420:421:422:423:424:425:426:427:428:429:430:431:432:433:434:435:436:437:438:439:440:441:442:443:444:445:446:447:448:449:450:451:452:453:454:455:456:457:458:459:460:461:462:463:464:465:466:467:468:469:470:471:472:473:474:475:476:477:478:479:480:481:482:483:484:485:486:487:488:489:490:491:492:493:494:495:496:497:498:499:500:501:502:503:504:505:506:507:508:509:510:511:512:513:514:515:516:517:518:519:520:521:522:523:524:525:526:527:528:529:530:531:532:533:534:535:536:537:538:539:540:541:542:543:544:545:546:547:548:549:550 none none none [1:6] [0:8.9700000000000006] [0:85.709999999999994] [0:87.5] [42:67] -1:33:22:21:7:30:37:17:23:9:18:14:28:3:38:2:35:5:19:29:0:25:34:1:27:26:15:8:20:36:39:10:11:13:16:6:4:12:40:32:31 [3:6676] [1.3999999999999999:100] [6.5:100] [0:100] [0.11:0.31] [0:1289] [0:612] [0:451] [0:13] [0:16] [2.7000000000000002:8.1199999999999992] [0.80000000000000004:47.799999999999997] [7.5:22] [9.9000000000000004:21.699999999999999] [0.055875741081362201:0.33729143398152861] none [1:6] [0:0.33333333333333331] [0:0.80000000000000004] none none [0:0.25] [3.6000000000000001:100] [0:13.366666666666667] none none none [-11.666666666666664:13.333333333333336] [0:1] [-2.3500000000000001:6.5999999999999996] [-13:7] [-8.4852813742385713:9.1923881554251192]
tree_sizes=4803 5477 5333 5482 5612 5593 5375 5678 5448 5738 5721 5495 5519 5801 5629 5708 5755 5521 5749 5730 5013 5505 5772 5497 5645 5649 5334 5610 5809 5449 5624 5744 5533 5495 5416 5494 5684 5503 5761 5616 5455 5582 5715

Tree=0
num_leaves=31
num_cat=14
split_feature=12 5 15 0 31 32 0 5 0 0 0 5 0 0 5 5 5 0 26 0 0 31 0 0 0 32 5 12 31 0
split_gain=918.426 358.901 142.338 116.797 89.7428 79.0142 67.0871 65.2433 56.1957 46.8487 44.8117 38.7362 44.3384 39.8151 38.6445 37.4117 37.1019 36.1128 32.71 30.8385 28.5605 26.1426 25.6336 23.0795 21.4789 20.6535 20.1895 19.9112 17.8955 16.8007
threshold=64.950000000000017 4.6350000000000007 359.50000000000006 0 0.03767707902370946 17.850000000000005 1 4.9150000000000009 2 3 4 5.6750000000000007 5 6 5.0950000000000006 6.6050000000000013 4.0150000000000006 7 3.4500000000000006 8 9 0.048293424530614706 10 11 12 38.650000000000013 6.7150000000000007 69.950000000000017 0.023065931268627955 13
decision_type=10 2 2 9 10 10 9 2 9 9 9 2 9 9 2 2 2 9 2 9 9 10 9 9 9 10 2 10 8 9
left_child=1 9 7 -3 5 10 -7 -2 -9 -1 -5 13 -13 -8 -4 20 19 -18 -16 -11 -12 27 -6 -19 -14 -24 -26 -10 -15 -25
right_child=2 3 14 4 22 6 11 8 21 16 15 12 24 28 18 -17 17 23 -20 -21 -22 -23 25 29 26 -27 -28 -29 -30 -31
leaf_value=0.00023059245150011903 -0.019979711629856969 -0.051151464403152373 0.0052317750090689306 0.047229589608409943 0.056337734764379713 0.034328080572459015 0.025728696849104161 -0.022446655995825474 0.0063626314634659458 0.0001940568417552196 0.030787401998047761 0.036243884820737919 -0.041734243092718032 -0.050976792537056718 0.062714658816052163 0.041664713736056763 0.014826721739326622 0.0038028032586957475 0.040270212624243323 -0.057377422363954336 -0.0059663334255774456 0.046682734280099114 0.024545512538235184 -0.0028984842912264273 -0.017360754211430622 -0.00052014884453060626 0.010362937475920065 0.031015813205259247 -0.026724808759145503 -0.045354710305942958
leaf_weight=75.645774307660758 100.23312333505601 109.45355689153075 46.00850959867239 54.761412806808949 38.291158244013786 53.632358372211456 23.516836659051478 55.041707082651556 130.3942410107702 34.479253089986742 50.24366467539221 37.555167265236378 57.746299093589187 147.71055856719613 361.47618207335472 56.025148472748697 35.338563358411193 36.936232016421854 294.65413720160723 410.72961465269327 423.34837150108069 151.85416699014604 229.44828932266682 37.937115043401718 244.38440255541354 128.04276891425252 89.799650143831968 220.2293168855831 156.82478484604508 351.82671629171818
leaf_count=803 679 1258 217 326 293 539 235 637 1166 382 330 328 688 1996 1211 398 326 368 1165 5570 3692 1275 2449 365 2955 1636 950 1192 2179 4394
internal_value=-5.31964e-10 -0.0159737 0.0338725 -0.00328926 -7.88066e-05 -0.00603913 -0.0161373 0.0171594 0.0238364 -0.0405037 0.007978 -0.0199006 -0.0102818 -0.0331002 0.0495292 0.00297158 -0.043424 -0.0339772 0.0526353 -0.0542032 -0.00154301 0.0287802 0.0209356 -0.037488 -0.0152749 0.0151441 -0.00962308 0.0218475 -0.0372642 -0.0413982
internal_weight=4243.57 2883.68 1359.89 1900.78 1791.33 1395.55 811.17 657.753 557.519 982.893 584.379 757.538 429.486 328.052 702.139 529.617 907.247 462.039 656.13 445.209 473.592 502.478 395.782 426.7 391.93 357.491 334.184 350.624 304.535 389.764
internal_count=40002 32460 7542 20252 18994 14616 9870 4949 4270 12208 4746 9331 4921 4410 2593 4420 11405 5453 2376 5952 4022 3633 4378 5127 4593 4085 3905 2358 4175 4759
cat_boundaries=0 16 33 49 67 83 101 118 132 148 165 182 198 215 233
cat_threshold=2 0 1610612736 10747912 0 0 0 0 258 393224 406272 0 65792 20512 1769728 2944 524288 4 4194304 704643072 270532608 2147614722 16778499 0 16 135267584 0 524290 32 655360 128 131078 4194304 0 16384 2953052160 15728641 0 0 56 0 224 516096 5120 0 0 0 1900544 640 2097152 537395205 8389760 2147614728 0 677380224 263424 32802 0 0 131072 0 0 134217728 134218016 1075838976 96 2 132368 0 2097216 1073741824 32768 17826816 65536 2097153 16384 4096 536870946 2415919104 0 536870912 134217729 39 1073741824 524288 32 64 105939072 272384 8388608 8396928 8388608 0 2147483664 262144 67108866 0 4202528 65536 547356680 2 4194304 67108864 32768 1073758212 576 4096 2097152 536870912 1342185472 33554432 64 32832 33554432 201326592 0 8 73732 33554432 0 16777216 33554432 268436592 8192 67111424 4096 524288 524289 2160590848 20971522 0 545 67109376 135267328 64 536870912 2147483656 268435456 4198400 329728 16777216 1073741824 268451840 1082392576 536936448 2148532224 33554432 8388608 16777256 37748736 16777216 16842880 266240 0 136478722 0 0 2048 1 65632 538460160 17039360 0 8388608 268435472 4224 4210704 8 0 536870913 4 67125248 0 2147483648 128 41943040 67240084 32768 0 40 262144 1208483844 0 1107562880 2113536 576 0 67239984 524290 541073408 16384 8 32 268435456 8912896 655360 0 65552 32 16384 0 4718593 0 0 131092 671088640 644 24644 3200 33554432 0 33554433 2359296 21504 2147483648 8388610 32768 33562624 268435472 0 0 0 1375731712 14680064 3145728 0 0 1073741827 92274752 3 524296 128 65
is_linear=0
shrinkage=0.05


Tree=1
num_leaves=31
num_cat=20
split_feature=5 4 0 5 20 0 0 0 32 0 0 0 0 0 5 0 20 0 0 0 5 0 0 4 0 0 0 0 0 5
split_gain=1956.13 948.984 309.451 305.71 292.829 274.114 272.887 199.187 197.703 302.529 208.057 182.726 182.39 175.326 161.306 139.624 130.207 159.361 121.39 118.372 136.681 123.627 106.908 100.037 108.101 99.2801 91.5889 88.4014 83.787 73.4356
threshold=5.1150000000000011 1.5000000000000002 0 3.6150000000000007 5.6950000000000012 1 2 3 29.950000000000003 4 5 6 7 8 6.5650000000000004 9 4.9150000000000009 10 11 12 7.0550000000000006 13 14 5.5000000000000009 15 16 17 18 19 5.8850000000000007
decision_type=2 2 9 2 10 9 9 9 10 9 9 9 9 9 2 9 10 9 9 9 2 9 9 2 9 9 9 9 9 2
left_child=3 14 -3 13 6 -6 -4 -8 10 -10 -5 -7 -12 -1 -2 -11 17 -14 -9 -13 21 -21 -17 24 -19 -23 -20 -15 -27 -30
right_child=1 2 4 8 5 11 7 18 9 15 12 19 16 27 -16 22 -18 23 26 20 -22 25 -24 -25 -26 28 -28 -29 29 -31
leaf_value=0.010343456594111712 0.028768765005638769 -0.035706778885833651 0.040139973592849695 -0.06422445654265406 -0.024179705167509009 0.055485467166946127 -0.066367440980937539 0.027397969326459881 0.031179586020634288 0.01175024219585046 0.030135345227881534 -0.012758463505292883 0.023013461690616008 -0.011199446917924585 0.053943880256130207 0.00089780855335567188 0.0048063894761655873 0.020152213547060156 -0.043352847965021299 0.047043879363066803 0.035577761725664507 0.040881094921098399 -0.050395876366711639 -0.044330123826890055 -0.021012018690790859 -0.02228451824507947 -0.0071016881479433044 -0.064645329509260233 -0.0066118216740063259 0.014625415239973053
leaf_weight=111.54241880401969 1805.6613053176552 453.61765556037426 294.06436309218407 170.81224027462304 415.74717441946268 295.6349126547575 137.22915299609303 231.2069067209959 159.62929410301149 118.20667016319931 264.74637433886528 344.11724487692118 208.38773315958679 107.72416455857456 982.49119324237108 120.66119706630707 821.12114891409874 170.8769771642983 178.98924461007118 229.78199229389429 834.95129806920886 219.22440203279257 1140.3970264252275 415.41881507914513 1629.6599133005366 222.62676369026303 2481.9055152209476 680.82272170111537 540.7539818584919 1646.3203638568521
leaf_count=272 2569 1266 479 557 1086 414 440 451 349 319 508 861 421 311 1201 346 1724 338 502 340 1319 348 4270 1401 4335 520 5886 2865 1182 3122
internal_value=-1.09337e-10 0.0123176 0.00403696 -0.0227722 0.00630668 0.0142808 -0.00506935 -0.00955888 -0.0181317 -0.0331813 -0.0118401 0.0179849 -0.00908213 -0.0496837 0.03764 -0.0405621 -0.012364 -0.0182306 -0.00664394 0.015109 0.0177327 0.0125826 -0.0455195 -0.0221132 -0.0171102 0.00935597 -0.00969337 -0.0575757 0.00633085 0.00933184
internal_weight=17434.3 11314.3 8526.17 6120.01 8072.55 4749.16 3323.4 3029.33 5219.92 1538.89 3681.02 4333.41 3510.21 900.089 2788.15 1379.26 3245.46 2424.34 2892.1 4037.78 3693.66 2858.71 1261.06 2215.96 1800.54 2628.93 2660.89 788.547 2409.7 2187.07
internal_count=40002 21986 18216 18016 16950 9192 7758 7279 14568 5284 9284 8106 8727 3448 3770 4935 8219 6495 6839 7692 6831 5512 4616 6074 4673 5172 6388 3176 4824 4304
cat_boundaries=0 17 34 51 68 85 101 118 134 151 168 185 202 219 236 253 271 289 306 323 340
cat_threshold=32 1 0 10486800 134217728 0 2162704 0 0 401408 13312 0 8388625 2147484160 2149056512 19075 268435456 0 131072 3762290688 5244929 0 1 4 0 290 49160 32 16781312 2185232384 67182592 1073807360 12288 3 12288 320 4194304 2048 536879104 2147491858 134217728 2097665 33619968 0 0 32784 0 1140850688 0 41951276 139266 2147483648 0 1122306 4096 131072 8388608 1073741824 4194304 4 2097184 1048576 8 0 33792 541073408 2147483648 2181038176 2097152 536871188 96 131072 1074266144 131200 201326592 64 268435456 1073745920 32832 16777216 33554433 2147549184 2048 655360 4980736 4096 536870976 32 536873474 8 32776 135401472 10486272 0 1024 0 67108864 0 1078001792 268435456 537133088 4194816 2 18874432 2684354562 4718592 67108864 537133056 4 16779264 34 0 537001992 8192 0 40 0 167773184 1048576 134217728 16859137 65556 134218752 134217729 1610612736 268435456 0 2097168 0 66 79691792 65 1073741824 4194307 83886080 69206564 0 0 1140867080 2097280 4456448 32768 0 2147483651 0 10747904 671088640 268435592 18 8 2147483680 0 524416 33564160 134217728 128 64 1073741824 10 142606336 134217728 0 1572864 0 138413064 268439552 34 536870912 134218768 4096 2 33554440 2147484416 8388612 1280 2048 0 4718592 12713988 134283265 36 0 134217728 8 64 136 4212224 0 131072 294912 1064960 67117056 2 786432 303038976 0 17039360 0 65536 1073774596 65536 1073741828 98304 256 524288 786432 0 0 512 0 805307072 285278208 0 32786 0 8 67534852 8389888 2048 67108864 1107296256 8192 320 0 33555456 4096 67111168 16400 1024 16384 67108864 0 138936320 8389632 34603008 2097216 0 71335936 8421376 512 201326656 268468224 2415919104 427008 0 4 33554432 262144 538968064 0 536887360 1073758208 33587296 32 2359296 2560 67112960 32 269549568 0 1077940224 131076 1073741824 135790593 16384 20480 33554944 0 2097152 24 32 2098176 25166864 256 33554432 268435456 4198440 1074274304 512 33562624 0 268435456 16384 67108864 276824192 33554432 0 32784 2 256 33554440 20544 42 4194304 33554432 536903680 526336 4210688 4 0 657408 0 277889024 0 134217728 2098192 136314880 34603008 4194304 134250496 0 0 0 134283296 270630912 0 0 134217760 65544 2147483904 67125248 113246224 285214720 655362 269484032 134217728 1073741824 0 262146 8391712 0 8388608 80 900 8650752 268451904 131072 0 524288 524288
is_linear=0
shrinkage=0.05


Tree=2
num_leaves=31
num_cat=20
split_feature=13 5 15 0 5 0 0 0 0 0 0 0 5 0 20 0 0 26 0 0 5 0 0 0 0 13 0 32 0 0
split_gain=1390.77 623.871 314.37 239.499 242.029 197.339 190.04 187.374 166.454 166.055 148.49 146.587 147.767 115.031 114.071 94.3039 83.4767 88.9073 90.5217 76.7646 76.76 76.3965 74.0353 68.1014 60.8927 60.8167 101.523 69.9942 136.425 116.96
threshold=21.950000000000003 4.535000000000001 589.50000000000011 0 5.8650000000000011 1 2 3 4 5 6 7 5.5950000000000006 8 4.3150000000000004 9 10 2.0833333333333335 11 12 2.8050000000000002 13 14 15 16 10.350000000000003 17 18.650000000000002 18 19
decision_type=10 2 2 9 2 9 9 9 9 9 9 9 2 9 8 9 9 2 9 9 2 9 9 9 9 10 9 10 9 9
left_child=1 8 6 -3 5 -5 -2 -6 -1 -7 -9 -8 24 -10 -11 -16 -12 -18 -19 -17 -15 -14 -22 -20 -13 26 -24 29 -29 -28
right_child=2 3 -4 4 7 9 11 10 13 14 16 12 21 20 15 19 17 18 23 -21 22 -23 25 -25 -26 -27 27 28 -30 -31
leaf_value=0.0093414211138780293 -0.033027033690091988 -0.04170333869377086 0.049473153878373553 0.028886303844070621 0.049452924499290972 -0.05518021799037065 0.056786328358380038 -0.030571888452595265 -0.072774910210572474 -0.051257242522132609 -0.018654985739825783 0.047059881627285471 -0.0028504945132374806 -0.062503203127262472 0.019230500252334429 -0.038976315339905726 0.030259912442322231 0.038232637256441986 0.028739900941035575 -0.0077513619690063248 0.0037522131878821455 0.027013305702593634 0.0035477918018760636 0.0010059870325613812 -0.0039013918445356382 -0.013102890761920749 0.016295127229103947 0.010457222146793628 -0.057562148104349953 -0.036127418949343314
leaf_weight=257.80797004699707 173.44845719262958 359.97930785641074 942.32833618670702 319.13070360012352 254.65474127046764 196.82284794747829 239.00333847478032 251.20524520799518 169.74672704003751 154.04473476111889 249.18279182910919 52.906775876879692 247.20681320130825 168.83875606674701 298.54134384915233 201.66880216822028 501.35738070309162 203.77145658433437 239.46701498702168 3248.1505341548473 180.1312989173457 1895.031903129071 166.65279234200716 1988.6671851873398 849.91884252429008 416.61750765144825 122.84299708716571 86.987994387745857 629.41166249383241 713.72167994920164
leaf_count=653 421 1217 1408 683 404 717 322 760 793 530 649 66 590 869 671 661 929 339 444 8714 551 3070 487 4516 1782 1411 281 276 3130 2658
internal_value=2.77684e-11 -0.00923025 0.0238724 -0.00236345 -0.000564408 -0.00845853 0.016895 0.00889073 -0.0291903 -0.0114085 0.00572177 0.0195726 0.0164754 -0.0328434 -0.00906544 -0.00735569 0.00867339 0.0110504 0.0071357 -0.00968408 -0.0298352 0.0236799 -0.0275828 0.00410176 -0.000436956 -0.0301017 -0.0343951 -0.0382435 -0.0499605 -0.0286666
internal_weight=15779.2 11379.4 4399.84 8466.64 8106.66 4418.36 3457.52 3688.31 2912.76 4099.23 3433.65 3284.07 3045.06 2654.95 3902.41 3748.36 3182.45 2933.26 2431.91 3449.82 2485.2 2142.24 2316.37 2228.13 902.826 2136.23 1719.62 1552.96 716.4 836.565
internal_count=40002 32343 7659 21234 20017 11976 6251 8041 11109 11293 7637 5830 5508 10456 10576 10046 6877 6228 5299 9375 9663 3660 8794 4960 1848 8243 6832 6345 3406 2939
cat_boundaries=0 17 34 51 68 85 103 120 137 155 173 190 207 224 240 256 274 291 308 325 343
cat_threshold=0 0 536870912 2150105088 0 0 262144 0 388 131072 262272 256 268714240 6144 3866880 536877952 64 4195328 4198400 8704 134217728 2097152 1 0 1041 0 0 3234332704 524480 16777216 83886080 8 34 4325632 0 4096 2148208704 8536065 8192 0 8576 0 48 0 2048 1048576 46137344 16777216 4194304 2097152 2097152 2097152 1024 35799104 1610612736 10496 256 536887552 2432 0 67109632 0 1048576 0 268435472 4128 2097156 35651584 0 133 8424448 131072 134217824 671096976 787712 536870914 0 1073741824 0 2 0 2147483648 134217728 1073741824 32 262144 1081344 8388608 0 2048 67371072 268453120 100665344 0 0 16384 0 67584 268435456 134222881 3221258240 2147484672 16 0 0 1073741824 12845064 0 1 134217740 64 64 35938380 268435968 0 2147483652 2097161 1074003968 16384 2048 1049120 0 0 2147483648 0 0 1310720 34082816 4 0 2490368 67109392 262160 41961480 2 2684370944 1081345 0 266240 0 2 12288 16809984 0 2148663296 8192 67108864 4202496 2622100 0 0 268435466 32770 2458910976 8 0 0 524352 4 12304 525328 159385600 1049092 0 268439552 268468224 2 35651584 1 128 9445376 1342177280 2 1600 1 0 0 0 16 16 536887300 67109922 1073840128 2149582080 41943048 128 0 25165824 268436480 65536 0 6160 256 0 524288 68 67118081 1075838976 33562624 128 33554432 393216 134219776 0 406847488 0 1073742848 33554433 131080 256 2048 37748992 536879104 1572864 1077940224 0 2 135266304 205520896 131072 32 8704 0 67141664 0 49408 1476395009 1310720 0 0 1073741920 0 832 516096 33559552 0 0 0 1835104 1024 2228225 0 16777216 8 2415919128 75630592 2 0 8388612 2098176 327680 0 35651585 513 67125248 2162688 262144 2129920 67588 16793602 67108992 17039362 33408 2155880448 17041424 0 0 2147483648 1073742880 0 0 65536 83886080 2 0 0 0 0 16384 0 1073741824 67584 0 10485760 0 2097152 4 256 0 0 2147483648 268435968 536952832 16 2147483664 0 0 0 1074037280 2281717760 1048577 135266320 0 1082130432 268 16785440 0 4160 8192 36176960 16384 65536 128 268435460 1073872896 0 0 4100 32772 33554432 134217728 134545408 0 131104 18952 67633152 67272706 2097152 268435456 32768 0 273678336 4195329 32768 2684878848 0 134218080 0 131072 256 8388608 0 80
is_linear=0
shrinkage=0.05


Tree=3
num_leaves=31
num_cat=20
split_feature=5 15 5 0 0 26 0 15 0 0 0 0 0 0 13 0 0 5 0 32 0 0 0 0 24 0 0 0 13 0
split_gain=1068.83 517.186 272.231 186.336 183.148 155.954 156.085 144.754 146.659 140.933 117.878 107.992 101.2 91.9894 82.3077 98.7487 96.7483 78.9738 78.7365 69.479 181.763 110.58 97.5755 85.41 70.1653 128.278 106.107 78.0155 70.6945 65.8456
threshold=5.6750000000000007 359.50000000000006 4.1850000000000014 0 1 2.5500000000000003 2 228.50000000000003 3 4 5 6 7 8 10.15 9 10 6.6850000000000014 11 35.650000000000013 12 13 14 15 0.086817185516883416 16 17 18 8.6500000000000004 19
decision_type=2 2 2 9 9 2 9 2 9 9 9 9 9 9 8 9 9 2 9 10 9 9 9 9 2 9 9 9 8 9
left_child=2 3 9 -2 -4 11 -7 8 -6 -1 -8 -5 -10 -11 16 -16 -12 -3 -17 21 -21 -14 -22 -23 26 -26 -25 -28 -29 -24
right_child=1 17 4 5 7 6 10 -9 12 13 14 -13 19 -15 15 18 -18 -19 -20 20 22 23 29 24 25 -27 27 28 -30 -31
leaf_value=0.013593285840936779 -0.026565645024121932 0.031214170456323159 -0.049896414690813046 0.054519010841449236 0.020748379037911695 -0.03403229099621833 0.037530781764537627 0.019704847671625711 -0.042774561814254201 0.0041243832003522649 0.039796469248650025 0.017010829118906143 -0.041123824769770306 -0.037274479974969084 0.040306445109664149 -0.025096804404694997 -0.016757143017752996 0.056325608163965528 0.0078417547370442323 0.038006699196174186 0.017341111302631489 0.024357721804928564 0.0033729207763250621 0.031581727218138969 0.021692923551105248 -0.029979409011491764 -0.036668966868738113 -0.018884282516843407 0.0048456419551186659 -0.039866535663866262
leaf_weight=172.42908340133727 369.42588182538748 692.94400817900896 236.36994963884354 217.74898372963071 386.77298115566373 240.74508531391621 277.47718420252204 505.10233798995614 229.71462064795196 152.23239853605628 76.068886326625943 1549.556717062369 194.30432156100869 1605.3700886853039 210.35755804926157 187.14020577818155 663.17534366622567 571.17641431093216 2351.6561028081924 110.27735468186438 102.18393209017813 249.82443168014288 107.4338301345706 213.6952645778656 146.93489890918136 554.92245502863079 165.09136898070574 428.26920351199806 1174.8452523918822 683.69992363546044
leaf_count=469 1158 1117 941 316 912 717 493 846 857 503 132 3116 647 7291 359 450 1899 965 5221 235 310 540 308 437 305 1800 507 1430 2745 2976
internal_value=-7.5872e-11 0.0134354 -0.0134136 0.00744229 -0.00773467 0.00964748 0.00420662 -0.00573164 -0.00844972 -0.0295659 0.00672367 0.0220369 -0.0110614 -0.0336857 0.00417291 0.00816752 -0.0106261 0.0425604 0.00532484 -0.00919905 -0.0206683 -0.00554851 -0.0280233 -0.00304165 -0.00567314 -0.0192798 -0.000883199 -0.0049573 -0.00148451 -0.0340259
internal_weight=14826.9 7407.47 7419.47 6143.35 5489.44 5773.93 4006.62 5253.07 4747.97 1930.03 3765.88 1767.31 4361.2 1757.6 3488.4 2749.15 739.244 1264.12 2538.8 4131.48 1003.6 3127.89 893.318 2933.58 2683.76 701.857 1981.9 1768.21 1603.11 791.134
internal_count=40002 15943 24059 13861 15796 12703 9271 14855 14009 8263 8554 3432 13097 7794 8061 6030 2031 2082 5671 12240 3829 8411 3594 7764 7224 2105 5119 4682 4175 3284
cat_boundaries=0 16 34 52 68 86 104 121 138 156 174 191 208 225 243 261 278 294 312 329 347
cat_threshold=134217728 67174401 537395200 10485760 0 16 8 32832 256 10887168 536576 64 0 67109377 1572864 268438144 0 8 4096 536875008 100663305 2048 1328384 67108864 16777216 1056 134234112 262176 134217728 41088 0 0 67109888 20 0 16384 262152 4194305 268435456 1048576 553648144 0 4160 33669120 536871168 32770 262184 16777224 16777216 525312 0 8 1024 344065 19400704 134217728 32 65552 553648129 517 2147483648 1048576 524288 64 32 205521413 0 131074 0 134250496 53248 196608 2147483656 2176 268698880 17039424 8388608 1280 16384 2097152 1 2147483648 0 268500992 0 32 4608 4194312 0 536870914 263744 6 135528704 50331648 16777216 1024 134217728 131076 0 16 1056 0 553648144 4 1174405120 1073742594 262144 0 8388864 67108864 553664512 67111680 4096 67108896 2097152 1024 0 536870912 8192 1048584 168067072 264192 512 4194305 131072 262144 32768 4194304 1074003968 8 16777216 0 8388864 65536 86048 536871681 2129920 2150629376 403308544 4 4194369 0 1073741824 12582912 4210688 71335936 16384 2149580800 402653184 142868480 0 384 8405249 8388608 0 1 276 1024 147457 18432 67633280 8704 2147491840 2097152 2048 0 33554436 134217728 32768 8407040 0 0 0 16 0 131072 2097344 65536 2148532224 0 276824064 8388608 16 272 16777216 262144 2 0 0 2097152 512 0 536871168 270532624 256 2164391936 3072 1 142606336 0 272 16779264 33554440 553648128 0 262144 2097152 8389122 2097152 67108864 32 0 1361117184 9 4096 66 1074798592 134221824 32768 16810000 1 2621440 16448 0 4718592 2162688 536870912 96 2048 25165824 8 134225920 0 68165633 671092736 32768 33554448 128 1024 335549504 1073741824 536870912 32 402685952 4 0 1073807360 16448 0 201334784 16416 4096 0 9437184 1589249 32768 50332672 268435456 536870912 536936452 32 20971520 2097152 1024 67108880 134217728 33555456 65536 32768 0 33554448 1610743808 0 33554440 262144 16809992 268451873 268443648 32 1184 32912 0 208 1140850695 557058 268435456 65536 0 12582976 2147483648 32768 10 3355443200 4 128 2181042176 0 2147485092 0 1589248 2228224 8192 0 268435972 0 268503040 1835520 8388608 0 4456448 16 72 2 2 40976 0 3136 268566533 524288 0 131074 0 2164260928 2147483648 33028 2686451712 16384 16777220 16448 8388608 536871040 1049088 16384 2048 0 0 0 268435456 2151677953 301989888 2 2147483780 1073741832 8394760 16 33574912 1
is_linear=0
shrinkage=0.05


Tree=4
num_leaves=31
num_cat=21
split_feature=5 15 26 0 5 0 0 0 0 5 0 0 5 0 0 0 0 0 20 0 32 0 0 32 0 0 0 0 0 0
split_gain=911.749 564.853 164.979 157.312 127.812 155.728 121.531 118.634 100.678 95.7868 93.9447 85.6067 77.0382 138.575 91.0939 75.321 63.6461 61.5358 59.3562 63.527 59.1629 120.88 61.7222 59.1213 159.606 99.8708 73.5685 59.768 58.8259 53.3324
threshold=5.035000000000001 359.50000000000006 2.5500000000000003 0 3.9750000000000005 1 2 3 4 6.6850000000000014 5 6 6.7650000000000006 7 8 9 10 11 4.995000000000001 12 14.950000000000001 13 14 26.250000000000004 15 16 17 18 19 20
decision_type=2 2 2 9 2 9 9 9 9 2 9 9 2 9 9 9 9 9 8 9 10 9 9 10 9 9 9 9 9 9
left_child=4 2 10 -4 6 -6 -1 -7 -5 -3 -2 -8 13 -10 -14 -15 -17 -12 -18 -20 -21 -22 -23 25 -25 -9 -26 -27 -13 -28
right_child=1 9 3 8 5 7 11 23 12 -11 17 28 14 15 -16 16 18 -19 19 20 21 22 -24 24 26 27 29 -29 -30 -31
leaf_value=0.01342833412564424 0.047743259028761614 0.028490087662951115 -0.036241932331068809 0.026895814711242323 -0.059671265429775223 0.020483930287155429 0.0017822307098188479 0.026345197726496933 -0.041467280933115233 0.05608482978768875 0.03844871760459339 -0.0029072552786675557 -0.01368485278926645 -0.027094487320963381 0.020551358761974697 0.021856278224399575 -0.018591835096238497 0.0090888033313169733 -0.025080724632559406 0.0120628681582885 0.033574580828846692 -0.036745863378540286 -0.0037759322062429984 0.028734583323120833 0.010453767223804407 0.013860248798876935 0.0012797906719409944 -0.015535171994791305 -0.045631485808564909 -0.043047037948440926
leaf_weight=135.24177621677518 200.1850148178637 834.98804706335068 280.70794351771474 354.33100085891783 160.88979822024703 274.61393586918712 136.04352095164359 177.1168862786144 213.70783896744251 504.4822532646358 192.93054378032684 101.11992722004652 253.42581696249545 250.77483085542917 767.34792697057128 314.81835551932454 434.22600808180869 1746.6863805651665 206.06194095127285 1123.8176826387644 197.38373389467597 147.57998637109995 1515.9050576463342 119.09267602674663 90.877751711755991 189.29372723121196 84.930901169776917 1524.1870200764388 940.07461221003905 609.38892050925642
leaf_count=395 315 1434 973 737 709 675 430 372 743 965 346 373 787 771 1672 652 1332 3931 619 2260 420 469 4368 296 265 418 301 4709 5052 3213
internal_value=5.23161e-13 0.00877965 0.0038622 -0.000352125 -0.018436 -0.0130902 -0.0315934 -0.0104203 0.00145126 0.038883 0.0157975 -0.036569 -0.000257049 -0.00312598 0.0121189 -0.00106917 0.000651789 0.0121914 -0.00124482 0.00111202 0.00299436 -0.00246622 -0.00690304 -0.013519 -0.0240823 -0.00853802 -0.0320509 -0.0122262 -0.0415493 -0.0376837
internal_weight=14082.2 9539.36 8199.89 6060.09 4542.87 3230.39 1312.48 3069.5 5779.38 1339.47 2139.8 1177.24 5425.05 4404.28 1020.77 4190.57 3939.79 1939.62 3624.97 3190.75 2984.69 1860.87 1663.49 2794.89 904.29 1890.6 785.198 1713.48 1041.19 694.32
internal_count=40002 22794 20395 15803 17208 10958 6250 10249 14830 2399 4592 5855 14093 11634 2459 10891 10120 4277 9468 8136 7517 5257 4837 9574 4075 5499 3779 5127 5425 3514
cat_boundaries=0 17 34 51 69 86 103 121 138 156 174 192 209 227 244 261 278 295 312 329 346 363
cat_threshold=0 33554432 270336 12582929 167772160 67108992 17302544 67108864 67109120 16384 12352 0 4325632 1 17825792 524416 262144 0 2162752 0 1073743872 512 289406976 1327104 8 0 2 16384 201621504 2048 1085696 536871936 276824064 201334786 2113536 67108864 4194369 537067520 2147483648 809500672 4457472 16777226 0 536871170 134217728 134479872 67112960 256 1 25165824 64 288 1 81920 33555600 524320 196608 3489660928 268435457 269484032 0 1 1114114 0 262721 1073741824 16386 0 32 4608 262144 0 1073741824 1073775104 2164264964 134488064 1076903936 33554432 1024 301989888 131072 526336 1082130432 40 0 131088 0 1107296258 262144 0 256 335544384 16793600 67111684 0 512 0 67126272 0 2 8192 1048608 234881024 134218240 137396224 0 0 8 134217856 1130496 96 32768 2147483648 81920 1075838976 136380416 128 2 268435456 71303200 1 2147483650 256 536871040 35684480 10 64 32 134287364 164 0 2432 33554432 0 64 134221824 512 100663296 536870912 0 4160749568 2097152 4194304 0 8 0 1601 499712 1536 0 0 0 851968 5376 0 4 33570816 134217728 81920 263176 48 2621440 33554820 2151809024 134742016 536870912 0 541065216 0 537001984 268435584 2048 32896 32 1077936128 64 16777280 0 805307456 4194320 4194304 16777216 0 1048576 536887296 32784 32768 134742272 66624 8396800 536879104 2 1175453824 134218240 0 2147483648 33558528 34603008 524288 2155872256 790528 34 80 0 131080 131200 128 0 294912 0 0 2155872768 524288 0 262144 2179080 524288 268480512 16777224 524800 2 8389133 40 16384 2 1052672 16 67108880 8328 4718624 134217792 524417 268435464 0 8192 16779280 0 67108864 1048648 32 6291456 75497472 33619968 2048 294952 4325376 0 268435492 0 1048577 131072 0 2 65 8388608 262145 2684420096 285474816 32768 1048577 8912896 0 276 33554464 0 134217792 2097536 2 0 131072 1073741824 524288 17301504 10485761 2286419970 33560576 134742016 262144 301989890 134479872 17303552 16793632 1024 17 0 0 134217728 2097168 4194304 33562628 4456448 4 2281701378 4194304 640 2097152 33554560 128 134217728 0 2052 67241984 64 0 134222852 64 4194304 540688 16842752 16384 393248 32768 4 131072 10493952 67108864 16 134742016 2105344 33558528 8388608 524288 8396838 2112 67109888 33554432 16777256 1073741824 269484032 17301504 65540 8 83886112 134234624 8389632 0 2362368 2048 0 163840 8390664 2049 1048576 8388608 0 2097152 0 67108864 8421376 768 67174536 64 0 560 1077936128 64 287342592 0 2147483648 8 268435460 1073741828 34078984
is_linear=0
shrinkage=0.05


Tree=5
num_leaves=31
num_cat=22
split_feature=13 5 15 0 0 5 0 0 0 0 0 5 0 0 9 0 0 0 0 0 31 0 0 0 0 32 0 0 0 26
split_gain=818.627 307.043 301.317 187.231 146.856 122.449 130.007 121.222 111.596 84.9787 84.7045 80.1221 76.8828 72.811 61.6013 94.1805 83.4134 73.2525 58.6262 56.3865 54.7397 174.786 93.771 83.2746 58.4529 56.0785 123.797 83.9482 68.5516 56.8206
threshold=18.050000000000004 4.535000000000001 589.50000000000011 0 1 6.745000000000001 2 3 4 5 6 4.6750000000000007 7 8 9 10 11 12 13 14 0.013175871839891452 15 16 17 18 35.650000000000013 19 20 21 3.6333333333333337
decision_type=10 2 2 9 9 2 9 9 9 9 9 2 9 9 9 9 9 9 9 9 8 9 9 9 9 10 9 9 9 2
left_child=1 7 3 -2 -3 6 -6 -1 -5 -8 -10 -12 -13 -9 16 -16 -15 -17 -11 -14 21 -20 -23 -22 -25 27 -27 -26 -28 -29
right_child=2 4 -4 8 5 -7 9 13 10 18 11 12 19 14 15 17 -18 -19 20 -21 23 22 -24 24 25 26 28 29 -30 -31
leaf_value=0.011597205617810483 -0.036831413333381628 -0.038535107575727388 0.047209680880039184 0.045712190997478405 -0.038959120937180187 0.0161603763037367 0.020475505321469443 -0.066815510437568532 -0.020904109777789271 -0.026957515681089429 -0.011483594696686793 0.041697624711502651 -0.012189763074256484 0.034896383804670507 0.0083686867151678487 -0.0014686949106630905 -0.018676930781557761 -0.038943908860378899 0.046870854576754481 0.015081108085864686 -0.029817804466206233 0.025697539192387649 -0.026914270428876799 0.023292584683604452 -0.027895005592186148 0.035132648819510996 0.017624139239815369 0.013330386591436467 -0.023966352679826119 -0.0048943300152660329
leaf_weight=210.96622386481613 182.62589330971241 274.57724664360285 689.77093287371099 248.85520803928375 251.38177803345025 822.96728150174022 355.15709774568677 113.29435766302049 183.66505759581923 265.91671969182789 297.70616150926799 254.3221323788166 199.07543616741896 78.332745622843504 142.012795208022 157.61633033771068 421.45120742917061 1222.7386523429304 97.223415466025472 2724.4287688676268 213.56179625168443 89.288948230445385 757.79119755141437 276.658372040838 177.19858709722757 118.66803785040975 111.00591950491071 1279.4892839454114 672.9851595023647 642.42291452363133
leaf_count=649 501 1091 1408 455 981 1856 870 740 531 931 960 424 537 188 487 547 1917 6255 212 5768 698 212 2815 643 495 268 305 2979 2688 1591
internal_value=-5.8543e-12 -0.00908818 0.0166399 0.0114852 -0.0034206 -0.00178242 -0.00456729 -0.0245621 0.013802 -0.00277529 0.0115132 0.0132813 0.0156432 -0.0280573 -0.0255677 -0.0306595 -0.00976039 -0.0347061 -0.00457114 0.0131889 -0.00317166 -0.0138593 -0.0211334 -0.000290592 0.00171856 -0.000340543 -0.0107633 0.00413983 -0.0179297 0.00720108
internal_weight=13533.2 8752.71 4780.45 4090.68 6406.29 6131.72 5308.75 2346.41 3908.05 5057.37 3659.2 3475.53 3177.83 2135.45 2022.15 1522.37 499.784 1380.35 4702.21 2923.5 4436.29 944.304 847.08 3491.99 3278.43 3001.77 902.659 2099.11 783.991 1921.91
internal_count=40002 29418 10584 9176 18635 17544 15688 10783 8675 14707 8220 7689 6729 10134 9394 7289 2105 6802 13837 6305 12906 3239 3027 9667 8969 8326 3261 5065 2993 4570
cat_boundaries=0 17 35 53 69 87 104 121 138 156 158 175 193 210 227 245 262 280 297 315 332 350 368
cat_threshold=134217728 6815744 35652800 131073 8192 8192 8192 1 48 0 1024 786434 545259520 0 67141632 2097158 4194304 0 0 536870912 0 134479872 0 1048640 0 268 131144 1318912 0 78080 2103296 10159104 896 16384 16 41943138 32768 8388616 4194304 131072 0 268435464 262144 16777216 2164260898 4608 4194560 0 276824336 134217760 524288 134218752 32 16777216 537395328 8424448 131080 402653184 671096976 4096 536870914 4194304 1107297280 262144 2 0 2348810240 134217728 1073741824 32 16777224 16384 0 851968 4 1310720 33554432 16777224 0 0 134217760 24592 8390664 8389632 16384 142704640 48 132096 6291456 64 1073872896 0 258 536881152 1 266240 134217728 2147483680 2149318720 536870912 0 0 22 6553600 1024 9437184 2148007936 1099956224 1073741824 0 32768 512 8388609 294912 8 1048576 100663336 67174400 0 8 2097408 1049088 1024 16777216 2050 25296896 32768 0 0 33554432 100 3416064 67141632 4096 2097157 0 2197856512 1049600 4096 0 0 33554464 512 32768 2162688 1179780 262144 67108864 524288 2621968 16777216 1073741824 10 32770 59768832 40 2181039168 75 1073758720 134234148 4096 2415936512 33554432 2048 656640 8388608 16777216 524296 16 0 1107296260 524800 0 524288 64 8527872 0 33554432 256 1073758272 8388608 262144 20972544 0 0 16448 256 536870912 1048832 16640 65536 67108896 16 69206016 131073 16777408 16 2147483680 131072 68157442 67108864 2147500036 538968064 1048576 8407040 276889600 0 4194304 2097152 16390 512 2164261000 16777472 2147483650 18432 576 260 4096 100671490 2097152 256 0 268713984 32 2304 1090519040 128 0 4096 1073745920 2097296 0 1 3584 64 262656 131072 1073811712 16777216 0 128 135536769 0 512 2 1074798720 0 2162688 192 2147492936 285736960 134221824 32768 1 0 134217728 0 32 262272 0 2097152 8704 4194304 268435456 0 150994944 0 140529696 0 2097184 1342193664 0 16384 8388608 33554432 524288 67108880 2147483649 2 8 2048 1610613761 0 256 98568 134742016 1225003008 0 0 1073741825 134217728 44040192 4 128 16 0 10752 256 8392704 512 0 67112960 8193 128 1049104 9437200 1048576 4194309 131080 0 1207959554 268435524 32 256 2 0 65552 0 536870912 1073741920 0 67108864 139456 1073741824 301993984 0 17 142640162 4195328 67125248 0 570949632 1638400 0 2097152 64 17301602 545259680 33554432 16810114 1077936129 4096 0 0 2148007968 0 536887296 0 0 8 589824 67125252 0 134217792 537395202 8388608 0 270532610 1 536870912 83951616 32770 2147483648 34086912 2684354560 0 8 4
is_linear=0
shrinkage=0.05


Tree=6
num_leaves=31
num_cat=21
split_feature=5 15 20 0 0 0 0 20 0 0 0 0 0 0 0 5 0 0 0 0 9 0 0 5 31 0 0 5 0 7
split_gain=705.169 372.677 199.264 180.392 153.976 149.095 120.738 105.193 142.453 138.428 122.61 96.844 92.2321 83.9681 79.7285 71.394 65.1352 62.7794 60.5944 59.5113 54.4056 94.7368 77.7806 53.6708 52.7927 69.1477 45.9367 45.4016 42.5628 41.7595
threshold=5.6150000000000011 359.50000000000006 4.4850000000000012 0 1 2 3 6.3950000000000005 4 5 6 7 8 9 10 6.6850000000000014 11 12 13 14 15 16 17 5.0550000000000006 0.036578317331483208 18 19 4.7350000000000012 20 28.880000000000006
decision_type=2 2 10 9 9 9 9 8 9 9 9 9 9 9 9 2 9 9 9 9 9 9 9 2 10 9 9 2 9 2
left_child=2 6 4 -4 27 -5 -2 8 -8 -9 -10 -11 -6 -7 23 -3 -15 -12 -13 -16 22 -22 -19 -14 25 -20 -18 -1 -21 -28
right_child=1 15 3 5 12 13 7 9 10 11 17 18 14 16 19 -17 26 20 24 28 21 -23 -24 -25 -26 -27 29 -29 -30 -31
leaf_value=0.004859130903872153 -0.026519876312506407 0.027807637932290949 -0.052300231737165831 0.031950859635809889 -0.06681086482117117 0.022939271408806194 -0.042292739603133983 0.057478846207007606 0.039389919225395829 -0.018275346144631003 0.026827939630294506 0.042931631455699094 -0.0047395502924725223 -0.033704097729512793 0.00077007657633582094 0.054520099495082755 0.015431797154763447 0.034912037423198441 0.040670859087084475 -0.0052278925026403213 0.023783310732278989 -0.019353765099632065 0.00020836528937811789 0.060272122221872317 0.023757833382896585 0.0021207436545351661 -0.017881963542177495 0.055516139270719467 -0.030180851455980415 -0.0028197086809757521
leaf_weight=148.20420467481017 258.3225230127573 596.04145000129938 171.77057509124279 299.00271493010223 120.65227098017931 244.88132010959089 164.68097402714193 173.4851152934134 218.1458772867918 229.7515350356698 207.49829923175275 177.81430556997657 171.02257138490677 203.06054469943047 208.04258333984762 431.01414600946009 243.35573823004961 173.57036758214235 121.00884260237217 207.63087771460414 148.08234637230635 682.23068621568382 1352.4462935160846 38.982712958008051 690.65206047520041 1072.3322996404022 642.198621224612 63.048264380544424 1933.2071189004928 1623.4475256241858
leaf_count=563 927 1156 724 704 713 647 572 275 430 733 427 329 677 730 716 965 662 362 223 751 291 1987 3531 79 1366 2976 2196 134 8856 5300
internal_value=4.28439e-11 0.0113045 -0.0119818 -0.00382752 -0.0216505 -0.00110627 0.00628452 0.00788484 0.00152345 0.0155211 0.00425392 0.0120412 -0.0248398 -0.00454539 -0.0226084 0.0390178 -0.00710223 0.00112291 0.0154914 -0.0252736 -0.00124448 -0.011469 0.00435718 0.00699529 0.0126885 0.00638844 -0.00482401 0.0190748 -0.0277963 -0.00705796
internal_weight=13015.6 6697.08 6318.51 3427.72 2890.79 3255.95 5670.02 5411.7 2946.65 2465.04 2781.97 2291.56 2679.54 2956.94 2558.89 1027.06 2712.06 2563.83 2061.81 2348.88 2356.33 830.313 1526.02 210.005 1883.99 1193.34 2509 211.252 2140.84 2265.65
internal_count=40002 16550 23452 10963 12489 10239 14429 13502 7600 5902 7028 5627 11792 9535 11079 2121 8888 6598 4894 10323 6171 2278 3893 756 4565 3199 8158 697 9607 7496
cat_boundaries=0 18 35 53 70 86 103 120 137 154 171 189 206 223 238 254 256 273 291 306 323 340
cat_threshold=2097168 536870916 0 0 100663296 3148290 768 0 33570816 0 17 138412064 1208091648 2147483648 8192 2097160 33588224 16 268435472 805306628 0 8 0 2105474 512 268435456 16384 0 4325424 134217792 134217760 2214592576 128 10 8 1032 0 524296 234881408 16384 134284305 1073741824 32768 262144 136314880 0 32768 100925444 0 1073741826 4210688 268437504 1 134217728 67108864 524288 2097152 134234128 16 0 32768 0 10878976 67244032 0 33554432 67109377 1075314688 19072 10240 131072 128 154 2157707776 1342177280 2147483648 46 675282944 1073741824 48 1280 0 0 0 32896 4194304 512 262144 8519808 2684354560 1140850944 2164260864 256 2147483652 1090519040 32 0 16384 0 536870912 134230144 4 167772176 262272 2 4096 0 2241 268435460 4481152 16779520 2147508224 0 0 0 163840 142607360 1024 0 2098464 0 131072 3758096384 4194305 2048 0 144 0 2147484161 8196 151011328 134217728 360453 0 393216 0 524288 4198400 0 68 117440512 0 524545 0 0 270336 150995328 0 0 4 268435616 5128 294912 8390656 138444800 134283392 68 48 8192 0 1 589825 536870912 8388864 0 1342177281 65536 262145 8 2214731776 139264 16777216 32 2064 0 16 0 131328 4195394 4325376 2048 92274693 2164260864 4197376 0 562044928 32 0 64 34078784 288 0 0 76 67117056 16384 3221225472 526338 2048 155320320 0 2336 12288 553648256 2 16640 8192 12583440 64 33554432 262144 131328 2149581312 67108864 0 128 153108481 134217744 0 1073741824 0 34603008 1074053120 69746688 16777472 65546 33286 34078720 67110912 2 16384 8388608 784 570425344 0 8194 268566528 32 0 1174405121 16793600 131072 64 0 16846848 1073741824 167774208 1572864 32768 4194306 1073741825 2097160 67109184 1073872896 887496864 130 536936448 256 6291460 16384 4 8192 578816000 512 524289 1375732736 2147483680 68157441 0 16777216 0 671096832 8388608 32 536887308 0 0 4096 530432 16777216 268435473 33554450 67108864 64 8390184 1744830464 0 0 16777216 65546 4 131072 4608 0 32 2420187266 2 0 128 1576960 5120 2 17564160 2097152 65536 1 2147483648 0 35652609 1024 402685968 524320 0 0 268533760 1 1342177280 67584 16408 4 32768 262144 8389124 570949632 132096 557056 512 67108870 8 75497473 2048 0 306184216 1048576 0 2621440 196610 33554432 10485761 16384
is_linear=0
shrinkage=0.05


Tree=7
num_leaves=31
num_cat=21
split_feature=5 15 5 0 26 0 0 0 5 0 0 0 17 0 0 20 24 0 0 0 0 0 0 0 5 0 0 0 0 0
split_gain=646.682 382.746 128.906 116.207 105.02 90.2577 89.7841 89.3694 79.0912 69.6146 67.7043 62.8893 60.4401 89.0974 56.7185 56.0927 54.0372 147.264 96.6431 90.891 76.7135 62.937 51.5811 48.1026 48.0647 95.9052 70.8424 58.6879 57.0758 44.0945
threshold=5.0950000000000006 359.50000000000006 3.5350000000000006 0 2.5500000000000003 1 2 3 6.6850000000000014 4 5 6 144.50000000000003 7 8 7.4150000000000009 0.087150472518047015 9 10 11 12 13 14 15 5.8650000000000011 16 17 18 19 20
decision_type=2 2 2 9 2 9 9 9 2 9 9 9 2 9 9 10 2 9 9 9 9 9 9 9 2 9 9 9 9 9
left_child=2 4 3 -1 10 -6 -4 -8 -3 -7 -2 -5 13 -11 -15 22 18 -18 -9 -19 -20 -21 -12 -22 25 -16 -26 -27 -28 -29
right_child=1 8 6 11 5 9 7 16 -10 12 15 -13 -14 14 24 -17 17 19 20 21 23 -23 -24 -25 26 27 28 29 -30 -31
leaf_value=0.017686930196894737 0.042036466683457986 0.025460973500076301 0.013220223148947219 -0.0022932258306354396 -0.032373892214082982 0.025235277281979603 -0.050234013857980264 -0.050049143460442147 0.053331600241813854 -0.031272297103211194 0.033200038309560129 -0.058429078640383075 0.024195881661695218 -0.022786743928562184 0.029559161706425238 0.042940390260361436 0.027581635872869954 0.01333459398008955 0.023509382350689709 0.0027922522017107434 0.015095497699403718 -0.038475577891610338 0.0049321663123388136 -0.011540626190713906 0.033765162158975029 -0.038739942852813541 -0.020189368192440039 0.017981678738129791 0.0065439735611181049 -0.0082110291502320628
leaf_weight=75.558604909107089 184.80840606987476 706.62665083631873 302.91362026147544 69.848068162798882 193.4481742605567 283.36327400058508 163.42627767287195 121.27459853701293 397.8816657550633 222.95842033904046 173.55980192869902 350.59783386532217 248.02284107357264 237.66517577134073 179.21114810928702 125.09975855797529 128.42136657051742 116.41017927788198 194.02708452567458 111.42390177026391 181.38599110767245 795.34297166764736 1448.2704770341516 1659.8497832426801 208.05019869841635 133.15185449831188 213.40357988327742 173.42874216288328 1904.1485794894397 1336.7407030500472
leaf_count=212 329 1412 927 276 773 656 877 554 965 868 341 2359 582 785 400 243 334 395 556 385 542 4037 3608 6321 405 488 708 402 5014 4248
internal_value=-3.03928e-11 0.00807823 -0.0158328 -0.0397965 0.00390931 0.000291533 -0.0126837 -0.014939 0.0355009 0.0015808 0.0138981 -0.0493732 0.000151686 -0.00114194 0.000460038 0.0106199 -0.0130492 -0.0218335 -0.0084189 -0.0280314 -0.00566455 -0.0334294 0.00819236 -0.00884925 0.00184355 -0.00423177 0.00661259 -0.00804772 0.0037676 -0.00510454
internal_weight=12640.3 8369.84 4270.48 496.005 7265.33 5333.59 3774.48 3471.56 1104.51 5140.14 1931.74 420.446 4856.78 4608.76 4385.8 1746.93 3308.14 1151.6 2156.54 1023.18 2035.26 906.767 1621.83 1841.24 4148.13 1822.53 2325.6 1643.32 2117.55 1510.17
internal_count=40002 22227 17775 2847 19850 15329 14928 14001 2377 14556 4521 2635 13900 13318 12450 4192 13124 5151 7973 4817 7419 4422 3949 6863 11665 5538 6127 5138 5722 4650
cat_boundaries=0 17 34 52 69 86 103 120 138 155 172 188 204 221 238 255 272 289 306 324 340 358
cat_threshold=150994944 2098720 0 32768 16384 2097152 5505024 98336 16777216 2147483648 0 8388640 136380416 268435584 1040 75497480 2147483648 0 0 270336 8388609 134217728 67108864 16778256 0 67109120 16384 12352 0 4456704 1 553656320 655488 134217728 32 256 9110592 134414352 134217760 537001985 1073741824 2 202375168 0 0 0 67108881 134217728 1073741826 131074 4194304 32 4160 64 8 1610614784 10616834 2147745792 139853824 0 16777224 16777248 536870912 8388616 8 1073746048 0 8388608 2147483650 512 0 256 1073741826 33280 16777216 135663616 2149597184 0 1024 268435457 131072 526336 1086324992 32 0 2064 1073741824 1107296770 262144 0 2 67108928 16793600 67109648 266240 512 0 67125248 0 2 8192 1048608 201326592 71827968 68 4194560 536870912 67108872 0 268435456 1073744384 98304 0 268435456 2359304 1610612744 72 100663296 33554464 2048 2147483648 1073742082 536870912 4456448 33554488 2754560 0 0 0 0 384 0 0 16384 1376512 3584 524288 32 64 671088640 0 65552 0 1 524288 524368 1750073344 262160 131584 8192 1207959569 2147483648 524288 1048832 5505024 131328 1644167300 0 512 2147483728 276824192 524544 268435456 133120 134742016 134217728 0 0 2147483658 0 1207975936 268697600 67108864 1644233248 0 2147484160 32768 268435456 528640 2099200 32768 34078720 134217728 0 384 268435722 0 1207959552 268443650 544 160 8 0 67108868 7168 524576 2147500032 33554456 4194304 2147483712 0 603980032 134217728 65540 2097152 67108864 16401 16794784 1074266112 589824 536870912 68157440 0 1610612992 262144 1074792450 1024 131073 0 0 1048576 0 131074 20973568 0 67109888 1212155920 33554435 2056 98304 0 33554528 0 0 10485824 256 2621440 128 34603072 0 4194432 2181038080 10486016 301989888 524416 2048 0 2 32848 34304 262144 0 144 525328 262144 2684354560 134742016 34603520 67108864 65536 512 2162688 1107296320 8388608 2147487744 663552 32768 2147549184 4 4194304 0 10486336 138422280 8193 0 268437504 2359296 4194320 4194304 33792 32768 8388608 603979776 640 32 83886080 72 268443656 131072 0 525312 34603009 0 590912 8650752 268435712 50339844 16779264 384 33554432 256 0 32784 2048 2097152 2147500036 128 1024 212995 16777216 524292 536871168 2147516416 32 8390656 536871168 0 3221227776 64 1024 134217728 0 2149580800 64 0 8192 1073741824 2228512 2097152 1048584 12 536870912 262336 33730656 536870928 9 2164260864 16785408 67108864 8192 36864 0 16777216 0 4224 2147487744 0 1048577 2147549184 272633856 16384 536870912 16809992 524288 75530240 8650752 536879104 14
is_linear=0
shrinkage=0.05


Tree=8
num_leaves=31
num_cat=20
split_feature=20 15 5 0 0 4 0 0 0 0 0 0 32 0 0 0 5 0 0 0 0 5 0 26 11 0 0 0 0 5
split_gain=555.899 269.195 179.049 164.362 132.821 108.419 163.505 129.367 109.553 105.284 101.914 87.3494 75.8862 72.092 70.949 66.4801 64.9371 75.4575 53.7542 53.7263 52.0081 47.3272 46.9716 43.47 43.5019 78.5506 60.6505 43.4392 42.2222 39.8417
threshold=5.4650000000000007 589.50000000000011 4.1450000000000005 0 1 2.5000000000000004 2 3 4 5 6 7 64.750000000000014 8 9 10 7.3650000000000011 11 12 13 14 6.0750000000000011 15 4.8166666666666673 53.45000000000001 16 17 18 19 6.5650000000000004
decision_type=10 2 2 9 9 2 9 9 9 9 9 9 10 9 9 9 2 9 9 9 9 2 9 2 10 9 9 9 9 2
left_child=2 4 10 -4 -2 7 -7 -5 -9 -8 -1 -6 15 -13 -11 -10 17 -15 -19 -12 -16 22 -17 24 25 -20 -27 -21 -29 -3
right_child=1 29 3 5 11 6 9 8 12 14 19 13 -14 16 20 21 -18 18 23 27 -22 -23 -24 -25 -26 26 -28 28 -30 -31
leaf_value=0.013250593986508449 -0.027618147637607549 0.02620713666557032 -0.049308607866325821 0.047852837221767121 0.034924773660679913 0.028173451994474377 -0.054091943088685125 -0.04521827864776122 0.038178882803686039 0.015647695734793295 0.0050497309282815971 -0.014603690623334963 -0.030632652029267723 -0.019556141895179707 -0.042920571856943632 0.029963720594310708 0.027402403232507089 0.029301453584351773 -0.027407544567566597 -0.00083697015561352687 -0.011872470670110796 0.029909551664900776 -0.0032554076567932497 -0.02067958637100838 0.019211789325128945 0.030429247664823762 0.0050069279006031055 -0.0061712253648437392 -0.041029013377452017 0.053417910039932653
leaf_weight=144.16859958693385 251.88004803471267 215.46966148540378 200.1185888685286 154.73697448149323 296.02780836261809 244.29872876033187 145.5238408446312 107.50371970050037 156.13786855340004 214.98853862658143 99.416440512984991 341.6233244240284 136.21345336735249 242.13835918717086 139.19409334473312 109.92202869802713 433.09635273367167 286.489820105955 162.43211793899536 99.586829524487257 2020.2063635904342 157.3333626575768 935.06351539678872 135.88653873279691 711.15727428719401 250.90993091277778 2497.1381965493783 114.33794046752155 926.95821150764823 358.08265508525074
leaf_count=412 895 486 922 302 656 638 637 336 327 669 396 1210 724 839 644 234 1002 648 625 407 7528 294 2767 470 1450 553 6924 438 5656 913
internal_value=1.58044e-11 0.0105686 -0.0107013 -0.00606463 0.00723221 -0.00403254 -0.0102143 0.00567058 0.00128992 -0.0139922 -0.0265128 0.00890579 0.0049133 0.00731798 -0.011318 0.00851368 0.0089324 0.00708693 0.00870903 -0.0309918 -0.0140624 0.00430787 0.000494498 0.00706537 0.00812589 0.00541712 0.00743002 -0.034149 -0.0372966 0.0431955
internal_weight=12288 6182.33 6105.71 4721.24 5608.78 4521.12 2764.21 1756.91 1602.17 2519.91 1384.47 5356.9 1494.67 5060.87 2374.39 1358.46 4719.25 4286.15 4044.01 1240.3 2159.4 1202.32 1044.99 3757.52 3621.64 2910.48 2748.05 1140.88 1041.3 573.552
internal_count=40002 16671 23331 16022 15272 15100 10116 4984 4682 9478 7309 14377 4346 13721 8841 3622 12511 11509 10670 6897 8172 3295 3001 10022 9552 8102 7477 6501 6094 1399
cat_boundaries=0 17 34 51 68 85 102 118 135 152 169 186 203 221 238 255 271 287 303 321 338
cat_threshold=4456448 2147485696 128 2 12582924 0 268455936 393216 2049 0 64 100663304 0 50176 100663296 1344274432 2149580800 150994944 0 1073742336 2293760 1073741824 17 4 1049602 524288 8783872 0 16777216 4194304 0 1075314688 40 4194314 134217860 8256 66048 0 268435456 22 2214592513 514 589824 16 1 16777280 4194304 0 16793604 65548 1073741824 0 262145 0 0 32 8192 16842752 33554432 1048576 2416969736 0 2281767936 32768 1157627904 1073741824 16432 4194313 8320 134217732 17317888 8 512 8393220 0 0 65544 33554432 276824064 536870976 2 2 16644 0 4736 524290 0 0 0 131074 1073751040 16777216 2097152 16390 2215646208 0 1207959552 1073819649 4194560 0 0 32 269107200 134217728 64 131072 2281701384 8390784 268697856 294914 16384 3221226496 1048576 0 1 0 256 1073741824 8704 512 16793600 2 13107332 0 268451840 131080 2048 67112960 64 1174405128 270338 0 32 0 2097280 131072 321 2684354560 14155777 0 2050 0 512 268436256 2147483648 5120 0 8388608 67108864 2164260864 8342 1 1073741824 268439680 35790848 134348816 1074012176 1048577 1024 0 537001984 33554688 0 18 0 65 1073742336 0 135170 18350082 33685504 0 66560 131072 0 33554434 3145856 16390 8388608 0 285212672 1644545 0 134217728 2214592514 48 2684354816 268963840 0 0 2097152 1048576 65536 8388624 1179712 65560 388 5120 0 196609 136314880 512 33554432 67108864 1024 524416 0 0 1073746432 262144 0 16785408 512 134217728 160 0 281542656 8 1343225856 2147519040 40 16777216 0 4197377 67129344 268435456 6291456 5120 0 0 140511232 268517376 1612972032 6144 65792 0 2097152 8192 69206016 131072 4353 128 34095104 0 1048576 33554436 8192 285212680 169893888 0 393216 1048576 17 0 268435472 33554464 32 33024 134217728 524288 2113600 2129920 0 1073774592 0 3014656 4194816 0 768 128 671088640 8421408 0 134217728 264192 0 16384 2281701376 37752896 0 0 1450496 268435456 16778240 32 65536 67112192 1075841024 8456192 2097152 16608 2147483712 4195360 553648128 16777216 33554432 1024 33554432 537001984 131072 0 33554432 33816576 136314880 33685504 128 512 16384 671089664 4196352 608174080 8388608 0 8519700 0 8388608 1048576 33554432 65536 67108896 1 264192 524294 16384 2147549312 0 0 16777728 1090519040 134217728 256 134512640 134250498 134283264 2147483648 138412032 293601280 72
is_linear=0
shrinkage=0.05


Tree=9
num_leaves=31
num_cat=22
split_feature=5 15 13 0 5 0 13 0 0 0 0 0 5 0 0 0 0 0 0 0 0 0 32 0 0 0 0 5 0 0
split_gain=520.268 287.526 106.181 128.173 99.3319 79.8155 69.0642 137.32 123.497 83.5203 82.327 67.0457 60.2129 107.273 99.1938 72.8089 56.5349 53.853 53.5786 51.3886 51.0588 49.8233 47.3616 100.794 74.6654 54.0294 41.0533 41.599 40.4812 39.7194
threshold=5.0950000000000006 526.50000000000011 21.550000000000004 0 2.8050000000000002 1 8.5500000000000025 2 3 4 5 6 6.2550000000000008 7 8 9 10 11 12 13 14 15 29.850000000000005 16 17 18 19 7.035000000000001 20 21
decision_type=2 2 10 9 2 9 10 9 9 9 9 9 2 9 9 9 9 9 9 9 9 9 10 9 9 9 9 2 9 9
left_child=4 2 3 -2 -1 -4 8 -8 -6 -9 -10 -5 14 -14 -13 -16 -11 -12 -7 -17 -18 -15 25 -24 -25 -19 -23 -28 -21 -27
right_child=1 -3 5 11 6 18 7 9 10 16 17 12 13 21 15 19 20 22 -20 28 -22 26 23 24 -26 29 27 -29 -30 -31
leaf_value=-0.054787407358566624 -0.035976563513923546 0.038957811121509978 0.049746076632281602 -0.022308122793962035 0.019490050110362478 -0.017982392662667542 0.038792931695809593 0.024688371166159517 -0.059143245039291525 0.018103903922108047 -0.052130034318664545 -0.04027292165303209 0.049024287750990027 0.032029066557846403 0.028866489176530414 -0.029409752999141371 -0.054196543233392125 0.01691960679475504 0.013420512520537376 0.0197558333292264 -0.014249059394481437 -0.016806654262135876 0.025742461599555639 0.012305787063078791 -0.049235454223939434 0.0097460293580391346 0.0015304309084820632 0.023079430321555447 -0.0011956992239913007 -0.018606447219310096
leaf_weight=148.23718640767038 218.28854445368052 663.05088041629642 136.52977470308542 251.31000774353743 191.49728468991816 139.35732962563634 151.97364466823637 147.58841108717024 134.10152137838304 116.96130968816578 111.81317718327045 138.95256733335555 160.46698574349284 166.07321402803063 215.2466471940279 137.68881389126182 81.048029867000878 134.93449091725051 1868.3270916491747 246.70395355299115 1051.1406687041745 198.84132266417146 64.280819252133369 59.292023979127407 334.90825495216995 135.56397141329944 821.72715808264911 307.86768692731857 2256.609073664993 1171.0739703038707
leaf_count=1053 996 1672 233 1024 644 421 376 393 830 339 696 530 278 330 523 570 373 445 4296 628 4118 672 222 248 2527 447 2282 721 7051 5064
internal_value=1.13432e-11 0.0074392 0.00456221 0.000650076 -0.014617 0.0139033 -0.0130847 -0.00489582 -0.0185103 -0.00985659 -0.0218901 0.00234985 0.00372746 0.0113896 -0.000493773 0.00157691 -0.0141018 -0.0191267 0.0111625 -0.000747745 -0.0175582 0.00697406 -0.0169218 -0.0310086 -0.0399035 -0.012559 0.00362594 0.00733858 0.000939484 -0.0156132
internal_weight=11961.5 7927.04 7263.99 5119.78 4034.41 2144.21 3886.18 1548.71 2337.47 1396.74 2145.97 4901.49 4650.18 1654.98 2995.2 2856.25 1249.15 2011.87 2007.68 2641 1132.19 1494.51 1900.05 458.481 394.2 1441.57 1328.44 1129.59 2503.31 1306.64
internal_count=40002 22227 20555 15605 17775 4950 16722 5599 11123 5223 10479 14609 13585 4283 9302 8772 4830 9649 4717 8249 4491 4005 8953 2997 2775 5956 3675 3003 7679 5511
cat_boundaries=0 17 34 52 69 86 103 121 136 154 172 189 206 222 239 255 272 289 306 323 341 359 376
cat_threshold=32 16777216 536879104 1024 0 2097280 0 0 67109252 131080 262272 0 17039376 18432 3868674 19072 268435456 0 16777218 16777216 2147483648 512 52428800 5505024 16777216 67108864 524326 2359296 512 16777216 18432 2048 0 32768 270532610 0 1048576 134218880 65536 200960 1 0 1048576 256 33554432 3211264 2101264 33554432 1207959562 4194320 9437184 32 0 536871172 17377280 16777236 16 0 0 536871427 134234112 2097168 20971584 524288 536870912 67502080 16384 2 96 8 134479872 33554944 100679712 16384 1 2499870720 33554432 0 134217736 0 0 67108864 8389128 301989904 1140850688 524292 4105 0 0 33556480 65536 2147488000 16777216 35653632 0 201326592 0 2166792 69632 1376256000 268435480 2151677968 524288 65792 2147483648 1073741824 2156658696 0 0 4 16777216 0 68 142144 256 1 8394240 256 537399552 64 64 2052 1024 2228224 0 4825088 264448 33024 8388608 262144 896 8 537919488 2048 805306384 134221984 2147483652 536871936 256 256 33554432 788480 2147483648 0 8388608 1073741952 16384 39845888 0 805437440 134217760 4 2164260864 32 1610616832 1077936256 0 1073741824 2097152 4194304 141312 1 593920 1024 1073774608 0 32768 1224736768 8388608 33554464 67108864 2 128 2147483778 66 65536 134218816 8388608 538969088 68159488 4194304 67108864 0 6144 262144 268959744 8388672 16384 128 1075052544 0 0 67174528 12583169 131072 67108864 1064960 532480 268435744 33554432 640 0 8388648 1 67108864 2156920960 2 2048 2147876864 2113601 0 0 176 0 33 434176 33555456 524288 0 134217856 4194304 35651584 33571328 32768 1048577 4112 1048576 131328 1342210048 0 0 16777216 2097152 0 8389896 20 2147495936 2147483649 1048576 71303168 1090519040 16787456 268435456 0 0 0 1 16793600 2099200 4194304 0 1610612736 68354048 49664 34 2181038082 8392704 0 587206916 36702208 1703936 536887424 0 8192 0 16384 4 536871936 589824 8192 12 1073741824 0 17302544 1024 134217728 524328 64 1073745920 96 8388608 1073746944 0 262144 1107296256 134283264 8192 786464 33587200 4202496 4260065 0 131584 201326592 335546368 2228224 0 1342308352 2048 40960 16777216 0 16777216 536870912 1075838976 604243968 67108864 67108864 0 264 0 16 524800 268435456 0 524288 2147483648 2181038146 134218752 65 2218820096 33751041 4194320 536870976 16 0 6291457 0 1 134217792 16386 1074792018 33906688 1207993344 0 128 16777216 262144 1024 0 4 131072 2097744 64 131136 256 1024 25165824 2097184 0 277872640 2147483648 426024 1073741824 67108864 4 65536 1073762306 8 134218000 33280 2113664 2415923200 0 6823936 268435456 524288 0 2684354560 48 134217984 2415919105 536870912 16777472 0 16777216
is_linear=0
shrinkage=0.05


Tree=10
num_leaves=31
num_cat=22
split_feature=5 15 26 0 5 0 0 13 0 0 0 0 0 0 0 0 13 0 5 0 0 0 0 0 0 0 0 0 32 0
split_gain=461.548 261.827 105.514 88.4019 86.5659 121.249 77.8425 71.6419 138.841 94.7949 64.9513 64.0055 63.4059 62.6482 69.4842 52.3549 55.7866 49.3272 45.5811 107.974 73.3292 73.1023 43.6023 41.7027 38.6179 39.1562 38.2932 38.1674 39.2104 98.4021
threshold=5.035000000000001 594.50000000000011 2.2250000000000005 0 3.7350000000000008 1 2 10.050000000000002 3 4 5 6 7 8 9 10 21.550000000000004 11 6.3750000000000009 12 13 14 15 16 17 18 19 20 36.050000000000004 21
decision_type=2 2 2 9 2 9 9 8 9 9 9 9 9 9 9 9 8 9 2 9 9 9 9 9 9 9 9 9 10 9
left_child=4 2 15 -4 5 -1 -6 8 -5 -9 -8 -11 -7 -10 -15 -2 -17 -16 19 -13 -21 -20 -23 -22 -14 -26 -19 -12 -29 -30
right_child=1 -3 3 7 6 12 10 9 13 11 27 18 24 14 17 16 -18 26 21 20 23 22 -24 -25 25 -27 -28 28 29 -31
leaf_value=0.023404698435043406 0.042254100944093986 0.04194977890747717 -0.027417270679074447 0.042552228694312633 0.015210766358944448 0.0076126322734948841 -0.047218217219338852 -0.027206880282845625 0.026196464583944874 0.031142687053543436 0.0065642446880957508 -0.038209860005245427 -0.0031059808810945631 0.01985791477908657 0.015789087434801247 0.0024719000582475626 0.024394265132109669 0.0084793417331471468 0.049077613661579922 0.031097940756243475 0.021686952989127348 -0.01247917368956834 0.013017068621657 -0.0004626293319786774 -0.011646204153502355 -0.056643282415806462 -0.028952243551174935 -0.01050602418021108 0.026620085092544134 -0.036912516383288976
leaf_weight=88.611309021711349 174.77975852414966 498.46022710204124 240.02633292041719 113.31308395415545 257.31153074093163 70.316828645765781 125.95600644685328 198.95882933214307 83.560288224369287 256.08243468031287 263.69531796500087 147.69210191071033 62.602043882012367 107.52092854678631 76.56378747522831 598.75346670486033 563.13274988904595 76.486614108085632 118.87693364173174 224.39669555239379 226.1095536518842 190.18181906081736 1132.6088580600917 2128.3414766062051 78.644834719598293 389.48877282626927 737.55838037561625 2004.1390978563577 67.898027149960399 362.76911453623325
leaf_count=272 342 1357 968 256 738 277 779 658 217 596 853 513 323 288 212 1666 1230 221 212 497 528 666 3008 6211 377 2996 3148 7817 217 2559
internal_value=2.704e-11 0.0068748 0.00451055 0.00170515 -0.0143886 -0.0304015 -0.0108051 0.00294862 -0.00795936 0.00577447 -0.0131823 0.00730261 -0.0380897 -0.0135191 -0.0170709 0.0172257 0.0129853 -0.0217002 0.00576692 0.00197873 0.00441142 0.0129713 0.00928526 0.00174723 -0.0441736 -0.0494856 -0.025375 -0.0114252 -0.0133924 -0.0271351
internal_weight=11664.8 7893.4 7394.94 6058.28 3771.43 689.664 3081.77 5818.25 1195 4623.25 2824.46 4424.29 601.052 1081.69 998.13 1336.67 1161.89 890.609 4168.21 2726.54 2578.85 1441.67 1322.79 2354.45 530.736 468.134 814.045 2698.5 2434.81 430.667
internal_count=40002 22794 21437 18199 17208 4245 12963 17231 4342 12889 12225 12231 3973 4086 3869 3238 2896 3581 11635 7749 7236 3886 3674 6739 3696 3373 3369 11446 10593 2776
cat_boundaries=0 17 33 51 68 85 102 119 136 153 170 187 204 222 239 256 273 291 309 326 344 361 377
cat_threshold=2149580800 134217728 0 35783697 16 67108992 16777216 0 202375232 2113536 264 16777218 0 0 2148532224 525312 262176 1092616192 134218752 1088 0 2147500040 2099200 21304320 67141632 0 2684355584 0 8388608 0 2147483648 71303170 1090519040 32 0 73761 132112 134217728 134414464 3489660928 64 9437184 0 0 0 67108864 134480384 3254780160 2 64 32 4382848 8192 2163200 256 41984 4195336 134217728 0 0 4194576 16777216 262144 2684354560 0 32 65536 2097664 132096 537395200 268501504 65792 8192 403701768 805306368 603979784 1073741824 262400 0 0 536870912 0 1073745920 2293776 512 8392704 0 0 1610614784 8 17039360 139743232 2097152 16779264 1024 536870912 8421376 0 1073811456 536871936 16777216 201326592 8392704 33554480 0 0 536870912 33562624 0 1073741824 10240 134218754 35913728 196608 268443648 1082130692 1024 8388640 32769 512 2621440 8 687865856 68 0 0 2162696 402655232 0 32768 2056 1744896008 65664 8389633 0 32 65536 268435456 0 1140850688 2149580804 285282304 805308416 536904192 0 4097 0 1048576 0 524288 16 2149580800 1073741824 1073741824 524288 0 536870912 65544 16384 4096 77594626 536870928 1074003968 134252544 35655681 524288 1310752 335544320 2 2050 3255828480 0 0 33554432 16 68190240 16793600 4 1052672 2097696 24 536887810 0 16908416 0 35127296 134479872 0 4390912 1048576 65538 272629760 256 8388608 32 1074036737 0 1610612736 0 262144 65552 0 268566528 536871168 16896 268436480 9437184 128 65536 133120 1073741824 2147745796 2155905024 1048576 134219904 8388608 0 0 32 37748738 0 64 0 74 2 134217728 1073745984 2164260864 131136 256 0 8388676 1048577 32768 16809984 136380424 0 671101184 8388608 512 1536 0 4 65792 264194 1107300352 20480 2147483656 0 671154176 8912896 134217728 0 32 268435456 16777216 536871040 0 3758096384 8650784 0 0 8256 16777216 16 237572 1024 4 0 134217728 788544 134230016 1073741824 1140850688 133120 0 512 1024 16400 8192 268435585 2 0 16384 4 1107296400 16777216 77 2147778568 528384 4 4210944 67108888 256 4096 1073741824 4096 512 268435456 16777216 0 131073 2359328 2097152 8 16384 541065216 2437023760 64 201326592 548 37749392 0 67109904 0 0 1207960064 2195456 4194560 268435458 1073741888 268435456 1048576 16 33554456 67108864 268435456 0 32896 0 1048576 1441792 256 0 0 32768 67108864 8 120 0 4194304 100663297 4349952 1 536870912 263 25315328 33619976 524288 536870928 2 3 2147483652 1073745920 524288 1048576 33 33554433 4 16384 32 270532608 536870976 0 0 81920 268437504 132096 1024 268566528 134217728 2147483648 17301504 35651584 2151687168 268453888 1074266112
is_linear=0
shrinkage=0.05


Tree=11
num_leaves=31
num_cat=22
split_feature=5 15 5 0 0 0 32 0 0 0 0 0 5 0 0 0 24 0 0 9 0 0 5 0 20 0 0 0 9 0
split_gain=410.352 203.532 117.744 101.806 87.8561 80.9999 77.2043 105.942 87.1685 62.1801 56.3556 53.6881 52.6076 52.3292 45.7324 42.4901 48.1133 69.4373 63.2715 48.6073 94.9957 42.5027 41.3259 40.1369 39.1243 36.9029 36.2864 36.0462 35.0892 117.883
threshold=5.6350000000000007 589.50000000000011 4.6750000000000007 0 1 2 16.650000000000002 3 4 5 6 7 2.8050000000000002 8 9 10 0.069438837082405405 11 12 13 14 15 4.4350000000000014 16 4.4850000000000012 17 18 19 20 21
decision_type=2 2 2 9 9 9 10 9 9 9 9 9 2 9 9 9 2 9 9 9 9 9 2 9 8 9 9 9 9 9
left_child=2 6 5 -4 -5 22 11 -8 -9 -7 -6 -2 -11 -10 -12 -15 18 -18 -17 -19 -21 -22 -1 -14 -16 -20 -26 -13 29 -25
right_child=1 -3 3 4 10 9 7 8 13 12 14 27 23 15 24 16 17 19 25 20 21 -23 -24 28 26 -27 -28 -29 -30 -31
leaf_value=-0.0011057722189088768 0.043628278773447562 0.041546865858130368 -0.046058999840600585 0.027749143720333783 -0.032081479210554369 -0.053416426430028835 0.034949477761047364 -0.033364616424094475 0.025433752143238432 -0.050810013480581187 0.017981206786124391 0.035609100038608898 -0.044633271652841082 0.021549059615981386 -0.032475182708492749 0.037102778137435399 0.026549017000642074 0.00089194315780558226 -0.017808646575426589 0.0215896790447411 0.0033588798562555061 -0.030782779965795926 0.047994230133822938 0.028229815648544578 0.017174139374875618 0.0062043924977600896 -0.0045763935867223163 0.0098016969588300643 -0.010061743436057223 -0.034205151982047606
leaf_weight=153.01367748435587 142.67404898628592 453.53258125670254 120.49850920401514 235.16375105921179 152.44807270355523 126.63898536656052 221.02936891466379 175.70571856573224 209.60679671913385 115.28305107634515 255.32138412259519 143.46567043662071 111.5121966842562 203.68750882893801 114.36207837704569 133.85118052735925 127.71985983103514 543.69644485041499 188.21364742703736 120.8378743827343 112.9150279443711 596.77371841855347 59.526464108377695 83.40163180232048 202.93875753693283 822.18221361003816 1943.3575408831239 1554.591687714681 1476.3173169279471 492.79159786179662
leaf_count=631 258 1309 597 583 643 827 510 705 499 948 683 276 739 507 532 306 326 1720 812 340 335 2287 138 252 605 2541 6761 3632 6995 2705
internal_value=1.64926e-11 0.00939971 -0.00957947 -0.00285856 -0.000904009 -0.0173415 0.00664723 0.00224196 -0.000100348 -0.0199078 -0.00352333 0.0149187 -0.0178208 0.00191249 -0.00167279 9.96291e-05 -0.00162633 -0.00751719 0.00609182 -0.0107979 -0.0183701 -0.0253795 0.0120775 -0.0161458 -0.00396194 0.00160062 -0.00246112 0.0121778 -0.0143109 -0.0248405
internal_weight=11393.1 5750.48 5642.58 3024.09 2903.59 2618.48 5296.95 3456.22 3235.19 2405.94 2668.43 1840.73 2279.31 3059.48 2515.98 2849.88 2646.19 1501.94 1144.25 1374.22 830.527 709.689 212.54 2164.02 2260.66 1010.4 2146.3 1698.06 2052.51 576.193
internal_count=40002 16363 23639 10404 9807 13235 15054 10888 10378 12466 9224 4166 11639 9673 8581 9174 8667 5008 3659 4682 2962 2622 769 10691 7898 3353 7366 3908 9952 2957
cat_boundaries=0 18 35 53 71 89 106 123 140 157 175 193 210 228 230 248 264 281 297 314 331 333 350
cat_threshold=2097154 2 4194304 0 33554440 67109376 4473344 4096 0 1073741824 0 4194304 131328 8320 134217984 2097152 1024 84 0 2214658176 0 134217728 268435456 70656 1 1024 0 134217728 1140850720 64 33554432 2097157 72 2416066594 133120 18874370 0 41951232 544 0 136323216 268435456 4160 4194304 1073741824 0 268435456 71303168 134217728 134217986 0 64 96 587204608 134217736 8388640 536870978 524416 12 5242880 25165824 16777232 48 0 0 0 545260672 32 33554436 0 16 32768 131072 524308 24 8192 66560 131072 134217792 32772 2490368 528384 0 50397188 1 3 128 134807552 1 0 2222981120 0 32770 562171904 65536 2129921 0 8192 134217952 536870912 524296 0 0 2147483656 2147516422 1610612736 67108864 0 33562656 536870912 0 1076144384 1048576 0 1074790400 67108864 2281701440 0 0 134217728 67121153 1073741824 2181038177 294912 131584 4 36864 8390656 33554944 0 136314880 2097152 0 134217728 640 0 65536 268435457 1048576 202407936 0 0 0 65536 2149646337 272893952 1024 1073750020 33556480 33554432 2147549184 671744 131074 0 33563136 0 1075838984 5243912 0 524800 0 536895488 33 1075838976 1 0 268435456 268959744 1073774601 278528 67108864 3221225472 4194304 537468928 1 69206032 1610888196 82440 0 68157440 2 0 0 0 2 25165824 65536 0 131136 75497600 1073741824 553649152 4 1073741824 524288 1 0 37748834 67117568 1073742096 2176 134480904 0 134217728 134217732 1048608 16 0 0 8388608 68 1048704 134225920 33817088 256 2621440 134266880 0 32 68158464 1048576 7168 67112968 0 0 524288 0 2 210124949 140 524288 33024 33554560 8519680 0 0 132 131072 1 268435712 33556000 1048576 0 4239362 33792 675549440 0 64 131328 8388610 20971520 1077936128 939524112 11534336 16384 67109120 12290 132 536870912 262144 512 69208064 1610612736 2048 4096 4202496 256 128 0 16384 134217728 137494528 536875008 16777236 2097152 2147684352 0 0 805339152 1064960 1572864 0 0 805306369 12582912 0 0 1174405148 0 1792 8196 1024 32768 8388608 8192 2031616 6400 268468224 64 8 0 8388628 0 16908290 135266304 536870912 536873028 35651592 2162690 32772 12714496 0 67108864 134217728 8192 0 0 1073741828 4108 1048576 268451840 67108872 1179648 0 12354 545262880 134283264 0 0 0 2147483648 939934248 52 0 134217728 4211728 268500992 0 67108896 17825792 67633164 0 256 12713984 138412032 2162688 2147483648 0 268500992 16384
is_linear=0
shrinkage=0.05


Tree=12
num_leaves=31
num_cat=20
split_feature=5 15 5 0 0 0 0 0 5 0 5 0 0 32 0 0 0 0 0 10 0 0 7 0 20 0 6 0 0 0
split_gain=372.265 176.787 123.392 105.746 68.7008 68.6214 64.5037 59.7414 63.9846 77.5724 59.0155 61.5841 48.0271 41.7592 87.3575 63.8717 59.2992 42.3316 41.6955 41.2832 39.5073 37.0995 36.3773 43.8765 35.5064 48.4584 40.976 60.2358 58.1622 46.1945
threshold=5.8650000000000011 589.50000000000011 4.6550000000000011 0 1 2 3 4 7.3850000000000007 5 2.8050000000000002 6 7 84.850000000000009 8 9 10 11 12 718.50000000000011 13 14 35.730000000000011 15 5.6150000000000011 16 33.875000000000007 17 18 19
decision_type=2 2 2 9 9 9 9 9 2 9 2 9 9 8 9 9 9 9 9 10 9 9 2 9 8 9 2 9 9 9
left_child=2 4 5 -4 -2 -1 -5 -6 9 -9 -7 19 -8 14 -14 -15 -16 -18 -17 -12 -11 -19 23 -20 -22 -26 28 -28 -27 -30
right_child=1 -3 3 6 7 10 12 8 -10 20 11 -13 13 15 16 18 17 21 22 -21 24 -23 -24 -25 25 26 27 -29 29 -31
leaf_value=-0.054420393419911429 0.034053922311361215 0.042010275968562938 -0.040903711304851632 0.022360539961872494 -0.017207648458742428 -0.050082882381969521 -0.026488702962058009 -0.02173567000408988 0.025856870804853223 0.026709325133807211 -0.0027091496149354607 -0.015497839323591146 0.027731291035179385 0.034100997028413217 -0.046012357682142922 -0.025286951085737693 0.018329854813210655 0.012589522651118871 0.025856422853143719 0.043866991265596567 -0.0068639781151936244 -0.013153902597210118 0.015344000384978351 -0.0068254029776570902 -0.017751121129247701 0.03499493895903618 0.044803453356423349 0.011733298325039306 -0.030418627704227076 0.0029777212041316756
leaf_weight=106.96726616565138 223.53760386630893 408.35625163465738 159.91732983104885 273.65602672379464 249.62322673760355 111.98321117646992 185.97380563337356 236.25701289996505 429.0812721773982 237.31261124461889 140.43971746973693 2067.5787533465773 160.50555300153792 157.41562540084124 97.719338791444898 122.9319395236671 136.92226204648614 152.8430594727397 109.99487403035164 71.949763346463442 465.76760601066053 1165.3944956175983 463.76314887031913 706.66402238607407 161.08880051970482 118.25420087575912 154.34766044095159 1063.5698306616396 106.35459307208657 931.3280557282269
leaf_count=820 484 1241 776 752 1043 984 757 897 1117 549 562 10469 435 331 474 333 432 502 258 176 1451 4952 1191 2064 486 246 311 2935 308 2666
internal_value=-4.35146e-11 0.010547 -0.00789441 -0.00232937 0.00761125 -0.0165656 -0.000566171 0.00609128 0.00762143 0.00539125 -0.0145843 -0.0129047 -0.00243862 -0.000996065 -0.00638848 0.00491725 -0.0100291 -0.00731514 0.00139077 0.0124815 0.00741475 -0.0100968 0.00412818 -0.00219049 0.00580519 0.0081559 0.00994682 0.0163885 0.00324578 -0.000702822
internal_weight=11177.5 4784.88 6392.62 3893.7 4376.52 2498.92 3733.78 4152.98 3903.36 3474.28 2391.95 2279.97 3460.13 3274.15 1713.38 1560.77 1552.88 1455.16 1403.35 212.389 3238.02 1318.24 1280.42 816.659 3000.71 2534.94 2373.85 1217.92 1155.94 1037.68
internal_count=40002 13734 26268 13257 12493 13011 12481 12009 10966 9849 12191 11207 11729 10972 6795 4177 6360 5886 3846 738 8952 5454 3513 2322 8403 6952 6466 3246 3220 2974
cat_boundaries=0 17 34 51 68 85 102 120 138 155 172 190 207 225 242 260 277 295 313 329 347
cat_threshold=2097154 1024 41943044 36864 33619968 136585216 16384 2269122560 0 256 134217728 0 256 0 167772192 2097152 2181038144 0 536871936 256 32768 65536 41216 2147500032 2147488000 50331648 770 0 0 2 0 268436000 4 2181071888 0 8388608 0 2 562171906 16859392 2129920 128 33566720 128 603979776 524296 0 0 2684354568 2147516420 537919488 0 4194304 8192 0 393216 66561 0 1024 0 134217728 369098800 8 33554436 77594625 8 2148556832 537004032 16777216 4194304 536880128 8388609 134217760 65553 0 268435520 4194592 401408 0 0 50331652 0 1572864 1664 2048 8 86016 3221225472 6815744 2359296 0 104 262148 576 302055424 1048840 524288 0 401408 67108864 8192 32 2097154 1025 41944064 512 134217728 134348816 268435456 603979840 5259264 1073741824 0 268435456 71303168 134217728 142606594 134217728 64 32 64 557064 4194561 1073742336 0 536870912 268435456 536870912 50331648 3288334336 4 24576 4194368 268435456 268448260 0 16385 32 0 4100 512 0 1344274464 4194312 150994947 0 131072 276829200 8421376 557122 0 0 0 131072 262400 787496 33554432 16777216 0 16 0 196608 8193 65536 2097156 524288 512 278544 16777488 0 4194324 277348352 262176 262144 8 67108864 0 25165824 2684551168 0 0 2097152 1048576 3076 8388608 65808 0 4194324 1160 64 65536 2155872256 2097184 134217728 554173056 268439616 67108864 2 262144 536870912 2147483648 67108880 2097153 0 4227136 0 4194304 131072 2 262144 0 336068608 8 67108866 0 3293184 524288 0 2130242 131074 0 0 134217728 16777988 2 67244160 1090519552 16388 4096 67636228 134219780 32768 18876416 0 0 134217728 0 256 3489660930 1024 33554432 1048577 0 73730 0 536870912 8192 33554432 14680064 544 1074806784 34603072 16793600 33554560 32 4194304 67110912 201326594 16777220 1 268435456 0 33792 67110144 2147487744 2147500032 1073741824 268435456 0 0 1 3221225472 8 16384 3238002816 1 201326720 65536 0 524288 0 522 1048576 25165824 1048578 131074 24 16777220 32784 2147483648 16777216 2129994 0 524290 1 1075838976 268435468 196608 536887808 0 2 4194436 131072 2147487744 1073741952 16384 134217728 67108864 0 12582912 20971520 65536 4 33554945 0 8650752 32 128 1076363264 268436482 0 10240 1048576 64 335546368 2048 536870912 33554432 2147483648 0 0 69632 538181632 0 4194304 67108996 4325376 2147487744 1024 0 1245184 67108864 135266304 4194305 262144 0 4
is_linear=0
shrinkage=0.05


Tree=13
num_leaves=31
num_cat=24
split_feature=20 15 5 0 0 0 0 13 0 0 0 0 4 0 0 0 0 0 0 0 0 9 0 0 0 0 5 0 0 0
split_gain=354.536 176.828 99.5869 114.305 91.5466 85.3254 74.7015 64.4076 99.6739 86.8823 60.9374 57.8612 57.4341 107.302 92.0136 73.5413 54.3936 50.9431 45.7349 44.5471 45.4756 41.4865 74.8661 40.5877 40.0385 36.8246 36.2455 64.3737 55.3876 47.7432
threshold=5.0950000000000006 589.50000000000011 4.1850000000000014 0 1 2 3 23.150000000000002 4 5 6 7 3.5000000000000004 8 9 10 11 12 13 14 15 16 17 18 19 20 6.2750000000000012 21 22 23
decision_type=10 2 2 9 9 9 9 10 9 9 9 9 2 9 9 9 9 9 9 9 9 9 9 9 9 9 2 9 9 9
left_child=2 6 5 -4 -5 -1 -2 8 -8 -10 -9 -6 14 -14 -13 -15 -7 -16 -11 -17 -21 -19 -23 -20 -24 -12 27 -25 -28 -29
right_child=1 -3 3 4 11 16 7 10 9 18 25 12 13 15 17 19 -18 21 23 20 -22 22 24 26 -26 -27 28 29 -30 -31
leaf_value=0.016171884555350315 -0.019008084509799739 0.037585827308566112 -0.048752607161794248 0.024720966993601708 -0.036939196627685564 0.0077034862646184121 -0.030315324043201752 -0.017681885979068869 0.030831263561340555 -0.019243768148254972 0.042519263102751767 0.036057207430028347 0.029579048731614987 0.018398327382599475 -0.032558148946454368 0.010032999645645489 -0.031067346660124118 0.01176922336202809 0.021523853411217819 0.0035955832903913731 -0.030878235413709029 0.029320806119870715 0.014372730352777247 0.028355276947452785 -0.019192229755001844 0.014775000873428805 0.036832168681868227 -0.033341751887270274 0.004924651737801853 -0.0022391662460574386
leaf_weight=121.95898057706654 294.74929959699512 452.06214872933924 141.38272424787283 242.13736541196704 140.90483705420047 101.70306770689785 202.62097640521824 128.95046140253544 287.69113200344145 213.28844421170652 129.82016805559397 160.69661823660135 123.70934960618615 117.05272640287876 120.92225273698568 92.756868934258819 988.48397254012525 470.01831831037998 295.92933730781078 114.84526604600251 755.50642989668995 110.58691349811852 100.99485220015049 151.69239688385278 534.04629100020975 1426.5084720551968 148.48171052336693 123.94775964133441 1038.2666118182242 1628.3961558584124
leaf_count=390 1166 1408 742 671 707 465 983 369 761 844 259 404 362 396 439 342 6427 1503 815 419 3647 311 282 418 2230 3533 326 567 3120 5696
internal_value=8.26372e-12 0.00741768 -0.0109023 -0.00631064 -0.00419338 -0.0231207 0.00517104 0.00642677 0.00304869 0.00485307 0.0146638 -0.00673488 -0.00502883 -0.0131784 0.00149021 -0.0181809 -0.0274133 -0.00291378 0.00269739 -0.02277 -0.0263402 0.000276577 -0.00702787 0.00413178 -0.0137141 0.017346 0.00240252 -0.00186439 0.00926867 -0.00461584
internal_weight=10960.1 6522.41 4437.71 3225.56 3084.18 1212.15 6070.34 5775.59 4090.31 3887.69 1685.28 2842.04 2701.14 1203.87 1497.27 1080.16 1090.19 1336.57 3600 963.109 870.352 1215.65 745.628 3386.71 635.041 1556.33 3090.78 1904.04 1186.75 1752.34
internal_count=40002 20265 19737 12455 11713 7282 18857 17691 13530 12547 4161 11042 10335 5166 5169 4804 6892 4765 11786 4408 4066 4326 2823 10942 2512 3792 10127 6681 3446 6263
cat_boundaries=0 17 34 50 67 85 102 118 135 152 169 187 204 222 239 256 272 274 291 309 327 344 361 378 395
cat_threshold=2048 8388610 1053697 134217760 131081 268435456 0 603979776 0 2 134234112 101187592 262144 8437888 33554432 0 2099200 184550400 268435456 4194304 0 537952256 2 4 1568 301989888 16 32 16777283 32 67108864 0 2281701388 4194316 269090816 67108864 16384 131072 2415919104 4196480 262400 537165826 0 1024 269500416 262144 1 0 8448 8454144 419431424 268435456 3225419776 6422528 536903680 1 4 32 268959744 393216 131072 65536 8388608 0 3222798336 8388616 8 0 1 536871424 2147483656 0 2097152 1048576 0 138412290 151519232 2098048 1 16 65536 18940160 536889728 64 64 2101248 12585984 2098240 134217920 256 67108864 536880128 67108881 0 513 0 536870920 67371008 536870912 37748736 1114112 2097152 0 16640 268435520 16385 2048 0 33554560 2147745808 545 40960 33620992 0 4194304 64 4194432 1028 4296 2147485696 8 130 16777216 264192 16384 16777216 0 301989888 0 33024 0 2048 268436224 67207168 2348811776 268435456 67109504 16851456 24 1208029184 16448 0 192 536870912 0 12582977 0 0 0 16777216 0 139330 536870944 262145 0 268451840 67108960 1 98304 274726912 0 1048576 131072 2550158336 0 3255304256 1610612736 32 33554432 1073742080 671092800 16384 2147516932 272512 32768 2147483648 0 589824 134217728 65540 4259876 268435472 0 32768 16384 0 72 16384 537395204 4229120 0 0 278921216 2 1073741824 134217728 1212153856 196628 134217728 33554432 25165824 33554976 1090519040 67117064 268435456 218104360 630784 12 1073809920 36864 0 532480 0 0 272629761 538968064 0 0 32768 0 262146 2 81952 67108928 0 269746176 1052704 0 138412032 524800 132 8 266290 0 16777216 8192 262144 512 5251088 2147500032 8488 16 33554432 2097408 4718592 256 524288 2101248 524288 805306368 0 0 65546 134217732 0 537133056 4194304 1090519044 35651586 536870912 512 257 76021761 0 1081344 0 2621440 536879120 557056 0 16392 285212674 1822953986 32 0 64 160 0 33554432 2105864 98566144 135266304 2129928 8390661 2147745792 2048 1064964 4 0 16384 17 1073744008 16384 528520 1073741828 2147614737 1073938448 16777216 0 16777216 268435840 33554432 131072 0 128 4096 393216 512 2 524288 0 514 65536 528386 256 134217729 8388608 1069056 4096 536879104 65536 2155872259 256 2281701376 0 4224 68 1048640 2 0 2147483680 0 0 1073741832 34095108 536903682 524296 16384 67109376 16777216 18432 0 16777472 2147483664 536870912 514 0 16777216 788480 29360128 1 16777216 65536 33555456 1207992320 32768 3221258240 0 8388608 8192 526336 2147483650 0 65536 36864 6291972 0 67162368 8392704 32 0 16842760 0 134220800 268435472 268435616 4194304 1073741828 2147483650 12 65540 4608 33554436 0 256 13631488 0 0 9437184 8192 4199688 1048592 671088768 1074266112 4
is_linear=0
shrinkage=0.05


Tree=14
num_leaves=31
num_cat=22
split_feature=5 15 26 0 5 0 0 0 0 32 0 0 0 13 0 0 0 0 0 0 13 0 13 0 0 0 9 0 0 0
split_gain=338.239 178.921 86.1971 72.7587 67.375 76.3812 57.6189 50.6453 50.5682 50.2146 90.6858 47.1502 46.5316 45.5546 70.0203 59.8125 45.4881 40.6167 40.3154 38.8916 38.2977 31.2843 33.4763 67.1307 57.8814 46.0004 36.4768 74.4477 60.9925 44.473
threshold=5.035000000000001 594.50000000000011 2.5500000000000003 0 3.4050000000000007 1 2 3 4 41.050000000000004 5 6 7 21.550000000000004 8 9 10 11 12 13 14.450000000000001 14 8.6500000000000004 15 16 17 18 19 20 21
decision_type=2 2 2 9 2 9 9 9 9 10 9 9 9 10 9 9 9 9 9 9 8 9 10 9 9 9 9 9 9 9
left_child=4 2 7 -4 5 -1 -6 -2 -8 11 -11 -10 -7 14 -5 -16 -15 -12 -9 -17 -20 -13 23 -23 -24 -25 28 -28 -27 -29
right_child=1 -3 3 13 6 12 8 18 9 10 17 21 -14 16 15 19 -18 -19 20 -21 -22 22 24 25 -26 26 27 29 -30 -31
leaf_value=0.017881901284112663 -0.016591909657367968 0.038038774570767098 -0.027660669124224997 -0.032603671970918201 0.011464238920704192 0.0076497251750638866 -0.041657278446311369 0.039451144428299306 0.012975022492597603 0.03488675009009775 0.009893451117862051 -0.03272982579881157 -0.055868326466538679 -0.018560212653574198 0.022929158492368623 -0.024782427346147676 0.012679551537883096 -0.045206609020609287 0.00099515921048742677 1.0940349909345577e-05 0.018361897561816155 0.018096474058039807 0.02987843692478212 -0.051710638679417012 -0.0068047512420793144 0.030624583927361289 0.019888438809548079 0.0054916009457195705 -0.013003864094157699 -0.03706953837062623
leaf_weight=55.595014626160264 123.73136883601546 414.72601555101573 204.18524434231222 156.012899229303 265.12765117362142 38.06435589492321 136.00695888511837 159.39642152562737 223.75472859293222 43.654231103137136 40.753938903100789 144.85567393153906 209.0109920958057 120.86952539160848 266.74638275429606 157.34545830450952 1242.8879288211465 265.9817367955111 451.77971076592803 2894.5576188545674 1067.6629239059985 138.72523521818221 117.90983574092388 87.139203935861588 665.59773907624185 90.473233744502068 81.322395981289446 76.043668510392308 390.07236091792583 419.9682402741164
leaf_count=176 375 1357 855 816 879 181 893 336 725 137 194 773 1943 372 723 719 3189 2169 1437 9882 2733 473 290 583 2504 283 276 314 1935 2480
internal_value=-1.21394e-12 0.00614935 0.00421728 0.000862662 -0.0127917 -0.0353359 -0.0106509 0.0136017 -0.0126533 -0.0110936 -0.0288314 -0.00858758 -0.0461658 0.00211916 -0.000915922 0.000669975 0.00986766 -0.0378046 0.0158315 -0.00134408 0.0131119 -0.0107786 -0.00909025 -0.014105 -0.000989816 -0.0180072 -0.0147727 -0.0232405 -0.004333 -0.0305649
internal_weight=10750 7259.9 6845.18 5042.61 3490.06 302.67 3187.39 1802.57 2922.26 2786.25 350.39 2435.86 247.075 4838.42 3474.66 3318.65 1363.76 306.736 1678.84 3051.9 1519.44 2212.11 2067.25 1283.74 783.508 1145.02 1057.88 577.334 480.546 496.012
internal_count=40002 22794 21437 16556 17208 2300 14908 4881 14029 13136 2500 10636 2124 15701 12140 11324 3561 2363 4506 10601 4170 9911 9138 6344 2794 5871 5288 3070 2218 2794
cat_boundaries=0 18 34 52 70 87 104 121 138 155 173 190 207 224 242 260 276 293 310 312 329 347 364
cat_threshold=2147483648 1073758210 8192 37879825 134217744 67110912 18875408 67109120 201326592 16384 320 16384 8 2147483648 0 524288 262144 32 2097152 2097664 0 0 16392 128 0 32768 16777216 2147483648 0 10485800 1744896008 268435584 1040 109051932 268435488 4 598080 201327632 134217728 65536 3489661954 0 269484032 536870912 0 1048576 1 2147484160 1073741824 2 96 32 4 1052672 135169 1048576 32768 0 512 18874368 2 262144 67371008 1048576 268435472 4194304 1073774594 268435456 1024 3 1073778816 64 0 1073776640 0 17055752 135397376 0 16777224 16777216 0 131112 1073741824 1342177408 536871952 8388608 134221824 2097152 536871953 0 0 65536 2176 0 1024 131072 6144 0 0 0 4260864 2048 1076363264 37748736 524544 67108864 16925697 16908328 0 0 2097152 268435520 16384 2097152 8912961 2 75497472 262144 2319450114 0 4 1207963648 33554432 0 0 1140850688 2097152 512 1073809952 2162688 3 0 1074006016 2097152 1073741824 16384 0 2147483648 96 33554432 553648128 2098184 0 2097152 0 524288 4227328 2097152 12416 0 262148 2562 1124352 2688 8388608 131072 12589184 2101312 536870976 1073840384 4194304 141568 0 262144 256 33554432 1179648 0 1077936128 0 268435464 1073742080 2 0 34816 2147614784 8388672 128 0 1082130592 8192 97 73744 66560 0 2097152 134217728 4194304 1024 1073741824 0 557056 41943296 16384 64 16 0 0 0 0 2147532816 17301504 2151677952 201326600 268451840 134225920 65536 1048576 1073758210 262144 33554432 8388864 67110976 16793600 67111168 0 32 0 67125248 0 16777218 8208 32 234881024 33554432 0 1342177280 67174400 33554432 0 0 0 4 131078 2097664 256 4194561 268583945 2684878848 537935872 0 16 2097152 541065216 0 0 16977920 3221228160 0 8388640 524288 0 16400 603979792 32768 4784128 0 570425344 33619970 8 71303168 590080 2048 2147484164 16 67108864 0 536870915 134217728 524288 4194304 320 536870912 201457729 40964 65569 0 134217728 0 33554560 1024 131328 16842752 2148532228 8388608 2281701632 0 2162688 35651584 41943040 4104 1077936144 1048704 262155 0 0 33554432 16384 135424 16777216 35651584 536870912 469762052 0 2102272 65536 16 8 3292528656 524288 2281849001 459 65536 16908800 8388608 4096 2149056544 136314898 4097 4194304 2147483652 0 0 134742016 147456 0 0 18874368 256 2281701376 0 2097280 256 32768 806363168 524544 1024 2097152 1552 1114116 2147483648 0 1048832 256 0 541343760 4 570444288 5121 4128 0 2097152 4194304 264192 524288 1073872896 8388618 16777248 33554432 8192 0 0 268566540 2097152
is_linear=0
shrinkage=0.05


Tree=15
num_leaves=31
num_cat=23
split_feature=5 15 26 0 0 0 0 0 0 5 4 0 0 13 0 0 0 0 0 0 0 5 0 0 0 0 0 0 0 9
split_gain=304.468 173.105 85.7388 108.241 69.6059 69.3111 62.381 54.6834 46.4312 41.5 44.2494 66.8552 54.1211 41.213 89.1953 74.6963 64.9744 51.7854 51.2032 40.5304 38.1317 34.0224 54.3058 35.7624 31.3961 30.9771 30.9727 29.8861 27.5664 26.6214
threshold=4.6750000000000007 594.50000000000011 3.291666666666667 0 1 2 3 4 5 7.3550000000000013 1.5000000000000002 6 7 12.050000000000002 8 9 10 11 12 13 14 3.5350000000000006 15 16 17 18 19 20 21 22
decision_type=2 2 2 9 9 9 9 9 9 2 2 9 9 10 9 9 9 9 9 9 9 2 9 9 9 9 9 9 9 9
left_child=6 2 5 -4 -5 -2 -1 -6 -7 10 -10 -12 -13 14 -9 -15 -16 -18 -17 -8 -19 22 -21 -23 -24 -14 -25 -20 -22 -27
right_child=1 -3 3 4 7 8 19 13 9 -11 11 12 25 15 16 18 17 20 27 21 28 23 24 26 -26 29 -28 -29 -30 -31
leaf_value=0.0090681590817480989 -0.020235804761730158 0.0364498425370645 -0.041655585618275801 -0.030900693774212524 0.024012796008681128 0.030687848936950531 -0.048941526136691255 0.027451368510994001 0.021304453115343167 0.027820579985369843 -0.026265518083001167 0.030032451267957023 0.021281640342129357 -0.02880128815181382 -0.044754726305212607 0.031554575701023789 0.018981380245816731 0.012295016375205192 -0.014422914179451003 0.014340238162252678 0.0071881285885437842 0.0077714902572466925 -0.00048805733794317851 -0.041849914144405642 -0.049250781530346177 -0.010197427073520586 -0.014081052101340412 0.0064457209957892421 -0.016566021490615854 0.0048262193964636636
leaf_weight=230.24907435663044 182.99212798476219 405.83877956867218 152.47835276275873 165.63969261944294 237.77273227088153 262.00887677259743 97.924086939543486 169.52940334938467 446.44215034507215 262.94581381231546 158.92159382253885 208.91173189878464 208.46328911557794 148.22686997614801 113.6842967858538 181.7330696284771 163.71776734385639 157.9821357820183 182.34544080682099 54.005693690851331 138.25064058788121 171.0491677140817 49.30003790743649 105.44362230645493 210.33993396582082 380.20874193962663 1490.0831674439833 1653.8431699685752 962.37373102456331 1198.7772079724818
leaf_count=860 690 1378 636 692 652 677 794 461 995 675 644 567 598 561 527 440 515 505 590 210 463 636 219 709 2058 1369 7749 4982 4207 3943
internal_value=3.03276e-11 0.00461906 0.00294945 -0.00160121 -7.4997e-05 0.00903719 -0.0156176 0.00123949 0.0107807 0.00885949 0.00697722 0.0040095 0.00651847 -0.000217353 -0.00603159 0.00435954 -0.00984175 -0.00675823 0.00690389 -0.0181853 -0.0102296 -0.0165102 -0.0317651 -0.0138953 -0.0403533 0.00361844 -0.0161654 0.00430643 -0.0135444 0.00116722
internal_weight=10551.5 8143.09 7737.25 4427.58 4275.1 3309.67 2408.39 4109.46 3126.68 2864.67 2601.72 2155.28 1996.36 3871.69 1705.54 2166.15 1536.01 1422.32 2017.92 2178.15 1258.61 2080.22 313.646 1766.58 259.64 1787.45 1595.53 1836.19 1100.62 1578.99
internal_count=40002 26767 25389 15231 14595 10158 13235 13903 9468 8791 8116 7121 6477 13251 6678 6573 6217 5690 6012 12375 5175 11581 2487 9094 2277 5910 8458 5572 4670 5312
cat_boundaries=0 16 33 50 67 83 100 115 132 149 166 183 200 218 235 253 269 287 304 320 337 354 372 374
cat_threshold=1409286146 81920 16 0 33554496 2214594560 16793600 553648132 16384 268500992 8388672 2 12582912 2147483784 0 1 18874368 0 537133056 268435456 0 10486016 0 100696385 589824 2101280 166912 16896 1048832 32768 1048576 0 67108868 4352 294912 32768 524289 16778240 0 134222336 8192 1024 262272 33554432 2129924 16 4198688 425986 4096 32 287309826 4 8397952 32 0 131216 268436992 36864 1064960 3221225472 131072 0 71892992 134217728 134217728 0 4194400 14592 138674208 0 536870914 553649152 0 2281705472 2098176 33554432 128 570425376 32768 0 12582912 268468240 1052672 1140850688 536936448 16 134217728 524288 2214594560 16793600 16777477 65536 268501024 8437760 512 0 2147483648 536870912 1 201326848 2147485696 68157440 1048608 1074856968 1073741824 0 128 0 4227076 2147484680 537067520 2048 278532 9447424 16400 274726976 1073759232 12582912 0 33554496 65794 570425345 2147483648 528384 1048576 2415919104 131088 0 4 128 131072 4 2147615760 68157568 131584 1073741824 1073745920 0 0 32 33296 138412032 16777216 1073741888 2097152 1048576 0 81922 1090527744 64 536870912 131072 26214401 4096 0 536870944 0 592 139755792 2147483906 0 0 327680 512 1026 33554944 512 2112 419430400 0 128 1073741840 8 8192 40 524288 8192 16 393345 134217728 167788544 537141248 16385 1048576 268435712 32768 16781441 8228 1024 545259522 9437184 545259520 537133328 0 2148272128 16 65536 2147483656 0 2 512 2056 1048576 0 128 786432 128 1073750016 12 524352 0 32 131072 2099456 16386 33816576 536871937 32 0 2155872256 512 2 562040832 65540 2097152 1048576 0 144 538968064 528392 0 2097152 2147483656 2148564996 1610612992 16384 16781312 0 33587200 32768 16793600 139268 0 135168 1074790400 1073741825 4104 134217728 524288 1 2157969408 33818648 2 1078460928 2098272 0 536903680 16384 2097152 5242880 1073741824 16842752 0 0 8388640 8 268435592 67108880 33554440 134217728 524288 50331648 16408 2281701440 1744838656 0 64 2151677952 8388864 0 268435456 0 0 8397059 0 16393 96 67108864 0 4194304 0 1140850696 0 17039360 134285856 2097152 1 0 1208223744 1610612736 2147483648 17408 8388640 2048 0 524864 50593792 131328 4112 4 0 536870928 1073741824 512 67109458 603979779 8224 0 41943552 33554440 1077940224 67108896 0 536903808 16384 0 1 131712 98304 96 0 2684354560 32776 268435456 268435472 32 2156726272 131072 268435584 1073741828 32800 2097184 0 276824068 262144 8654976 1073750016 512 17039360 203423744 0 1 10486272 136 4 532480 98 0 1114112 268435492 270565632 128 2097152 8192 67109122 44040192 0 96 512 0 131328 8 1646288898 72
is_linear=0
shrinkage=0.05


Tree=16
num_leaves=31
num_cat=24
split_feature=5 15 5 0 0 0 0 0 0 5 0 0 0 4 0 0 0 0 0 0 0 0 12 0 0 0 9 0 0 0
split_gain=296.165 127.868 81.2805 86.6321 83.4703 53.3793 50.705 47.0828 45.3237 42.6144 89.1857 79.0902 47.8883 39.6192 105.141 89.9716 65.7101 59.6611 50.2396 39.2306 36.3535 36.1713 31.989 48.3836 39.3207 30.1743 28.761 82.2343 56.3817 33.8268
threshold=5.6350000000000007 589.50000000000011 3.9750000000000005 0 1 2 3 4 5 6.7650000000000006 6 7 8 3.5000000000000004 9 10 11 12 13 14 15 16 70.15000000000002 17 18 19 20 21 22 23
decision_type=2 2 2 9 9 9 9 9 9 2 9 9 9 2 9 9 9 9 9 9 9 9 10 9 9 9 9 9 9 9
left_child=2 5 4 -4 -1 -2 -5 -6 -7 10 -10 -11 -12 15 -15 -8 -16 -17 -18 -14 -20 -19 23 -21 -25 -23 27 -22 -28 -30
right_child=1 -3 3 6 7 8 13 -9 9 11 12 -13 19 14 16 17 18 21 20 22 26 25 -24 24 -26 -27 28 -29 29 -31
leaf_value=0.016951998565113847 -0.017526328470925903 0.036992883256097758 -0.037995582596875244 0.014459287700184235 0.0065820340895583933 0.027731060797294666 -0.042150749411868534 -0.031696507761761743 -0.030625437925563721 -0.012209168632197223 0.026786395631225042 0.019945899013306512 -0.01699210996563218 0.024639641432547689 -0.056439719287444991 0.028293481870246485 -0.04725727183989533 0.019150179995514875 0.013728602336443949 0.02676474396570272 0.017863716647232162 -0.027995963352220706 0.017167777283489064 -0.025598943154530457 0.0020554089070458216 -0.0017426237910327985 0.034377598726979208 -0.029704333557016929 0.016654977472963271 -0.016603752586600306
leaf_weight=118.52976313140243 217.04165921919048 363.26947964541614 186.3981153992936 333.78909537568688 93.219193646684289 250.24332644976676 114.83834614604712 725.42345785908401 175.10209060274065 231.04737500846386 226.35271270573139 1010.1378788705915 210.31384686566889 173.17206211388111 85.002613924443722 179.54001628980041 90.491785991936922 184.10971555672586 136.48947121202946 176.57589995861053 107.5085381064564 108.69883739203215 448.19970255717635 128.36039827764034 1800.8298275582492 1463.5804551653564 69.910328300669789 477.53447475936264 85.870230649597943 425.18328614812344
leaf_count=432 964 1309 1071 1051 402 645 517 5416 710 948 578 2735 750 572 470 505 565 557 515 456 363 462 1030 521 5717 5532 198 2574 312 2125
internal_value=-2.41456e-11 0.00837571 -0.00850263 -0.0055459 -0.0218232 0.0062429 -0.00394322 -0.0273109 0.00737244 0.00615622 0.00309153 0.0140225 0.00515085 -0.00563699 -0.0114169 -0.00101086 -0.015702 0.00163881 -0.0128315 0.00328906 -0.0100979 -0.00123062 0.00501893 0.00245695 9.2882e-05 -0.0037231 -0.01298 -0.0208098 -0.0048765 -0.010803
internal_weight=10396.8 5237.47 5159.29 4222.12 937.172 4874.2 4035.72 818.643 4657.16 4406.92 3165.73 1241.19 2990.63 3701.93 1651.16 2050.77 1477.99 1935.93 1392.99 2764.28 1302.5 1756.39 2553.97 2105.77 1929.19 1572.28 1166.01 585.043 580.964 511.054
internal_count=40002 16363 23639 17389 6250 15054 16318 5818 14090 13445 9762 3683 9052 15267 7694 7573 7122 7056 6652 8474 6087 6551 7724 6694 6238 5994 5572 2937 2635 2437
cat_boundaries=0 18 36 53 70 88 106 123 140 157 175 192 209 226 243 259 277 295 312 328 345 347 364 381 398
cat_threshold=0 536870912 4194368 537001986 4104 268437504 5522432 16777216 16777218 32 134217728 142868512 0 128 0 2097152 69207072 20 16384 1048580 4194368 196896 0 809500672 4457472 16779330 0 2 0 134479872 67584 256 0 278921216 4194400 1 402653184 1 537395200 8388608 134217728 16 0 536903680 256 10616832 67108864 1 33554432 67108865 1075314690 4211330 10240 402784256 129 0 134217744 268435472 65552 1610612736 65537 0 0 67108864 268435523 33554432 67371009 2 138559520 2048 16777216 67108864 1 603979776 2281701384 134218880 0 67371040 0 2684354560 134430720 1176502272 0 1048576 67108865 16777216 134742016 16 8192 514 0 536870914 4096 268468228 5521408 4096 18874368 0 0 4194336 2 0 1536 33554436 83920128 20 4210688 256 384 7078016 2105344 0 0 2147745792 164 0 1075317512 16384 0 0 134217728 402653184 132 536870912 0 3489660992 1 0 0 1040 16785408 1553 320512 5136 17825792 0 0 2555904 6400 2 2363392 536870912 4194368 4096 536870912 1073741826 0 16785664 1310720 4100 2281701376 135266304 2048 134217728 65792 1081600 66 12584964 369098752 2165760 2147483648 24704 0 2048 32768 268500992 1048576 272629760 0 0 131072 16826368 276889600 8196 2 2147486144 83886080 328706 2147487744 128 2 2048 0 268500992 4096 64 131080 64 0 57856 8454144 16777216 17301505 2097154 1 268503040 1048608 128 0 1073741824 0 0 8224 2147487744 2049 256 1879048192 2147483648 32768 32 2097154 0 268435456 135266336 2147483776 4096 1342193664 4456448 2048 8224 2147483648 5 33554944 1610612800 2147483648 8388608 2097184 4096 0 0 131073 2150629888 32768 393216 786436 3073 0 0 65540 1073770496 1024 1073741828 2693791744 8 65536 2155872264 36 528 0 1073873384 4 8192 16777216 276889728 0 8912936 537133120 128 1024 2147516800 800 16793600 1073742344 18874368 16448 2 256 1 0 1073741824 131072 524296 0 4194304 67108865 328192 8 554696704 147456 524296 1024 0 0 268566528 4202498 524292 1082130432 1048576 20480 17072160 10485760 2415919104 1073750016 131072 32 1073741825 4195328 0 196608 786753 4194560 0 67110912 34080768 1536 16384 0 131072 2 8 2359296 2097160 32864 0 0 256 32770 16777216 276824068 134217728 268468226 8 405506 268435522 4194304 4 0 524288 4194304 268435752 49152 8 16777216 4456448 524288 0 33554433 16 541065216 4194304 2228224 0 20971537 16777216 33816576 1885889038 60 64 65600 8208 0 262144 131105 201326849 536870920 2684354560 10485760 545259538 524288 16 8 512 524298 4160 1024 0 786434 16777252 0 5120 2149580800 48 0 37752832 65 2097152 2097184 4 4 0 136 8 150994944 37376 67108864 134217984 34078720 17375232 2 8388608 134217746 1245184 4227072 67403776 134217730 0 0 256
is_linear=0
shrinkage=0.05


Tree=17
num_leaves=31
num_cat=22
split_feature=5 15 26 0 20 0 0 0 0 0 5 0 0 0 0 0 0 12 13 0 0 0 0 0 0 9 0 32 0 0
split_gain=259.905 134.215 56.4584 71.7173 50.8755 98.5694 76.1623 68.4407 47.5029 42.3106 38.4467 74.2516 71.3834 60.333 53.1736 36.1146 36.0509 35.307 34.7365 59.4862 53.1643 39.5465 35.2194 32.597 31.5091 31.1192 42.7788 30.6029 42.4397 30.0459
threshold=5.1150000000000011 594.50000000000011 2.291666666666667 0 4.4600000000000009 1 2 3 4 5 6.2350000000000012 6 7 8 9 10 11 55.150000000000013 8.8500000000000032 12 13 14 15 16 17 18 19 19.250000000000004 20 21
decision_type=2 2 2 9 10 9 9 9 9 9 2 9 9 9 9 9 9 8 8 9 9 9 9 9 9 9 9 10 9 9
left_child=4 2 15 -4 6 -6 -1 -7 -8 -9 11 -5 -12 -13 -14 -2 -11 -17 19 -10 -20 -22 -21 -15 -23 -18 -27 -16 -29 -28
right_child=1 -3 3 10 5 7 8 9 18 16 12 13 14 23 27 17 25 -19 20 22 21 24 -24 -25 -26 26 29 28 -30 -31
leaf_value=0.016354108733726769 0.039069739665790977 0.035287157972669077 -0.02652020422522541 -0.033097276476203377 0.032604339617383897 -0.04763082245662173 0.0067771697019785417 0.021366380482944865 0.026093629961503356 0.016331270614183227 0.042913877971686665 0.025219878763731385 -0.019999026816580123 -0.022277261510461936 0.018506715556460118 -0.0031271150727890176 0.00408960449128046 0.016323427090239716 0.01297477093295526 0.0088429137881213087 -0.056446308575580487 0.0059402550630193243 -0.051771940337438198 0.00052117347328397884 -0.021676558084206064 0.016076352719334944 0.0079020310705473704 0.030572926909556253 0.00045474796310838685 -0.024129171306224838
