tree
version=v4
num_class=1
num_tree_per_iteration=1
label_index=0
max_feature_idx=42
objective=lambdarank
feature_names=venue_code exhibition_time exhibition_start_timing pred_course nat_win_rate motor_rate boat_rate weight branch course_run_count course_quinella_rate course_trifecta_rate course_1st_rate course_avg_st nige_count makuri_count sashi_count wind_speed wind_direction wave_height local_win_rate venue_course_1st_rate venue_course_2nd_rate venue_course_3rd_rate st_std_dev series_avg_rank makuri_rate nige_rate inner_st_gap slit_formation anti_nige_potential wall_strength follow_potential tenji_z_score linear_rank is_linear_leader weight_diff high_wind_alert local_perf_diff wind_vector_long wind_vector_lat ana_relevance weight_ana
feature_infos=[1:20] [6.3600000000000003:9.8900000000000006] [0:0.95999999999999996] [1:6] [0:9.0999999999999996] [0:91.670000000000002] [0:90.909999999999997] [0:70] -1:23:31:21:9:17:7:38:18:34:14:39:3:0:19:2:30:36:26:29:5:24:1:28:27:35:20:10:15:13:8:40:16:11:6:42:12:25:4:37:33:32 [0:6676] [0:100] [0:100] [0:100] [0:0.32000000000000001] [0:1289] [0:612] [0:451] [0:15] -1:4:5:8:0:9:10:3:14:13:7:16:1:6:11:2:12:15 [0:40] [0:8.4499999999999993] [0.80000000000000004:67.700000000000003] [4.2999999999999998:31.199999999999999] [6.5:24.5] [0.055164638400722402:0.33729143398152861] [1:6] [0:0.5] [0:0.80000000000000004] [-0.81000000000000005:0.79999999999999993] [-0.59499999999999997:0.79999999999999993] [0:0.3834951456310679] [0:100] [0:15.4] [-2.0277874990045719:2.041241452319301] [1:6] [0:1] [-45.833333333333336:27] [0:1] [-6.7999999999999998:7.1500000000000004] [-15:15] [-11:13] [0:30] [1:117.19489820949418]
tree_sizes=3546 3521

Tree=0
num_leaves=31
num_cat=0
split_feature=41 41 27 2 31 4 29 10 3 3 27 1 31 27 4 25 30 4 41 1 31 4 33 26 3 22 30 31 3 33
split_gain=2.14538e+06 98924.3 271.238 477.688 151.293 92.4536 76.1811 67.3685 32.5613 19.1154 18.7288 39.43 18.3334 17.8039 13.6661 13.3361 12.1122 9.89267 9.14588 34.7696 8.79335 8.12335 7.46229 7.34726 7.16025 6.24742 5.53577 5.48557 5.42949 5.37698
threshold=5.5000000000000009 1.0000000180025095e-35 0.3772457981840428 0.40500000000000008 22.650000000000002 6.0550000000000006 0.17250000000000001 71.250000000000014 3.5000000000000004 5.5000000000000009 0.23703513161689624 7.2750000000000012 6.8500000000000005 0.60822936786566095 5.4150000000000009 3.7083333333333335 0.028408264907422254 7.1250000000000009 8.5000000000000018 6.3900000000000015 32.050000000000004 6.0950000000000006 0.50000000000000033 0.051995293986937356 3.5000000000000004 9.2000000000000011 0.020261215809751851 50.850000000000001 3.5000000000000004 0.84182029989947071
decision_type=2 2 10 8 10 2 8 10 2 2 10 8 10 10 2 2 8 2 2 10 10 2 2 10 2 2 10 10 2 2
left_child=1 -1 10 5 6 14 7 12 16 20 18 -12 -3 29 -4 17 23 -15 19 -2 -10 -9 -19 26 -14 -26 -6 -25 -8 -7
right_child=2 4 3 -5 8 13 28 21 9 -11 11 -13 24 15 -16 -17 -18 22 -20 -21 -22 -23 -24 27 25 -27 -28 -29 -30 -31
leaf_value=-0.10000000000000003 0.10000000000000005 -0.035831761290876694 0.093980405490795949 0.09998601709563229 -0.023969354890463902 0.087977032177959144 -0.029496663250931112 -0.040145578834546294 -0.031103234382300705 -0.02544361812967473 0.09513713872490924 0.10000000000000001 -0.020320225697181143 0.082329179804272928 0.090251569580419924 0.089226493843452978 -0.026742371365453384 0.08017318487775224 0.10000000000000001 0.098591178275286753 -0.028484854451005806 -0.0466923480810673 0.069945690424600804 -0.017032668962345048 -0.028926582941073073 -0.033553318562862117 -0.027140137934437203 -0.023036199029192201 -0.031358684217886137 0.084146399504610697
leaf_weight=224099.609885321 109278.33680308238 3702.7864494165406 4972.1346792131662 22567.678973443806 4534.0917820138857 3058.0511246845126 11846.764148632064 806.07354747876525 4692.8336326279677 4065.0788593194447 7189.1782920733094 9921.1704812943935 160.23695849254727 1897.1858600154519 4857.9498620405793 517.02076388895512 9308.9625991778448 385.05907545983791 118221.24775290489 73085.711254910566 10123.788743112236 1149.5746597573161 332.23262828588486 520.10130114853382 1500.8763563921675 1419.8164738146588 1976.6218797452748 1417.5216527562588 5847.3478094050661 1307.8876333609223
leaf_count=3607575 441191 25646 12042 51045 75085 7945 89718 5140 81708 63832 17058 22440 3222 5218 12258 1322 156336 1086 25853 318313 181088 7458 1024 10678 23547 23851 32473 22858 91633 3545
internal_value=0.0173444 -0.0844314 0.0990779 0.0951919 -0.0291154 0.088948 -0.0319984 -0.0358178 -0.0270354 -0.0284809 0.0995659 0.0979568 -0.0334607 0.084766 0.0921376 0.081889 -0.0254983 0.080438 0.0996575 0.0994354 -0.0293142 -0.0439939 0.0754361 -0.0241276 -0.0306112 -0.0311757 -0.024932 -0.0214247 -0.030112 0.0868295
internal_weight=644763 287172 357591 39895.2 63072.5 17327.5 26433.5 8739.36 36639 18881.7 317696 17110.3 6783.72 7497.44 9830.08 3131.5 17757.3 2614.48 300585 182364 14816.6 1955.65 717.292 8448.34 3080.93 2920.69 6510.71 1937.62 17694.1 4365.94
internal_count=5422188 4501848 920340 95485 894273 44440 270215 88864 624058 326628 824855 39498 76266 20140 24300 8650 297430 7328 785357 759504 262796 12598 2110 141094 50620 47398 107558 33536 181351 11490
is_linear=0
shrinkage=0.05


Tree=1
num_leaves=31
num_cat=0
split_feature=41 41 41 1 10 22 31 4 23 1 21 4 30 12 25 21 3 3 33 23 33 4 11 3 34 2 26 31 4 3
split_gain=6.60996e+06 261364 17319.3 12625.8 3250.92 423.151 307.372 266.995 193.279 156.994 138.75 127.485 83.0398 66.0441 63.2793 62.5899 61.8231 58.4819 54.321 52.1614 49.7617 49.5257 47.2199 46.3191 40.103 36.9308 36.2815 40.6533 35.4686 34.3845
threshold=5.5000000000000009 1.0000000180025095e-35 8.5000000000000018 8.3850000000000016 68.450000000000017 19.900000000000002 22.650000000000002 5.8650000000000011 15.100000000000001 7.8100000000000014 56.550000000000004 5.8750000000000009 0.045401077610056552 26.850000000000005 1.7083333333333337 45.300000000000004 3.5000000000000004 3.5000000000000004 0.71283243564027721 8.5000000000000018 0.84182029989947071 4.495000000000001 86.050000000000011 3.5000000000000004 2.5000000000000004 0.085000000000000006 0.10543626448534421 38.550000000000004 7.5450000000000008 5.5000000000000009
decision_type=2 2 2 8 10 2 10 2 2 8 2 2 10 10 2 2 2 2 2 2 2 2 10 2 10 8 10 10 2 2
left_child=1 -1 3 4 5 8 -3 18 21 16 14 13 -13 -7 -9 -16 -8 -10 -6 -20 28 -2 25 -11 -24 -17 27 -19 -12 -25
right_child=2 6 -4 -5 7 11 9 10 17 23 20 12 -14 -15 15 22 -18 26 19 -21 -22 -23 24 29 -26 -27 -28 -29 -30 -31
leaf_value=-0.091533683148167053 0.078483549167840463 -0.026872751999591632 0.097218636244439494 0.091473235814045498 0.072495186801379105 0.084014872352478065 -0.034168162029221898 0.050166261185303207 0.08206989119945246 -0.030728171829225926 0.057301156848204741 0.081629986559167672 0.07715096676111094 0.07878587374027525 0.072089409346667035 0.061894318789382244 -0.031218329585097279 0.07880386554218112 0.05396760335240372 0.068135722397674653 0.045336556278012384 0.074681254510122322 0.056012682935202854 -0.027640251024318326 0.063459183071174791 0.070259796651741285 0.075431283069860536 0.080965472846753317 0.031595704477172505 -0.031004946344707036
leaf_weight=751698.89045369253 12210.317630782723 66550.89151532948 619038.85745239258 480125.12558266521 7261.539357021451 83887.882665291429 34838.703885264695 946.92179217934608 22640.300098136067 38987.398096695542 3430.3684312999249 51114.873445510864 12974.818526387215 6507.0138947367668 1852.2492596805096 2803.8121124505997 36237.482704464346 68196.326052516699 817.22137331962585 3167.7270836979151 1459.2342993915081 28678.61108250916 3734.5311372876167 35005.460811570287 3504.9773469865322 2491.8103984594345 5816.5005973130465 31937.636208504438 139.65749049186707 9696.1241992861032
leaf_count=3607575 13008 270215 25873 514413 7808 89476 142043 1093 24139 155387 3836 54429 13808 6945 2020 3098 148155 72552 896 3423 1705 30601 4265 139825 3892 2709 6177 34003 171 38648
internal_value=0.0234061 -0.0774726 0.0908798 0.0861844 0.0790429 0.0805363 -0.0297143 0.0637376 0.0788111 -0.0309362 0.0603226 0.082429 0.0807232 0.0836385 0.0626862 0.0635102 -0.0326642 0.0797632 0.069921 0.0652302 0.0531158 0.0758167 0.0622425 -0.0294686 0.0596179 0.0658306 0.0792703 0.0794933 0.0562956 -0.0283701
internal_weight=2.42775e+06 973015 1.45474e+06 835699 355574 323964 221316 31610.1 169480 154765 20363.6 154485 64089.7 90394.9 15334.3 14387.4 71076.2 128591 11246.5 3984.95 5029.26 40888.9 12535.1 83689 7239.51 5295.62 105950 100134 3570.03 44701.6
internal_count=5422188 4501848 920340 894467 380054 345138 894273 34916 180480 624058 22789 164658 68237 96421 17077 15984 290198 136871 12127 4319 5712 43609 13964 333860 8157 5807 112732 106555 4007 178473
is_linear=0
shrinkage=0.05


end of trees

feature_importances:
pred_course=8
nat_win_rate=8
wall_strength=6
ana_relevance=6
exhibition_time=4
tenji_z_score=4
nige_rate=3
anti_nige_potential=3
exhibition_start_timing=2
course_quinella_rate=2
venue_course_1st_rate=2
venue_course_2nd_rate=2
venue_course_3rd_rate=2
series_avg_rank=2
makuri_rate=2
course_trifecta_rate=1
course_1st_rate=1
slit_formation=1
linear_rank=1

parameters:
[boosting: gbdt]
[objective: lambdarank]
[metric: ndcg]
[tree_learner: serial]
[device_type: cpu]
[data_sample_strategy: bagging]
[data: ]
[valid: ]
[num_iterations: 1000]
[learning_rate: 0.05]
[num_leaves: 31]
[num_threads: 0]
[seed: 42]
[deterministic: 0]
[force_col_wise: 0]
[force_row_wise: 0]
[histogram_pool_size: -1]
[max_depth: -1]
[min_data_in_leaf: 20]
[min_sum_hessian_in_leaf: 0.001]
[bagging_fraction: 1]
[pos_bagging_fraction: 1]
[neg_bagging_fraction: 1]
[bagging_freq: 0]
[bagging_seed: 400]
[bagging_by_query: 0]
[feature_fraction: 1]
[feature_fraction_bynode: 1]
[feature_fraction_seed: 30056]
[extra_trees: 0]
[extra_seed: 12879]
[early_stopping_round: 0]
[early_stopping_min_delta: 0]
[first_metric_only: 0]
[max_delta_step: 0]
[lambda_l1: 0]
[lambda_l2: 0]
[linear_lambda: 0]
[min_gain_to_split: 0]
[drop_rate: 0.1]
[max_drop: 50]
[skip_drop: 0.5]
[xgboost_dart_mode: 0]
[uniform_drop: 0]
[drop_seed: 17869]
[top_rate: 0.2]
[other_rate: 0.1]
[min_data_per_group: 100]
[max_cat_threshold: 32]
[cat_l2: 10]
[cat_smooth: 10]
[max_cat_to_onehot: 4]
[top_k: 20]
[monotone_constraints: ]
[monotone_constraints_method: basic]
[monotone_penalty: 0]
[feature_contri: ]
[forcedsplits_filename: ]
[refit_decay_rate: 0.9]
[cegb_tradeoff: 1]
[cegb_penalty_split: 0]
[cegb_penalty_feature_lazy: ]
[cegb_penalty_feature_coupled: ]
[path_smooth: 0]
[interaction_constraints: ]
[verbosity: -1]
[saved_feature_importance_type: 0]
[use_quantized_grad: 0]
[num_grad_quant_bins: 4]
[quant_train_renew_leaf: 0]
[stochastic_rounding: 1]
[linear_tree: 0]
[max_bin: 255]
[max_bin_by_feature: ]
[min_data_in_bin: 3]
[bin_construct_sample_cnt: 200000]
[data_random_seed: 175]
[is_enable_sparse: 1]
[enable_bundle: 1]
[use_missing: 1]
[zero_as_missing: 0]
[feature_pre_filter: 1]
[pre_partition: 0]
[two_round: 0]
[header: 0]
[label_column: ]
[weight_column: ]
[group_column: ]
[ignore_column: ]
[categorical_feature: 8,18]
[forcedbins_filename: ]
[precise_float_parser: 0]
[parser_config_file: ]
[objective_seed: 16083]
[num_class: 1]
[is_unbalance: 0]
[scale_pos_weight: 1]
[sigmoid: 1]
[boost_from_average: 1]
[reg_sqrt: 0]
[alpha: 0.9]
[fair_c: 1]
[poisson_max_delta_step: 0.7]
[tweedie_variance_power: 1.5]
[lambdarank_truncation_level: 30]
[lambdarank_norm: 1]
[label_gain: ]
[lambdarank_position_bias_regularization: 0]
[eval_at: 1,2,3]
[multi_error_top_k: 1]
[auc_mu_weights: ]
[num_machines: 1]
[local_listen_port: 12400]
[time_out: 120]
[machine_list_filename: ]
[machines: ]
[gpu_platform_id: -1]
[gpu_device_id: -1]
[gpu_use_dp: 0]
[num_gpu: 1]

end of parameters

pandas_categorical:[["\u4e09\u91cd", "\u4eac\u90fd", "\u4f50\u8cc0", "\u5175\u5eab", "\u5317\u6d77", "\u5343\u8449", "\u548c\u6b4c", "\u57fc\u7389", "\u5927\u5206", "\u5927\u962a", "\u5948\u826f", "\u5bae\u57ce", "\u5bae\u5d0e", "\u5bcc\u5c71", "\u5c71\u53e3", "\u5c71\u68a8", "\u5c90\u961c", "\u5ca1\u5c71", "\u5e83\u5cf6", "\u5fb3\u5cf6", "\u611b\u5a9b", "\u611b\u77e5", "\u65b0\u6f5f", "\u6771\u4eac", "\u6803\u6728", "\u6c96\u7e04", "\u6ecb\u8cc0", "\u718a\u672c", "\u77f3\u5ddd", "\u795e\u5948", "\u798f\u4e95", "\u798f\u5ca1", "\u798f\u5cf6", "\u79cb\u7530", "\u7fa4\u99ac", "\u8328\u57ce", "\u9577\u5d0e", "\u9752\u68ee", "\u9759\u5ca1", "\u9999\u5ddd", "\u9ad8\u77e5", "\u9ce5\u53d6", "\u9e7f\u5150"], ["\u5317", "\u5317\u5317\u6771", "\u5317\u5317\u897f", "\u5317\u6771", "\u5317\u897f", "\u5357", "\u5357\u5357\u6771", "\u5357\u5357\u897f", "\u5357\u6771", "\u5357\u897f", "\u6771", "\u6771\u5317\u6771", "\u6771\u5357\u6771", "\u7121\u98a8", "\u897f", "\u897f\u5317\u897f", "\u897f\u5357\u897f"]]
