tree
version=v4
num_class=1
num_tree_per_iteration=1
label_index=0
max_feature_idx=36
objective=lambdarank
feature_names=exhibition_time pred_course nat_win_rate motor_rate weight branch course_run_count course_quinella_rate course_trifecta_rate course_1st_rate nige_count wind_speed local_win_rate venue_course_1st_rate st_std_dev series_avg_rank makuri_rate nige_rate slit_formation anti_nige_potential wall_strength follow_potential tenji_z_score linear_rank weight_diff local_perf_diff corrected_st inner_st_gap_corrected motor_rank motor_gap specialist_score sashi_potential makuri_potential venue_code_y venue_frame_win_rate ana_relevance weight_ana
feature_infos=[0:8.2300000000000004] [1:6] [0:9.0999999999999996] [0:91.670000000000002] [0:71] -1:23:21:31:9:17:7:38:18:34:14:39:3:0:19:2:30:36:26:29:5:1:24:28:35:27:20:8:15:10:13:40:16:11:6:42:12:25:4:37:33:32 [0:6763] [0:100] [0:100] [0:100] [0:1324] [0:16] [0:9] [0.80000000000000004:67.700000000000003] [0.054833812320127698:0.33729143398152861] [1:6] [0:0.33333333333333331] [0:0.80000000000000004] [-0.52500000000000002:0.78499999999999992] [0:0.33333333333333331] [0:100] [0:17.199999999999999] [-2.0328927815368227:2.0412414523194138] [1:6] [-46.666666666666657:22.5] [-6.7800000000000002:7.2999999999999998] [0:0.34999999999999998] [-0.20999999999999999:0.20000000000000001] [1:6] [-5:5] [-6.6600000000000001:94.680000000000007] [0:20.765027322404372] [0:1.5] -1:5:18:7:14:8:6:15:9:0:1:12:11:3:17:4:16:2:10:13:19 [0.022099999999999901:0.63149999999999995] [0:30] [1:121.49722801696869]
tree_sizes=3550 3527

Tree=0
num_leaves=31
num_cat=0
split_feature=35 35 17 18 20 2 18 7 22 1 22 10 1 2 21 19 34 2 22 34 20 32 2 30 22 13 1 12 1 13
split_gain=2.18638e+06 100878 271.323 454.215 146.468 84.8918 74.1258 66.7405 43.1888 32.6226 30.5919 28.5982 21.2086 19.2258 18.6864 12.6783 12.0723 11.8757 11.2854 10.4939 10.012 9.4835 8.56732 8.08311 6.48403 6.91089 6.46045 5.99906 5.46956 5.2053
threshold=5.5000000000000009 1.0000000180025095e-35 0.39903877184085562 0.16999999999999998 21.950000000000003 6.0550000000000006 0.17250000000000001 71.15000000000002 1.0000000180025095e-35 3.5000000000000004 -1.0000000180025095e-35 17.500000000000004 5.5000000000000009 6.9450000000000012 1.1907166846207466 0.030639416837297404 0.31200000000000006 5.4350000000000014 0.56293996878062369 0.46495000000000003 31.950000000000003 0.20932899923991646 6.0650000000000004 58.635000000000012 0.84468302287992236 56.550000000000004 3.5000000000000004 5.0850000000000009 3.5000000000000004 58.95000000000001
decision_type=2 2 10 8 10 2 8 10 2 2 2 2 2 2 8 8 2 2 2 2 10 10 2 10 2 2 2 10 2 2
left_child=1 -1 8 5 6 17 7 14 10 15 16 -10 20 19 26 21 -2 -4 -15 -7 27 -6 -9 -20 -21 -26 -3 -11 -8 -19
right_child=2 4 3 -5 9 13 28 22 11 12 -12 -13 -14 18 -16 -17 -18 29 23 24 -22 -23 -24 -25 25 -27 -28 -29 -30 -31
leaf_value=-0.099999999999983227 0.098778243931829546 -0.019694481827733191 0.094002434767335635 0.09999479117001131 -0.024999604858938089 0.091315939784944691 -0.029514647524417226 -0.039719946695849731 0.098624026824312649 -0.029158544459359198 0.099992382061046881 0.09498129492937718 -0.025474185407208489 0.084054761176272808 -0.035724985023691126 -0.027052074472861565 0.095902565612896506 0.091000132179815951 0.082423942475017178 0.086843518151648855 -0.02854181144819587 -0.020269751726787032 -0.046285825770520768 0.072130045926100228 0.08485624154673875 0.07697587140659419 -0.030939632295336153 -0.032649175072446017 -0.031416330424440107 0.085411684097812676
leaf_weight=228662.2077083569 34253.042808787432 133.57866827677935 4725.5792500562966 21183.584551654756 8577.3318314715289 975.9560883063823 11817.259780431166 835.26255748700351 39778.973921265453 2060.5932250791229 241143.50441291276 6232.0808400809765 4326.0916020967998 1109.8678288105875 3727.9419415779412 8533.3751294305548 4084.8684368729591 4199.854139583651 317.90702056512237 3367.6604564040899 10390.897110063117 1209.1738917864859 1226.1321424962953 476.60718380659819 1102.6899019181728 372.09770306944847 2914.0987787190825 3056.883161005564 5560.1058493917808 462.57387921959162
leaf_count=3681017 151084 2662 11474 47909 139657 2558 89097 5370 173676 36282 497141 14967 68248 3051 25507 142860 9688 10546 886 8832 184939 23103 8082 1456 2974 1088 47058 52323 87024 1243
internal_value=0.0172081 -0.0844349 0.0990817 0.0951007 -0.0291417 0.0890418 -0.0320191 -0.0357476 0.0995501 -0.0271647 0.0997838 0.0981306 -0.0285698 0.0851588 -0.0333508 -0.0256435 0.0984718 0.092236 0.0807981 0.086586 -0.0294334 -0.0244152 -0.0436254 0.0762489 0.0856328 0.082868 -0.0304468 -0.0312436 -0.0301231 0.0904457
internal_weight=656818 293031 363787 38294.4 64368.7 17110.8 26214.4 8837.01 325492 38154.3 279481 46011.1 19834.5 7722.79 6775.62 18319.9 38337.9 9388.01 1904.38 5818.4 15508.4 9786.51 2061.39 794.514 4842.45 1474.79 3047.68 5117.48 17377.4 4662.43
internal_count=5531802 4593229 938573 92017 912212 44108 264800 88679 846556 647412 657913 188643 341792 20845 75227 305620 160772 23263 5393 15452 273544 162760 13452 2342 12894 4062 49720 88605 176121 11789
is_linear=0
shrinkage=0.05


Tree=1
num_leaves=31
num_cat=0
split_feature=35 35 35 0 8 20 2 20 2 0 34 19 1 15 8 2 1 19 2 7 1 22 13 1 34 15 1 1 20 22
split_gain=6.73319e+06 267032 17628.6 12243.1 3175.39 366.872 313.452 288.65 155.667 147.983 143.895 103.627 99.4433 93.0286 103.025 67.7435 62.9211 57.2356 54.241 47.5262 44.3155 40.0192 46.111 37.2742 37.1672 39.5056 35.8958 35.5682 35.1195 35.0182
threshold=5.5000000000000009 1.0000000180025095e-35 8.5000000000000018 7.955000000000001 78.750000000000014 37.350000000000001 5.8350000000000009 21.950000000000003 5.8750000000000009 6.495000000000001 0.46495000000000003 0.007807751672344751 3.5000000000000004 3.7083333333333335 87.950000000000017 4.3750000000000009 3.5000000000000004 0.044256853593140362 5.0750000000000011 43.250000000000007 3.5000000000000004 0.71611487403942975 56.550000000000004 5.5000000000000009 0.53090000000000004 3.4500000000000006 3.5000000000000004 5.5000000000000009 81.950000000000017 0.59903045429425361
decision_type=2 2 2 8 10 10 2 10 2 10 2 10 2 2 10 2 2 10 2 10 2 2 2 2 2 2 2 2 10 2
left_child=1 -1 3 4 5 11 18 -3 26 20 -8 15 19 14 29 -2 -11 28 -6 -13 -9 -20 -23 -22 -17 -26 -7 -18 -10 -12
right_child=2 7 -4 -5 6 8 10 9 17 16 13 12 -14 -15 -16 24 27 -19 21 -21 23 22 -24 -25 25 -27 -28 -29 -30 -31
leaf_value=-0.091533300344034119 0.080145964517021273 -0.026857603585889955 0.097245427347401797 0.091472274166072967 0.076742838775410827 0.08426384314937202 0.070259901566002966 -0.030608431752915014 0.081054217359219596 -0.0339007796792739 0.063520728592290104 0.083699338901905035 0.078991608644368744 0.067803251586058086 0.052356986351775416 0.077329105815583263 -0.03031882589955133 0.078188108919002464 0.071682124138502376 0.079237698809677362 -0.027557406507269712 0.068136567819297736 0.054081658251718179 -0.030982555723311309 0.069712766970120618 0.076108042739973472 0.081908290495857738 -0.034323239754546445 0.084511744838229264 0.057590335735917424
leaf_weight=766866.34422029555 18175.905452311039 65199.797133069485 626585.01732349396 480407.00526708364 3348.5140536427498 76584.268732458353 3838.4270076006651 39196.048331871629 60854.086295634508 36647.010836880654 5840.3787736296654 22316.645443737507 59324.315872013569 2915.3784061074257 5226.6576637327671 35526.596603959799 32068.968728659675 16422.276014536619 6259.3074433505535 8148.016462802887 35700.725991681218 2493.3482417166233 761.88084292411804 10216.063664086163 3608.5706303119659 7299.5145267993212 20503.232936054468 6704.6427854076028 8352.463504254818 4338.2597201168537
leaf_count=3681017 19360 264800 26167 514734 3575 81687 4163 156239 64790 149381 6436 23805 63105 3198 6013 37819 130949 17480 6732 8674 142595 2692 840 40722 3870 7802 21849 27526 8891 4891
internal_value=0.0232756 -0.077463 0.0908783 0.0861987 0.0793909 0.0808795 0.0650613 -0.0296632 0.0823958 -0.0308026 0.0614573 0.0790852 0.080184 0.059613 0.0580631 0.0775582 -0.0324153 0.0808418 0.0712698 0.082506 -0.0293736 0.0693436 0.064847 -0.0283195 0.0765453 0.0739924 0.0837664 -0.0310113 0.0814715 0.0609931
internal_weight=2.47173e+06 992600 1.47913e+06 852545 372138 337116 35022.2 225733 182716 160533 22159.1 154400 89789 18320.7 15405.3 64610.6 75420.6 85628.8 12863.1 30464.7 85112.8 9514.54 3255.23 45916.8 46434.7 10908.1 97087.5 38773.6 69206.5 10178.6
internal_count=5531802 4593229 938573 912406 397672 359132 38540 912212 194697 647412 24701 164435 95584 20538 17340 68851 307856 91161 13839 32479 339556 10264 3532 183317 49491 11672 103536 158475 73681 11327
is_linear=0
shrinkage=0.05


end of trees

feature_importances:
pred_course=10
nat_win_rate=8
tenji_z_score=6
wall_strength=5
ana_relevance=5
venue_frame_win_rate=4
venue_course_1st_rate=3
anti_nige_potential=3
exhibition_time=2
course_quinella_rate=2
course_trifecta_rate=2
series_avg_rank=2
slit_formation=2
nige_count=1
local_win_rate=1
nige_rate=1
follow_potential=1
specialist_score=1
makuri_potential=1

parameters:
[boosting: gbdt]
[objective: lambdarank]
[metric: ndcg]
[tree_learner: serial]
[device_type: cpu]
[data_sample_strategy: bagging]
[data: ]
[valid: ]
[num_iterations: 1000]
[learning_rate: 0.05]
[num_leaves: 31]
[num_threads: 0]
[seed: 42]
[deterministic: 0]
[force_col_wise: 0]
[force_row_wise: 0]
[histogram_pool_size: -1]
[max_depth: -1]
[min_data_in_leaf: 20]
[min_sum_hessian_in_leaf: 0.001]
[bagging_fraction: 1]
[pos_bagging_fraction: 1]
[neg_bagging_fraction: 1]
[bagging_freq: 0]
[bagging_seed: 400]
[bagging_by_query: 0]
[feature_fraction: 1]
[feature_fraction_bynode: 1]
[feature_fraction_seed: 30056]
[extra_trees: 0]
[extra_seed: 12879]
[early_stopping_round: 0]
[early_stopping_min_delta: 0]
[first_metric_only: 0]
[max_delta_step: 0]
[lambda_l1: 0]
[lambda_l2: 0]
[linear_lambda: 0]
[min_gain_to_split: 0]
[drop_rate: 0.1]
[max_drop: 50]
[skip_drop: 0.5]
[xgboost_dart_mode: 0]
[uniform_drop: 0]
[drop_seed: 17869]
[top_rate: 0.2]
[other_rate: 0.1]
[min_data_per_group: 100]
[max_cat_threshold: 32]
[cat_l2: 10]
[cat_smooth: 10]
[max_cat_to_onehot: 4]
[top_k: 20]
[monotone_constraints: ]
[monotone_constraints_method: basic]
[monotone_penalty: 0]
[feature_contri: ]
[forcedsplits_filename: ]
[refit_decay_rate: 0.9]
[cegb_tradeoff: 1]
[cegb_penalty_split: 0]
[cegb_penalty_feature_lazy: ]
[cegb_penalty_feature_coupled: ]
[path_smooth: 0]
[interaction_constraints: ]
[verbosity: -1]
[saved_feature_importance_type: 0]
[use_quantized_grad: 0]
[num_grad_quant_bins: 4]
[quant_train_renew_leaf: 0]
[stochastic_rounding: 1]
[linear_tree: 0]
[max_bin: 255]
[max_bin_by_feature: ]
[min_data_in_bin: 3]
[bin_construct_sample_cnt: 200000]
[data_random_seed: 175]
[is_enable_sparse: 1]
[enable_bundle: 1]
[use_missing: 1]
[zero_as_missing: 0]
[feature_pre_filter: 1]
[pre_partition: 0]
[two_round: 0]
[header: 0]
[label_column: ]
[weight_column: ]
[group_column: ]
[ignore_column: ]
[categorical_feature: 5,33]
[forcedbins_filename: ]
[precise_float_parser: 0]
[parser_config_file: ]
[objective_seed: 16083]
[num_class: 1]
[is_unbalance: 0]
[scale_pos_weight: 1]
[sigmoid: 1]
[boost_from_average: 1]
[reg_sqrt: 0]
[alpha: 0.9]
[fair_c: 1]
[poisson_max_delta_step: 0.7]
[tweedie_variance_power: 1.5]
[lambdarank_truncation_level: 30]
[lambdarank_norm: 1]
[label_gain: ]
[lambdarank_position_bias_regularization: 0]
[eval_at: 1,2,3]
[multi_error_top_k: 1]
[auc_mu_weights: ]
[num_machines: 1]
[local_listen_port: 12400]
[time_out: 120]
[machine_list_filename: ]
[machines: ]
[gpu_platform_id: -1]
[gpu_device_id: -1]
[gpu_use_dp: 0]
[num_gpu: 1]

end of parameters

pandas_categorical:[["\u4e09\u91cd", "\u4eac\u90fd", "\u4f50\u8cc0", "\u5175\u5eab", "\u5317\u6d77", "\u5343\u8449", "\u548c\u6b4c", "\u57fc\u7389", "\u5927\u5206", "\u5927\u962a", "\u5948\u826f", "\u5bae\u57ce", "\u5bae\u5d0e", "\u5bcc\u5c71", "\u5c71\u53e3", "\u5c71\u68a8", "\u5c90\u961c", "\u5ca1\u5c71", "\u5e83\u5cf6", "\u5fb3\u5cf6", "\u611b\u5a9b", "\u611b\u77e5", "\u65b0\u6f5f", "\u6771\u4eac", "\u6803\u6728", "\u6c96\u7e04", "\u6ecb\u8cc0", "\u718a\u672c", "\u77f3\u5ddd", "\u795e\u5948", "\u798f\u4e95", "\u798f\u5ca1", "\u798f\u5cf6", "\u79cb\u7530", "\u7fa4\u99ac", "\u8328\u57ce", "\u9577\u5d0e", "\u9752\u68ee", "\u9759\u5ca1", "\u9999\u5ddd", "\u9ad8\u77e5", "\u9ce5\u53d6", "\u9e7f\u5150"], ["01", "02", "03", "04", "05", "06", "07", "08", "09", "10", "11", "12", "13", "14", "15", "16", "17", "18", "19", "20", "21", "22", "23", "24"]]
