tree
version=v4
num_class=1
num_tree_per_iteration=1
label_index=0
max_feature_idx=51
objective=lambdarank
feature_names=venue_code_x exhibition_time exhibition_start_timing pred_course nat_win_rate motor_rate boat_rate weight branch course_run_count course_quinella_rate course_trifecta_rate course_1st_rate course_avg_st nige_count makuri_count sashi_count wind_speed wind_direction wave_height local_win_rate venue_course_1st_rate venue_course_2nd_rate venue_course_3rd_rate st_std_dev syn_win_rate series_avg_rank makuri_rate nige_rate inner_st_gap slit_formation anti_nige_potential wall_strength follow_potential tenji_z_score linear_rank is_linear_leader weight_diff high_wind_alert local_perf_diff wind_vector_long wind_vector_lat corrected_st inner_st_gap_corrected motor_rank tenji_rank motor_gap specialist_score sashi_potential makuri_potential venue_code_y venue_frame_win_rate
feature_infos=[1:20] [6.3600000000000003:9.8900000000000006] [0:0.95999999999999996] [1:6] [0:9.0999999999999996] [0:90.909999999999997] [0:90.909999999999997] [0:70] -1:23:31:21:9:17:7:38:18:34:14:39:3:0:19:2:30:36:26:29:5:24:1:28:27:35:20:10:15:13:8:40:16:11:6:42:12:25:4:37:33:32 [0:6676] [0:100] [0:100] [0:100] [0:0.52000000000000002] [0:1289] [0:612] [0:451] [0:15] -1:4:5:8:0:9:10:3:14:13:7:16:1:6:11:2:12:15 [0:40] [0:8.4499999999999993] [0.80000000000000004:67.700000000000003] [4.2999999999999998:31.199999999999999] [6.5:24.5] [0.055164638400722402:0.33729143398152861] [0:10.804010274082581] [1:6] [0:0.5] [0:0.80000000000000004] [-0.82000000000000006:0.79999999999999993] [-0.59499999999999997:0.79999999999999993] [0:0.3834951456310679] [0:100] [0:15.4] [-2.0337230420498971:2.041241452319301] [1:6] [0:1] [-45.833333333333336:27] [0:1] [-6.4699999999999998:7.1500000000000004] [-15:15] [-11:13] [0:0.52000000000000002] [-0.19:0.32000000000000001] [1:6] [1:6] [-5:5] [-7.6299999999999999:94.650000000000006] [0:21.216041397153944] [0:1.25] -1:5:7:6:18:8:15:0:14:1:9:11:12:16:4:3:17:2:10:13:19 [0.022099999999999901:0.63149999999999995]
tree_sizes=3605 3629 3621 3593 3596 3621 3629 3608 3622 3615 3625 3612 3615 3625 3632 3611 3600 3612 3606 3625 3597 3619 3619 3622 3607 3647 3628 3635 3631 3628 3619 3627 3612 3632 3617 3626 3632 3669 3655 3665 3624 3657 3667 3625 3672 3641 3647 3676 3611 3616 3646 3644 3654 3657 3648 3644 3660 3662 3658 3660 3623 3655 3668 3620 3655 3663 3646 3659 3654 3653 3670 3650 3673 3663 3656 3648 3662 3672 3670 3678 3648 3653 3653 3638 3680 3656 3649 3659 3653 3674 3662 3672 3654 3660 3633 3657 3625 3653 3647 3643 3641 3667 3659 3645 3629 3650 3640 3642 3654 3636 3651 3659 3662 3654 3654 3671 3642 3671 3661 3646 3683 3628 3658 3649 3647 3679 3632 3649 3662 3658 3669 3637 3638 3658 3662 3644 3658 3675 3634 3669 3629 3651 3657 3668 3655 3655 3646 3650 3669 3647 3617 3667 3644 3653 3645 3647 3669 3683 3649 3677 3665 3657 3645 3660 3648 3684 3654 3655 3654 3643 3615 3655 3665 3633 3651 3641 3674 3630 3675 3671 3642 3639 3658 3629 3641 3657 3657 3624 3664 3663 3641 3635 3681 3599 3657 3680 3693 3662 3669 3633 3653 3668 3636 3663 3641 3622 3663 3660 3663 3641 3657 3667 3647 3673 3646 3640 3645 3663 3629 3653 3652 3635 3672 3649 3630 3647 3665 3646 3615 3607 3676 3665 3640 3562 3605 3647 3666 3584 3632 3644 3642 3644 3639 3602 3663 3621 3636 3622 3622 3648 3605 3629 3586 3660 3639 3653 3618 3660 3642 3627 3616 3618 3648 3621 3610 3637 3590 3654 3576 3617 3624 3644 3576 3662 3620 3586 3638 3634 3632 3568 3629 3585 3603 3611 3639 3613 3608 3663 3554 3586 3562 3622 3652 3656 3539 3588 3629 3614 3597 3655 3608 3626 3637 3628 3587 3560 3571 3525 3576 3591 3544 3614 3610 3576 3640 3625 3623 3588 3631 3606 3573 3607 3570 3582 3553 3629 3551 3594 3589 3562 3580 3577 3502 3641 3639 3610 3568 3593 3563 3604 3571 3579 3609 3639 3607 3618 3593 3619 3633 3476 3623 3572 3651 3547 3587 3527 3584 3609 3585 3592 3547 3558 3519 3591 3565 3600 3566 3577 3544 3613 3596 3616 3597 3617 3477 3639 3593 3570 3575 3536 3588 3585 3655 3580 3589 3499 3559 3520 3576 3590 3537 3540 3572 3576 3557 3562 3545 3538

Tree=0
num_leaves=31
num_cat=0
split_feature=10 10 28 31 3 10 25 25 25 35 32 32 25 4 35 4 33 4 4 25 4 31 25 32 4 4 32 31 27 25
split_gain=482961 64033.1 39388.9 17278 12969.5 8519.25 7573.85 6335.09 5928.03 5873.85 5623.12 4916.34 4841.3 4210.62 3924.3 4715.31 3824.89 3553.79 3543.43 2810.14 2679.5 2425.58 2079.5 2065.26 1837.01 1740.93 1699.39 1692.36 2253.98 1519.67
threshold=48.150000000000013 26.550000000000004 0.40534263533902459 0.039556912171826754 2.5000000000000004 12.050000000000002 0.43842352312166422 0.25057862703917028 0.72631667720379445 1.5000000000000002 66.050000000000011 75.750000000000014 0.10308414642141611 5.0950000000000006 1.5000000000000002 4.6550000000000011 2.0581890856236789 5.1950000000000012 5.2350000000000012 0.30978023138228228 5.9850000000000012 0.019074625085990806 0.12441809598856757 32.750000000000007 5.1550000000000011 5.1550000000000011 24.750000000000004 0.055670619010138707 0.075987194560926313 0.42887139598048479
decision_type=10 8 10 10 2 8 2 2 2 10 10 10 2 2 10 2 10 2 2 2 2 10 2 10 2 2 10 10 10 2
left_child=1 5 6 4 10 -1 11 14 18 20 13 16 -11 19 15 -6 24 -5 29 -3 21 -7 -16 -17 -2 -12 -22 28 -19 -4
right_child=2 3 8 17 7 9 -8 -9 -10 12 25 -13 -14 -15 22 23 -18 27 -20 -21 26 -23 -24 -25 -26 -27 -28 -29 -30 -31
leaf_value=-0.080344711122257162 0.018791877948145394 -0.013959321712263032 0.030072865328973887 -0.014903171696121924 -0.058383342439388544 -0.058378291887811698 0.055722098197689619 0.0028950963185729733 0.082260959662257827 -0.07930418664844921 -0.046562825715311063 -0.011869387502475525 -0.039159090809360808 0.025020900768855332 -0.067602581491003066 -0.01462331955241967 -0.0075909452937201558 0.020224082091852034 0.065567776338337158 0.031751108339938799 -0.011971701812337088 -0.034243592783114986 -0.03868036130834112 -0.035715392211042946 0.037168620325113852 -0.017609924981326752 -0.042754302164235113 0.026193821792587942 -0.012314289369688855 0.061984284877579343
leaf_weight=42833.817681876011 22419.675446747802 32863.221658927388 11290.034350384958 14762.7157347342 16633.84759828262 33952.549314276315 19004.499372310936 8558.0459593329579 51699.887508758344 29739.577569296584 10320.703028269112 10207.779595017433 10047.074928255752 11838.37942176871 18360.179259454831 18907.668785592541 7707.2519069686532 11217.823643305339 91194.065809041262 3745.5118536194786 8387.0749158989638 15014.10269726906 9395.2076172986999 30052.665951516479 34566.294655297883 10448.225730623119 9633.3813928198069 16268.551903557964 10127.038838423789 5572.0238449238241
leaf_count=550290 111861 245454 48946 183926 247144 437555 87810 83059 145274 369523 138802 114993 117216 86167 221384 208096 82113 116791 304356 17861 82859 208367 107021 366012 216875 121904 109348 163176 109085 18920
internal_value=-4.49736e-10 -0.0361895 0.0532307 -0.0192425 -0.0269336 -0.0615068 0.0275319 -0.0382779 0.0683366 -0.0539497 -0.0102313 0.0203792 -0.0691666 -0.000900306 -0.0420525 -0.0353839 0.0254676 0.00588602 0.0616744 -0.0092826 -0.0449117 -0.0509781 -0.0578124 -0.02757 0.0299388 -0.0319975 -0.0284275 0.0140455 0.0047863 0.0406179
internal_weight=626769 373107 253662 223500 171124 149608 93905.5 101908 159756 106774 69216 74901 39786.7 48447.1 93349.6 65594.2 64693.2 52376.1 108056 36608.7 66987.1 48966.7 27755.4 48960.3 56986 20768.9 18020.5 37613.4 21344.9 16862.1
internal_count=5422188 4291040 1131148 2415882 1842904 1875158 613652 1232716 517496 1324868 610188 525842 486739 349482 1149657 821252 410849 572978 372222 263315 838129 645922 328405 574108 328736 260706 192207 389052 225876 67866
is_linear=0
shrinkage=0.05


Tree=1
num_leaves=31
num_cat=0
split_feature=12 12 28 10 25 35 4 32 4 4 25 25 31 25 25 4 25 25 25 25 1 51 43 10 26 25 12 43 32 31
split_gain=781283 166508 82903.8 52440.9 29415.2 30901 23231.1 19805.6 19088.5 15549.8 13943.5 12389.5 10811.8 10412.3 13700.6 9936.61 8998.44 7778.75 6199.44 5938.67 5682.86 5560.96 5269.4 5144.7 4917.67 4727.25 4689.27 4677.37 4470.72 3974.33
threshold=28.150000000000002 12.750000000000002 0.42978650542658692 15.850000000000003 0.35157583659269015 1.5000000000000002 4.5150000000000006 11.250000000000002 5.9750000000000005 5.2750000000000012 0.16288014393257358 0.53948623388604044 0.033178643763684158 0.20669212435198103 1.0000000180025095e-35 5.2350000000000012 0.074862133608471201 0.78128337903635059 1.0000000180025095e-35 0.47745836275790149 6.6050000000000013 0.10005000000000001 -0.029999999999999982 75.65000000000002 2.5500000000000003 0.082545423796875975 2.1500000000000008 -0.024999999999999991 34.650000000000013 0.013805907343073803
decision_type=10 10 10 8 2 10 2 10 2 2 2 2 8 2 2 2 2 2 2 2 10 2 10 10 2 2 10 10 10 8
left_child=1 3 11 15 5 8 21 -8 22 19 18 -2 -10 14 24 26 -16 23 -7 -4 -17 -5 -3 -11 -9 -20 -1 -14 -23 -26
right_child=2 4 9 6 -6 10 7 13 12 17 -12 -13 27 -15 16 20 -18 -19 25 -21 -22 28 -24 -25 29 -27 -28 -29 -30 -31
leaf_value=-0.0781561910652772 0.019885405274984728 0.0023657461510780426 0.023098983429468721 -0.05271269882978448 0.023991700511177882 -0.011170275516778357 0.0046099494007918514 -0.0055395820497716117 -0.0038412004939018551 0.053778608437701263 -0.0076341291046316392 0.051388384792746856 0.027900889617197302 0.0026785154968907701 -0.065262455156050864 -0.027650567726482212 -0.031946654447035178 0.079905369876897517 -0.057041510694957387 0.061283885713584674 -0.06019449726041734 -0.026976337321387607 -0.013478349067274681 0.069236039083427056 -0.035921713481600663 -0.0324673780019053 -0.058388413669972578 0.010778993207899837 -0.0445916184556088 -0.019370396643363111
leaf_weight=51411.799586881883 183249.97317028232 72086.513418406248 29016.187656208873 68701.291417703964 93136.666484810412 20925.722886107862 65663.889980219305 39284.650473053567 92232.684490708634 91651.949778601527 78400.997415699065 37616.249290198088 65513.972202230245 29431.868905024603 34139.742818602361 32417.143158174586 49880.339554171078 95760.778779644519 31129.809761855751 15687.206858515739 22883.487375162542 75056.696669672616 192906.79742292874 130444.47339541093 56581.164343279786 52701.072395769879 72036.216754975729 101972.79577874299 69254.661997361109 101031.97410139628
leaf_count=282254 272038 139663 44136 301472 143340 50813 145136 117841 239401 124262 185888 46244 96288 72947 158141 129696 182837 117066 120572 20065 103675 202684 445002 173731 209106 168637 357274 192226 262790 316963
internal_value=3.48786e-11 -0.0183715 0.0493992 -0.0350097 -0.00242353 -0.00589907 -0.0278112 -0.0203374 0.000273009 0.0641101 -0.0235809 0.0252508 0.00990599 -0.0256158 -0.0285802 -0.0587308 -0.0454838 0.0679933 -0.0355157 0.0364987 -0.0411173 -0.041004 -0.00916826 0.0628573 -0.0213671 -0.0415928 -0.066621 0.0174764 -0.0354299 -0.0253121
internal_weight=2.15221e+06 1.56878e+06 583427 767775 801007 707870 589026 376014 524713 362561 183158 220866 259719 310350 280918 178749 84020.1 317857 104757 44703.4 55300.6 213013 264993 222096 196898 83830.9 123448 167487 144311 157613
internal_count=5422188 4624646 797542 2842816 1781830 1638490 1969917 1202971 1112580 479260 525910 318282 527915 1057835 984888 872899 340978 415059 340022 64201 233371 766946 584665 297993 643910 289209 639528 288514 465474 526069
is_linear=0
shrinkage=0.05


Tree=2
num_leaves=31
num_cat=0
split_feature=28 12 10 4 25 4 35 12 25 31 20 25 4 31 51 34 4 43 35 32 12 32 25 4 25 25 4 25 32 4
split_gain=565866 164754 44508 30315.3 24181.7 19648.5 15992.9 11696.1 11671 11326.5 11087.2 10983.8 10464.1 8224.74 5972.03 5282.95 5121.04 5049.32 4946.24 4926.31 4825.26 4522.08 4758.92 4507.49 4180.68 3492.23 3292.98 3106.56 2899.08 2827.73
threshold=0.35532388663967612 14.550000000000002 17.950000000000003 5.2750000000000012 0.48982559464491049 4.8750000000000009 2.5000000000000004 53.550000000000004 0.20095733608002639 0.023493844459575104 6.2350000000000012 0.47745836275790149 5.5550000000000006 0.046705032015659655 0.10005000000000001 -0.068810235320389643 6.3850000000000007 0.0049999999999999914 1.5000000000000002 29.050000000000004 2.8500000000000001 27.650000000000002 0.14693121848112814 3.4350000000000005 0.12023836391546351 0.68041330613234052 6.5950000000000006 0.18301714781103473 36.850000000000001 3.6650000000000005
decision_type=10 10 8 2 2 2 10 10 2 8 10 2 2 10 2 2 2 10 10 10 10 10 2 2 2 2 2 2 10 2
left_child=1 2 12 11 6 14 10 25 -8 15 17 29 20 28 -4 24 -11 23 -14 26 -1 -16 -23 -3 -7 -5 -17 -21 -12 -2
right_child=3 4 5 7 -6 9 8 -9 -10 16 13 -13 18 -15 21 19 -18 -19 -20 27 -22 22 -24 -25 -26 -27 -28 -29 -30 -31
leaf_value=-0.069873892382108102 -0.024643724468578328 -0.035173964217335422 -0.045214529435678052 0.043467312551979803 0.033817431677427914 -0.052826695583102351 -0.028371487531555686 0.069314811174195259 0.00073539695715076536 -0.0081024978993207934 0.019670001159156764 0.056310208592041791 -0.021563346650189191 0.025975898070713627 -0.018599857163153304 -0.015358243275602416 0.020653702950973091 -0.011889271394618876 -0.056009846820090331 -0.02974449827779134 -0.050567626810471833 -0.03860723895982051 -0.0057156216189372527 0.0035468029886477101 -0.018965490038418048 0.067080768771836372 0.010881191713869724 -0.00038614419351441532 0.00043063416293671647 0.017797702618111415
leaf_weight=57270.492641161196 4270.4133301824331 7741.5813230164349 77165.413836787455 78147.118204861879 59339.899817567319 23666.792076097801 73013.491504774429 199322.82390505634 65187.685552023351 125549.84010224231 25710.790811972693 22161.554545477033 34465.294512844644 82730.278548389673 69516.979326069355 39832.683831820264 17660.06910007447 80300.484825590625 14938.321529235691 77970.299125310965 74419.214672995731 97448.538007116877 12395.984633021057 257941.53654392995 14825.8917262014 19580.750127699226 17085.719699284062 10188.022702809423 82118.22985413298 48468.872187312692
leaf_count=397557 8278 18350 376463 122629 89492 119178 261188 315035 143842 347678 57965 33852 145839 139452 196449 135696 41214 227195 81791 317225 414798 420075 40082 517104 51007 30831 48128 28564 221658 73573
internal_value=-1.89506e-11 -0.0137016 -0.0299487 0.0551999 0.00321639 -0.0232262 0.000525201 0.0623677 -0.0146422 -0.0150955 0.00443196 0.026773 -0.0516021 0.0141168 -0.0335835 -0.0233175 -0.0045564 -0.000902206 -0.031979 -0.0189484 -0.0589637 -0.0285796 -0.0348954 0.00241854 -0.0397847 0.0481985 -0.00748171 -0.0263517 0.00501808 0.0143611
internal_weight=1.87044e+06 1.49848e+06 764400 371952 734084 583306 674744 297051 138201 326779 536543 74900.8 181093 190559 256527 183569 143210 345984 49403.6 145077 131690 179362 109845 265683 38492.7 97727.9 56918.4 88158.3 107829 52739.3
internal_count=5422188 4837990 3161744 584198 1676246 2121759 1586754 468495 405030 1088690 1181724 115703 1039985 419075 1033069 699798 388892 762649 227630 529613 812355 656606 460157 535454 170185 153460 183824 345789 279623 81851
is_linear=0
shrinkage=0.05


Tree=3
num_leaves=31
num_cat=0
split_feature=10 10 12 10 25 4 31 4 4 25 32 4 34 25 32 31 1 25 25 30 10 4 25 32 49 25 4 4 4 34
split_gain=455425 119685 36401.8 31650.3 18620.7 17477.4 11886.4 10723.1 10234.5 9054.22 8257.67 6719.56 6122.23 6047.25 6951.98 4716.1 4616.82 4075.87 4064.17 4799.91 3812.1 3683.9 3505.94 3346.24 3286.45 3116.6 3105.17 3013.65 2784.58 2629.42
threshold=58.250000000000007 35.45000000000001 5.9500000000000011 69.350000000000009 0.44761992770059206 5.035000000000001 0.04622107635424131 5.2350000000000012 5.705000000000001 0.53948623388604044 26.150000000000002 6.535000000000001 -0.14256648712803424 0.16503016220728067 inf 0.017156889987804153 6.5950000000000006 0.17161966929639391 0.086508760369344503 -0.21999999999999992 45.850000000000001 3.8950000000000005 0.47745836275790149 40.850000000000001 0.0024450023912003832 0.78128337903635059 4.5150000000000006 5.2550000000000008 3.8450000000000002 -0.038679582646466343
decision_type=10 10 8 8 2 2 10 2 2 2 10 2 2 2 8 8 10 2 2 10 8 2 2 10 8 2 2 2 2 2
left_child=1 2 8 9 6 13 12 22 18 27 24 26 17 14 21 -12 -10 -3 19 -1 23 -4 -5 -14 -7 -9 -8 -2 -16 -23
right_child=3 4 5 7 -6 10 11 25 16 -11 15 -13 20 -15 28 -17 -18 -19 -20 -21 -22 29 -24 -25 -26 -27 -28 -29 -30 -31
leaf_value=-0.04830303930290511 0.012433524136968781 -0.031824047561014028 -0.049246387601852737 0.013779000082529511 0.028336516900908527 0.025135381488336779 -0.025875640211245544 0.060062154227570053 -0.015352885782746101 0.055732262061434383 -0.029146122586269543 0.02287809426359241 -0.0003273988034593789 -0.0026024925404977504 -0.032589147218112832 -0.012205715325949702 -0.04898072479053265 -0.0061428138273055648 -0.028205924347318112 -0.069122077834497003 0.0031735116461591197 -0.047201024807961116 0.058349671015135655 -0.014232325499717575 -0.0039371175724246662 0.073178284119517392 0.0051757501760049205 0.030138367534570495 -0.01133088438884941 -0.029644223336279557
leaf_weight=57774.237712677568 42175.846138261259 33215.772268622182 47744.829739117064 15065.979732252657 62322.324739715084 10922.554342662916 8646.1604238729924 150089.33374717459 28765.537445764057 25958.179509129375 67532.128333878703 64637.268761236221 81061.351680731401 18499.756659879349 23441.91279476136 104904.80583948735 15819.978897513822 28886.052401730791 12500.034974241629 53159.482218197547 147772.14892652445 26534.046175608411 6239.2914849109948 92800.672368377447 88350.726364650764 64864.08805745095 117013.45376933739 55880.45676201582 44927.714511504397 108652.17571165878
leaf_count=413440 68635 140939 258610 26697 105162 18372 24781 279641 124869 45675 316180 117447 210416 57884 77420 354213 92960 78833 65363 381752 350223 142688 11230 309024 262451 112792 246178 97267 130250 500796
internal_value=5.43992e-12 -0.0133654 -0.0274859 0.0499294 0.0023789 -0.0211774 -0.000439294 0.0606665 -0.0478174 0.0294744 -0.0122264 0.0097778 -0.00550601 -0.0301918 -0.0322229 -0.0188402 -0.0272848 -0.0198787 -0.055234 -0.0582795 -0.0027309 -0.037307 0.0268316 -0.0077493 -0.000738412 0.0640201 0.00303922 0.0225232 -0.0186197 -0.0330902
internal_weight=1.70616e+06 1.34589e+06 709530 360273 636355 541511 574033 236259 168019 124014 271710 190297 383736 269800 251301 172437 44585.5 62101.8 123434 110934 321634 182931 21305.3 173862 99273.3 214953 125660 98056.3 68369.6 135186
internal_count=5422188 4780251 3197248 641937 1583003 2118864 1477841 430360 1078384 211577 951216 388406 1089435 1167648 1109764 670393 217829 219772 860555 795192 869663 902094 37927 519440 280823 392433 270959 165902 207670 643484
is_linear=0
shrinkage=0.05


Tree=4
num_leaves=31
num_cat=0
split_feature=28 12 10 4 25 4 12 35 25 25 12 4 43 43 4 4 51 32 51 1 34 26 4 4 32 25 25 20 4 25
split_gain=374168 106920 30406.4 24812.6 16392 16036.9 9589.28 9046.42 8900.46 8556.59 6806.58 5867.37 5777.4 5663.56 4755.26 4681.99 3908.58 3860.9 3362.14 2992.82 2860.83 2648.61 2557.52 2310.38 2415.89 2292.55 2251.16 2226.89 2185.04 2096.24
threshold=0.35532388663967612 15.15 15.850000000000003 5.2750000000000012 0.51259960323601905 4.495000000000001 20.750000000000004 2.5000000000000004 0.12583763436681086 0.47745836275790149 53.550000000000004 5.1350000000000007 0.0049999999999999914 -0.029999999999999982 4.995000000000001 6.245000000000001 0.10055000000000001 38.95000000000001 0.093000000000000013 6.6050000000000013 -0.038679582646466343 2.5500000000000003 3.6650000000000005 3.3350000000000004 33.750000000000007 0.077546229417143259 0.077546229417143259 6.7650000000000006 6.1150000000000011 0.26722809253509089
decision_type=10 10 8 2 2 2 8 10 2 2 10 2 10 10 2 2 2 10 2 10 2 2 2 2 10 2 2 8 2 2
left_child=1 2 11 9 6 18 14 12 -9 22 -5 26 15 28 -3 16 -7 -16 -4 -13 29 -22 -2 -20 -25 -21 -1 -17 -8 -15
right_child=3 4 5 10 -6 7 13 8 -10 -11 -12 19 -14 20 17 27 -18 -19 23 25 21 -23 -24 24 -26 -27 -28 -29 -30 -31
leaf_value=-0.059822669354837044 -0.027033389471523585 -0.02063155430049779 -0.046273437539251519 0.046033649400433418 0.033280291847467385 -0.019210441500386852 0.0058513709493052766 -0.044289080321663093 -0.011121141060848331 0.052756040088020886 0.064204896033272535 -0.022911492059018185 -0.021112582692010017 -0.01968270249725414 0.0049336920035419991 -0.0013986427845147989 -0.0035790060974844676 -0.0087857479597198036 -0.046531545811721843 -0.063508570648620075 0.016262520180316788 0.0027291065793996162 0.015248538104424079 -0.019498349672147711 -0.034511033852832031 -0.022553203790878662 -0.029754097003854882 0.020333148084164011 0.025347929781558455 0.004603018031589994
leaf_weight=67861.175530359149 3907.6305821239948 45741.935956588015 40044.801974313334 76971.777869641781 42794.207380600274 73033.968809500337 20332.90060871467 46398.759954521898 35857.246641514823 17469.58609655872 155941.98446688801 25359.162900582887 99624.215646144934 21127.211965188384 90602.562476597726 31048.851289397106 88390.683113619685 118158.46622284874 17377.668792730197 10852.436655599624 46311.810158140957 164812.68627820723 42195.380164131522 54512.984843598679 52708.693842674606 4987.1660272413865 6853.3910737661645 19002.952330131084 49010.866862535477 15334.732562331483
leaf_count=576201 8278 155413 261245 153460 77105 291493 44043 273112 131109 33852 315035 140982 444674 78058 224524 103840 258184 379334 84713 82970 109281 381695 73573 194040 288126 30516 42278 53736 98008 33310
internal_value=1.95632e-11 -0.0116563 -0.0254087 0.0506429 0.00343253 -0.0205681 0.00119725 -0.0150842 -0.0298304 0.0229566 0.0581998 -0.0487111 -0.0111852 0.00700149 -0.00603071 -0.00650854 -0.0106512 -0.00283149 -0.03367 -0.0335621 0.00346418 0.00569777 0.0116648 -0.0296194 -0.0268784 -0.0506136 -0.0570646 0.00685217 0.0196312 -0.0094689
internal_weight=1.58463e+06 1.28814e+06 673914 296486 614227 558001 571433 393357 82256 63572.6 232914 115913 311101 316930 254503 211476 161425 208761 164644 41198.8 247586 211124 46103 124599 107222 15839.6 74714.6 50051.8 69343.8 36461.9
internal_count=5422188 4837990 3257219 584198 1580771 2384272 1503666 1556148 404221 115703 468495 872947 1151927 744395 759271 707253 549677 603858 828124 254468 602344 490976 81851 566879 482166 113486 618479 157576 142051 111368
is_linear=0
shrinkage=0.05


Tree=5
num_leaves=31
num_cat=0
split_feature=10 12 10 10 25 25 4 4 25 4 25 20 32 25 26 43 31 25 4 4 25 35 4 25 28 10 31 30 32 4
split_gain=315358 69017.3 42808.4 18736.1 15807.2 13968.4 11664.9 11092.5 10707.9 9917.32 9261.92 7744.27 5570.21 5693.4 5066.11 3633.01 3520.53 3123.75 2839.33 2733.43 2698.97 2662.18 3119.5 2652.37 2487.96 2379.07 2186.35 1966.7 1873.47 1816.98
threshold=53.750000000000007 11.450000000000001 68.450000000000017 12.450000000000001 0.31519812248858869 1.0000000180025095e-35 5.6350000000000007 5.3950000000000005 0.11329624532214001 5.2350000000000012 0.52488790318268064 6.7750000000000012 1.0000000180025095e-35 0.13029729801982587 2.183333333333334 -0.030000000000000002 0.009426519779041102 0.47745836275790149 3.5150000000000001 4.7750000000000012 0.017679518298545503 1.5000000000000002 3.7850000000000006 0.55286834956076281 0.51620084651580722 6.3500000000000005 0.031780905074203204 -0.12249999999999993 32.050000000000004 4.2150000000000007
decision_type=10 10 8 8 2 2 2 2 2 2 2 8 10 2 2 10 10 2 2 2 2 10 2 2 10 10 10 10 10 2
left_child=1 3 10 25 5 6 18 12 -7 17 19 16 -5 21 -8 -16 -9 29 -3 -2 -21 22 -14 -6 -11 -1 -17 -13 -20 -4
right_child=2 4 9 7 23 8 14 11 -10 24 -12 27 13 -15 15 26 -18 -19 28 20 -22 -23 -24 -25 -26 -27 -28 -29 -30 -31
leaf_value=-0.06715319465700112 0.0030362978322968637 -0.03809393947935838 -0.022548774926712756 -0.017221911769292685 0.011919610231211462 -0.039053866758940625 0.020745602968021585 -0.029647640212357051 -0.0098036881794745633 0.049570863274682103 0.047406674480545329 0.0091386957704062237 -0.049098472387956178 -0.010649525187268817 0.014059876002254536 -0.0091970730098075298 -0.011316659654092266 0.053546304255765759 -0.0045219939093187021 0.023671825673717759 0.0045004653677832964 -0.04754792858028481 -0.029563554879977184 0.031867680292453814 0.062417122011886907 -0.046511034553498441 0.0030908661491364847 -0.028781058114626924 -0.015182284399321741 0.019668519366427949
leaf_weight=20353.012424272485 31885.732047863305 9316.3057050863281 3223.723910536617 61765.396993155591 62743.008647954091 46710.06799495779 45313.775012824684 50572.162190365605 94771.565240371041 52893.651456855237 27962.724132735282 36664.121482190676 25870.036027054302 22205.5953336237 49445.918585762382 57875.226667663082 54332.558641653508 5927.0467430073768 84488.54595838394 87513.825850198045 23231.706713741645 48000.881506748963 97296.695709494874 22689.899228528142 131127.61146810092 44427.568177044857 96653.362693855539 3771.087040537037 80466.979002121836 12170.655848771334
leaf_count=204379 61456 34419 7195 215061 142701 257209 111404 282527 352066 119572 57906 109164 182167 91888 107220 215533 236739 12962 208671 175934 61469 332641 544827 44503 288767 379487 243974 20824 296787 22736
internal_value=-5.68362e-12 -0.0133448 0.0396057 -0.0280488 -0.00282758 -0.00585836 -0.00131481 -0.0240134 -0.0194606 0.0549844 0.0210945 -0.012988 -0.0302939 -0.0344693 0.00562291 0.00226334 -0.0201536 0.0227029 -0.0112389 0.0159361 0.0196501 -0.0375594 -0.0336667 0.0172176 0.0587247 -0.0529965 -0.00151131 0.00560221 -0.00972219 0.0108278
internal_weight=1.49167e+06 1.11573e+06 375937 465259 650475 565042 423560 400479 141482 205343 170594 145340 255139 193373 249288 203975 104905 21321.4 174272 142631 110746 171168 123167 85432.9 184021 64780.6 154529 40435.2 164956 15394.4
internal_count=5422188 4614191 807997 2599704 2014487 1827283 1218008 2015838 609275 451232 356765 649254 1366584 1151523 678131 566727 519266 42893 539877 298859 237403 1059635 726994 187204 408339 583866 459507 129988 505458 29931
is_linear=0
shrinkage=0.05


Tree=6
num_leaves=31
num_cat=0
split_feature=28 10 4 4 31 25 3 25 31 20 4 12 4 10 25 30 25 32 30 34 51 25 12 25 32 4 25 20 26 25
split_gain=265436 77453.8 23438.3 20481.4 11661.5 11504.3 11149.9 6787.28 6211.75 5545.84 5437.68 4717.43 4207.11 3595.99 3051.44 3199.46 2901.88 2953.11 2742.48 2508.6 2503.17 2300.71 2291.74 2277.76 2234.86 2124.3 2117.68 2037.52 2011.3 1825.56
threshold=0.35532388663967612 37.150000000000013 4.6750000000000007 5.2750000000000012 0.014416545860608351 0.51259960323601905 4.5000000000000009 0.47745836275790149 0.05067573289559326 6.2350000000000012 6.0950000000000006 53.550000000000004 6.5250000000000012 51.45000000000001 0.16288014393257358 -0.13249999999999992 0.18071223720489937 24.050000000000004 -0.097499999999999934 -0.089586258385022696 0.11260000000000002 0.062772375551095813 2.9500000000000006 0.13834741173793871 27.150000000000002 4.1150000000000011 0.20984420861949046 6.7950000000000008 2.5500000000000003 0.24229862849461137
decision_type=10 10 2 2 8 2 2 2 10 10 2 10 2 10 2 10 2 10 10 2 2 2 8 2 10 2 2 8 2 2
left_child=1 2 6 7 9 8 16 25 13 14 20 -5 -10 19 15 -4 17 -1 24 26 -6 -17 -8 -20 -11 -2 -3 -12 -21 -30
right_child=3 5 4 11 10 -7 22 -9 12 18 27 -13 -14 -15 -16 21 -18 -19 23 28 -22 -23 -24 -25 -26 -27 -28 -29 29 -31
leaf_value=-0.020008816975496713 -0.013736780747482538 -0.024527968569724036 -0.026713734964510238 0.043061154460167471 -0.01802854016685394 0.030995251947318305 -0.062064773334759238 0.049050593311151615 0.0043248765384455061 0.010935171349939746 -0.00057834465180606155 0.059470003246257487 0.022509864860866285 0.0066283792687506365 -0.0051437183071167663 -0.055790853550854828 -0.0027428799352435898 -0.034345117521442127 -0.043416960300229651 0.0068621812357568665 -0.0063677349452805456 -0.031445742016961785 -0.043777617392838857 -0.0016677851105085493 -0.016342057462718031 0.015047420485602281 -0.0021017397373760921 0.01961181196665357 -0.0069579495808489711 0.008808137840705282
leaf_weight=58480.418219424784 7893.4410801231861 26148.086730765179 57540.101067354437 65816.099429760128 89241.276673607528 36870.187835000455 26672.932881303597 14763.054534580559 85175.12212221697 15886.536709425971 43887.696948589757 130951.60565751232 50759.057744989172 98889.381425180472 9937.3165874201804 22299.885336775333 11481.077864340972 93115.424448819365 9189.4280123235658 46286.960869796574 95031.877343351021 17182.05191840278 47896.440830438398 5069.2248845240101 14240.047770715784 34103.597641764209 17619.949680718593 17469.783715748228 143268.76421577483 21059.568332416005
leaf_count=214145 16894 130669 361130 153460 387039 77283 294523 33852 200744 57553 150222 315035 102785 245920 43053 187853 40878 583530 64475 145944 332487 111678 384955 21283 77464 64957 52537 45669 468967 55204
internal_value=-1.10195e-11 -0.0101238 -0.0218836 0.0463487 -0.0144489 0.00406234 -0.0343027 0.0198886 0.00203248 -0.0253665 -0.00772215 0.0539815 0.0111153 -0.00146246 -0.0315321 -0.0342349 -0.0269791 -0.0288147 -0.0105085 -0.00460771 -0.0120149 -0.0451962 -0.0503188 -0.0285743 -0.00195806 0.00963736 -0.0154997 0.00517022 -0.00234424 -0.00493744
internal_weight=1.41423e+06 1.1607e+06 634622 253528 396975 526077 237646 56760.1 489207 151345 245631 196768 135934 353273 106959 97022 163077 151596 44385.2 254383 184273 39481.9 74569.4 14258.7 30126.6 41997 43768 61357.5 210615 164328
internal_count=5422188 4837990 3357937 584198 1839906 1480053 1518031 115703 1402770 924489 915417 468495 303529 1099241 703714 660661 838553 797675 220775 853321 719526 299531 679478 85758 135017 81851 183206 195891 670115 524171
is_linear=0
shrinkage=0.05


Tree=7
num_leaves=31
num_cat=0
split_feature=28 10 4 4 10 35 25 25 4 25 31 3 25 35 31 12 4 51 26 4 32 4 25 4 32 25 32 44 25 4
split_gain=227606 66330.3 18498.6 17156 12985.3 10692.4 7561.69 6983.08 6674.45 5978.9 5888.19 5676.03 4458.81 4774.72 4076.67 3973.44 2879.38 2609.75 2491.41 2383 2382.73 1949.13 1920.24 1909.79 1804.06 1720.4 1572.28 1510.1 1493.43 1347.35
threshold=0.35532388663967612 32.850000000000001 5.2750000000000012 4.2350000000000012 43.750000000000007 2.5000000000000004 0.081562684018685508 0.51259960323601905 6.3850000000000007 0.47745836275790149 0.011173338105675352 4.5000000000000009 0.29361264522896696 1.5000000000000002 0.043044680976472412 54.95000000000001 5.3950000000000005 0.17875000000000002 2.183333333333334 6.7550000000000008 36.850000000000001 3.3350000000000004 0.13357375029350374 2.8350000000000004 21.350000000000005 0.20394293704085453 27.650000000000002 2.5000000000000004 0.21872974359935329 4.4150000000000009
decision_type=10 10 2 2 8 10 2 2 2 2 8 2 2 10 8 10 2 2 2 2 10 2 2 2 10 2 10 2 2 2
left_child=1 3 9 11 12 8 -7 14 10 21 -5 23 13 16 27 -4 -3 25 -10 29 -18 -2 -15 -1 -20 26 -12 -6 -8 -16
right_child=2 4 15 5 7 6 28 -9 18 -11 17 -13 -14 22 19 -17 20 -19 24 -21 -22 -23 -24 -25 -26 -27 -28 -29 -30 -31
leaf_value=-0.054017639253784715 -0.038117547441008037 -0.012842223351353394 0.04251828185668436 -0.029637405483382173 0.0073437474544056289 -0.050180993215926097 -0.024316184208520209 0.031722869403981266 0.021493147571760563 0.047326917923677117 -0.0092216803647797493 -0.052795304051266007 0.010681148596745791 -0.028413607318702318 -0.029313759505855703 0.057783095816669267 0.0072889501879730622 0.0075297051205868151 0.011655050362884455 0.023347054878899445 -0.0065443448644187541 0.011674307962865157 -0.011021968009883188 -0.028670598439176711 -0.011256618601874597 0.0096578158738494235 -0.019689403462257584 -0.0019449895493412206 -0.0012366983514303671 0.0093299754474012644
leaf_weight=8205.8979248730466 2071.9540989026427 69239.288063041866 67769.876910438761 64368.063348263968 68727.119386461563 37708.460519499611 25030.339165293612 28696.259901726618 13549.718858233653 13721.204739173874 64387.564774260856 45908.836597732734 34092.115500932559 34510.064648840576 2330.1283633317798 114924.28949757479 58000.960369730368 15733.887977006845 13026.789994195104 39484.922795442864 67188.832121403888 38240.171250056475 29386.2243181495 78739.330225137994 25235.509528519586 7401.8065017387271 81001.958568714093 120423.45536449738 9735.5047027943656 70520.862124981359
leaf_count=59688 5099 246230 170654 469622 197360 333900 150061 63708 43798 33852 245254 474741 86209 194258 7422 297841 151569 38705 41109 90020 238683 76752 120680 438008 125046 25154 425545 366836 35782 168602
internal_value=1.14027e-11 -0.00947209 0.0445194 -0.0232328 0.00135865 -0.0175271 -0.0346734 0.00815406 -0.0131624 0.0188186 -0.0167733 -0.0385727 -0.00631438 -0.00855733 0.00591072 0.0521207 -0.00466045 -0.0118599 0.00306854 0.0134553 -0.000135321 0.00911512 -0.0204151 -0.0310629 -0.00345611 -0.0138565 -0.0150536 0.00143004 -0.0178532 0.00809396
internal_weight=1.34936e+06 1.11263e+06 236727 490034 622600 357180 72474.3 330183 284705 54033.3 232893 132854 292417 258325 301486 182694 194429 168525 51812 112336 125190 40312.1 63896.3 86945.2 38262.3 152791 145390 189151 34765.8 72851
internal_count=5422188 4837990 584198 2906413 1931577 1933976 519743 893948 1414233 115703 1204280 972437 1037629 951420 830240 468495 636482 734658 209953 266044 390252 81851 314938 497696 166155 695953 670799 564196 185843 176024
is_linear=0
shrinkage=0.05


Tree=8
num_leaves=31
num_cat=0
split_feature=28 12 4 4 25 4 35 25 25 20 12 25 25 33 31 12 26 14 32 48 4 20 51 4 4 34 25 51 20 25
split_gain=195987 57432.1 16837.6 16145.2 11285.8 8426.49 7836.04 6658.26 6392.83 5567.87 5554.8 5288.51 4379.4 4329.31 3800.64 3475.11 3214.62 2704.15 2606.89 2362.21 2129.94 2030.59 1971.94 1826.39 1739.07 1548.13 1517.86 1422.86 1404.68 1399.94
threshold=0.35532388663967612 13.450000000000001 5.2750000000000012 4.3350000000000009 0.43842352312166422 5.8550000000000013 2.5000000000000004 0.081562684018685508 0.0075038105068360511 5.9050000000000011 4.2500000000000009 0.47745836275790149 0.16935374220356539 1.2691762911309656 0.014627664852364901 54.95000000000001 2.5500000000000003 159.50000000000003 40.850000000000001 0.29265181291260406 4.495000000000001 6.5250000000000012 0.15085000000000001 2.8350000000000004 4.1950000000000012 -1.0000000180025095e-35 0.58365046452837477 0.11655000000000001 6.4850000000000012 0.14003108460777083
decision_type=10 10 2 2 2 2 10 2 2 8 8 2 2 10 10 10 2 2 10 8 2 10 2 2 2 2 2 2 10 2
left_child=1 3 11 10 5 17 9 -8 13 14 -1 24 -10 19 29 -4 -11 20 28 -7 -3 -21 -18 -12 -2 -22 -6 -25 -15 -5
right_child=2 4 15 6 26 8 7 -9 12 16 23 -13 -14 18 -16 -17 22 -19 -20 21 25 -23 -24 27 -26 -27 -28 -29 -30 -31
leaf_value=-0.055116017920009287 -0.01137119495938929 -0.018357762788541544 0.041027641615136383 -0.029522125659324334 0.016327271884385527 0.0061536654430943199 -0.046827287645634152 -0.016012452167942996 -0.025048068027489226 0.0099919358920077493 -0.053243550317002952 0.045593038245467926 0.0012033694049247373 0.0037230640020276123 -0.011436036727077879 0.055779730271410435 -0.012596459587279472 0.003989959643123318 -0.0046326007153789086 0.015664076708832474 -0.017645255510617911 0.033230245297825152 0.0063526336136107836 -0.036073332988449641 0.014163844291151305 -0.0044831669923744571 0.033424384544040765 -0.023929239028818685 0.021035098381561146 -0.003581126457543043
leaf_weight=30246.061262827367 8536.8745590262115 51804.22882875707 63678.667407793924 60785.909035348799 31032.721385086887 34376.573846707121 33681.659417813644 36555.833848122042 23899.579590305686 30987.46426015161 8407.1250528437085 12818.911367964 47389.126227462664 27202.334127144888 87323.145703818649 107002.25313239545 68524.535066836048 44680.242427248508 57342.747705862857 44684.145228082314 26847.037553270347 26038.316488974728 17169.68617355451 41251.509639466647 30455.446960410103 133097.86251584627 22317.214923594147 58077.67918699421 20583.024443170056 5687.4765929086134
leaf_count=358981 19329 191829 170654 461605 69967 111543 319674 198913 133228 115701 69614 33852 167553 76019 393232 297841 330956 91262 201294 100267 127674 56801 43695 327620 62522 447175 51954 310633 53192 27608
internal_value=1.23941e-12 -0.00887846 0.0426976 -0.0217529 0.00154437 -0.000630991 -0.0159094 -0.0307894 0.00534152 -0.0120453 -0.0361822 0.0177325 -0.00759744 0.00972916 -0.0182938 0.0502759 -0.00380924 -0.00718779 0.00255494 0.0169054 -0.00954636 0.0221315 -0.00879982 -0.0308667 0.00857327 -0.00669245 0.0234793 -0.0289727 0.01118 -0.0273026
internal_weight=1.29249e+06 1.06999e+06 222492 478698 591295 537945 340716 70237.5 281516 270478 137982 51811.2 71288.7 210227 153797 170681 116682 256429 105128 105099 211749 70722.5 85694.2 107736 38992.3 159945 53349.9 99329.2 47785.4 66473.4
internal_count=5422188 4837990 584198 2958232 1879758 1757837 1891384 518587 899897 1372797 1066848 115703 300781 599116 882445 468495 490352 857940 330505 268611 766678 157068 374651 707867 81851 574849 121921 638253 129211 489213
is_linear=0
shrinkage=0.05


Tree=9
num_leaves=31
num_cat=0
split_feature=10 4 10 12 31 25 4 25 4 25 30 25 26 51 26 12 31 51 4 25 25 28 25 32 25 4 25 32 33 32
split_gain=169665 35141.3 31218.4 15945.7 11832.5 7863.46 7317.74 6402.22 4301.38 3803.59 5676.45 4047.62 3627.39 3173.71 2950.38 2327.31 2184.99 2135.18 2080.91 2755.09 2030.77 1560.57 1551.7 1475 1445.19 1433.75 1410.54 1371.28 1352.29 1279.64
threshold=51.650000000000013 5.2750000000000012 68.450000000000017 6.8500000000000005 0.027324485908474604 0.23841306116057184 5.2350000000000012 0.52488790318268064 3.6950000000000007 0.27105871920963609 -0.16749999999999993 0.093618572124540958 2.291666666666667 0.13225000000000001 2.3666666666666667 3.0500000000000003 0.030204831330758304 0.11260000000000002 5.0150000000000006 0.018375108109581553 0.47745836275790149 0.55915101620787244 0.27610905365014599 40.350000000000001 1.0000000180025095e-35 4.2150000000000007 0.35157583659269015 51.150000000000013 0.021655067177788454 71.550000000000011
decision_type=10 2 10 8 8 2 2 2 2 2 10 2 2 2 2 8 10 2 2 2 2 10 2 10 2 2 2 10 10 10
left_child=1 3 7 15 9 8 20 18 -5 10 14 24 -6 16 -3 -1 -10 -14 26 29 25 -8 -21 -19 -12 -4 -2 -15 -16 -20
right_child=2 4 6 5 12 -7 21 -9 13 -11 11 -13 17 27 28 -17 -18 23 19 22 -22 -23 -24 -25 -26 -27 -28 -29 -30 -31
leaf_value=-0.053021627101449975 -0.0019208782884276802 0.0065867825627603533 -0.023479812781117101 -0.034674601788879419 0.015660149548392632 0.0082449213480457924 0.044549672407018279 0.039690429831674034 -0.027350409208124083 0.0096369760104736829 -0.016835772400482771 -0.013752901794988812 -0.0049684191844554344 -0.007348367716889237 -0.0012836103772041146 -0.035526888443148462 -0.014447882581033258 0.010313123715756828 0.022904797675434095 -0.014633523526535096 0.045851211227845821 0.055298322227064114 0.011274948560459994 0.00037896008690855903 -0.043251160869725164 0.015737441392480428 0.019538907026593291 -0.019416385957231278 -0.014703466374391736 0.0068935488557394682
leaf_weight=30796.198727253592 33057.52549550496 29991.367158467881 3003.6569908969104 41295.483907958493 55120.687944628298 27500.827122299001 59155.012057293206 24942.854960788041 84262.931983296294 19762.410244414583 6491.3541674688458 37763.888505733572 84205.898060997948 78011.547818800434 25131.882983096875 49670.583620917052 53738.682815501001 69560.585728190839 72167.065734378994 9533.7459274791181 4474.6457514762878 78688.488752946258 14674.523656064644 80730.841319974512 25589.430747087114 10399.970141414553 9965.680582717061 33711.668726740405 74181.597487395164 15087.82201605197
leaf_count=401915 74697 124536 7195 259566 152479 77477 176765 66047 546865 66936 39939 207396 293486 259753 95988 444294 249329 175185 159457 44724 12962 231574 39399 268433 230162 22736 20360 191916 423066 57551
internal_value=1.34444e-11 -0.0112275 0.0304016 -0.0223353 -0.00251235 -0.0173113 0.0467821 0.0161854 -0.0197263 -0.011285 -0.0133611 -0.0248469 0.00411856 -0.0172544 -0.00715704 -0.0422225 -0.0223261 0.0014056 0.0123904 0.0159956 0.0166857 0.0506856 0.00107163 0.00497687 -0.0379062 0.00694914 0.00304996 -0.0109898 -0.0113075 0.0201362
internal_weight=1.24267e+06 907518 335151 398988 508530 318521 155722 179429 291020 218912 199150 69844.7 289618 249725 129305 80466.8 138002 234497 154486 111463 17878.3 137844 24208.3 150291 32080.8 13403.6 43023.2 111723 99313.5 87254.9
internal_count=5422188 4508721 913467 2431115 2077606 1584906 451232 462235 1507429 1188023 1121087 477497 889583 1247863 643590 846209 796194 737104 396188 301131 42893 408339 84123 443618 270101 29931 95057 451669 519054 217008
is_linear=0
shrinkage=0.05


Tree=10
num_leaves=31
num_cat=0
split_feature=28 10 4 4 12 25 34 4 4 25 25 31 35 12 25 33 32 39 43 49 48 25 32 44 4 4 32 46 26 25
split_gain=146717 45591.7 16222.9 14221.6 7284.23 7177.3 5871.33 4933.65 4605.53 4268.93 3786.75 3689.44 3442.7 2847.4 2584.42 2421 2146.46 1950.82 1885.2 1802.61 1564.81 1453.08 1572.32 1434.8 1428.45 1347.56 1265.32 1183.21 1159.84 1106.26
threshold=0.35532388663967612 37.150000000000013 4.7750000000000012 5.2750000000000012 4.9500000000000011 0.51259960323601905 -0.027561703930426649 6.3350000000000009 6.5850000000000009 0.47745836275790149 0.14344070184354976 0.011363380124163101 1.5000000000000002 56.250000000000007 0.13029729801982587 1.9560658178168246 1.0000000180025095e-35 1.7350000000000001 0.0049999999999999914 1.0000000180025095e-35 0.27649238286810401 0.27105871920963609 22.250000000000004 2.5000000000000004 3.4750000000000005 4.3750000000000009 43.850000000000001 -4.4999999999999991 2.5500000000000003 0.23841306116057184
decision_type=10 10 2 2 8 2 2 2 2 2 2 8 10 10 2 10 10 2 10 10 8 2 10 2 2 2 10 10 2 2
left_child=1 2 4 9 -1 7 10 17 11 25 -4 -8 15 -5 16 20 -6 18 23 -10 -9 22 -13 -3 -18 27 -17 -2 -21 -14
right_child=3 5 6 13 14 -7 8 12 19 -11 -12 21 29 -15 -16 26 24 -19 -20 28 -22 -23 -24 -25 -26 -27 -28 -29 -30 -31
leaf_value=-0.047276685551422497 -0.02115963338701525 0.006595964042866713 -0.037352509745853378 0.03863797887488582 -0.01703781397632426 0.027346212984684221 -0.021979425215017608 0.0062830496921384349 0.02419244460760122 0.042396076644000157 -0.0079553905018480871 -0.0010091243552651651 -0.011687188399667115 0.052580677623763283 -0.0053451501238062395 0.014157263943208043 -0.044129313150226473 -0.027076452526384322 -0.00893406353660069 0.011155219797266844 0.023904521544815916 0.012253939268879945 -0.011632699253857338 -0.0021303200438271088 -0.027464501499344499 0.013490556151159181 -0.0018300944695616975 0.012550437257734996 -0.0061460138661197164 0.0051187231460525602
leaf_weight=41039.990134963533 6426.5933449715376 74419.098188066855 30622.54907081183 62738.627072036266 47805.815470889676 30174.246478224173 56327.974121866748 16706.418084057048 10546.039309659973 11361.963785314932 17056.110765902326 50632.483042052016 20540.363569078967 87952.376175873913 17015.545395216905 21863.652268588543 14907.329238635488 7520.3721854873002 61298.752375227399 16433.311413336545 51235.241194258444 9064.4440365992486 111587.16986225359 128346.03738841414 93578.831644257996 26124.424631061032 28520.748649825342 4375.1718059200794 23595.985425152816 18713.014140147716
leaf_count=522973 15763 204831 284414 189164 197045 77283 429054 62763 29066 33852 77404 163825 104440 279331 79406 61724 137708 30338 268026 59880 128678 28295 533657 373838 691301 56418 106247 9670 123909 61885
internal_value=5.39456e-12 -0.00780525 -0.017652 0.0392089 -0.0283355 0.00377524 -0.0106247 0.00211798 -0.00784617 0.0155952 -0.0268363 -0.0108788 0.00915591 0.0467758 -0.0238501 0.0134126 -0.0258647 -0.00196559 -0.00125045 0.00580185 0.0195715 -0.00722822 -0.00831684 0.00107241 -0.0297545 0.00734869 0.00510741 -0.00750563 0.000956698 -0.00367541
internal_weight=1.19853e+06 999552 540214 198979 214348 459338 325866 429164 278187 48288.2 47678.7 227612 157579 150691 173308 118326 156292 271584 264064 50575.3 67941.7 171284 162220 202765 108486 36926.2 50384.4 10801.8 40029.3 39253.4
internal_count=5422188 4837990 3357937 584198 1628433 1480053 1729504 1402770 1367686 115703 361818 1154831 525737 468495 1105460 359412 1026054 877033 846695 212855 191441 725777 697482 578669 829009 81851 167971 25433 183789 166325
is_linear=0
shrinkage=0.05


Tree=11
num_leaves=31
num_cat=0
split_feature=10 4 10 51 31 4 25 25 4 31 4 26 25 25 25 26 43 51 4 25 4 20 32 28 25 4 4 32 43 25
split_gain=128546 28619.3 25303.9 13108.5 8238.9 6283.08 5326.45 5204.08 4146 3271.49 2960.54 2643.77 2277.8 2688.44 2539 1880.93 1831.34 1690.36 1653.45 1637.7 1612.34 1435.73 1415.09 1323.72 1185.94 1153.68 1129.52 1071.29 981.084 888.971
threshold=51.45000000000001 5.3550000000000013 68.450000000000017 0.093000000000000013 0.025951599192847404 5.2350000000000012 0.24229862849461137 0.52488790318268064 4.1550000000000011 0.0080210197205957522 6.6850000000000014 2.5500000000000003 0.20394293704085453 1.0000000180025095e-35 0.063525205863104561 3.2250000000000005 0.0049999999999999914 0.11260000000000002 2.5950000000000002 0.47745836275790149 3.0450000000000004 6.4450000000000012 38.750000000000007 0.56155385270327807 0.017679518298545503 3.2050000000000005 4.3750000000000009 23.850000000000005 -0.039999999999999994 0.44761992770059206
decision_type=10 2 8 2 8 2 2 2 2 10 2 2 2 2 2 2 10 2 2 2 2 10 10 10 2 2 2 10 10 2
left_child=1 3 7 9 11 19 8 15 18 20 17 21 13 -13 -15 24 -10 -6 -5 26 -1 -3 -12 -7 -2 -17 -4 -20 -11 -19
right_child=2 4 5 6 10 23 -8 -9 16 28 22 12 -14 14 -16 25 -18 29 27 -21 -22 -23 -24 -25 -26 -27 -28 -29 -30 -31
leaf_value=-0.060376681036245154 0.022302351306889141 -0.0069064344199017448 -0.018068773407843252 -0.052713693985712975 -0.0052326418561513457 0.041550298484255878 0.0068814757107740184 0.036873033051974459 -0.0082703496715280742 -0.011895446348871554 0.021057537422873061 -0.011034466646661179 0.0042150664586666619 -0.047988673674506259 -0.018670408248499498 -0.039166068115449468 -0.019518144055047426 0.0031485323300770455 -0.017667711060080783 0.042597079941010224 -0.038472704563788686 0.0098216978655453688 0.0063912523452058466 0.052024022369223079 0.0048105622405023654 0.0075930837230655593 0.015137343076796815 -0.029586778862154956 -0.028601097007285328 0.019084622766050007
leaf_weight=10040.31442417996 44304.063073202968 33404.087497431785 3559.2453199476004 5291.7654248555191 71897.74235332571 54687.261744828895 27271.754187613726 22950.395991859958 112659.34970981861 11031.518014046829 30327.470789716579 80222.832680985332 15749.882009592839 10671.669347148389 23974.426812517457 1338.4458254463971 53314.843653822783 125430.68481933791 36633.007341168355 3976.3748753014952 51468.462436808506 20822.38242614083 35934.686184481718 67281.397033365443 12403.005864674225 91489.912096926942 9130.3822660632432 38840.436425949913 43225.412457805593 9407.469943029806
leaf_count=152440 113415 184452 8957 45650 267533 182904 81015 67190 465976 66550 79939 460080 63333 119530 166585 4056 337200 394729 145094 12962 569560 84759 124182 225435 45515 245129 20974 299319 364923 22802
internal_value=-9.84293e-14 -0.0100895 0.027488 -0.020047 -0.00161238 0.0433932 -0.014087 0.0147042 -0.0164046 -0.0341539 0.00390675 -0.00976359 -0.0136164 -0.0160613 -0.027701 0.0113018 -0.0118834 0.000958931 -0.0256959 0.0145974 -0.0420482 -0.000483011 0.0131039 0.0473279 0.0184765 0.00691889 0.00582354 -0.0238015 -0.0252045 0.00426037
internal_weight=1.15874e+06 847620 311120 389777 457843 138635 274011 172486 246739 115766 272998 184845 130619 114869 34646.1 149535 165974 206736 80765.2 16666 61508.8 54226.5 66262.2 121969 56707.1 92828.4 12689.6 75473.4 54256.9 134838
internal_count=5422188 4495651 926537 2527727 1967924 451232 1374254 475305 1293239 1153473 889185 1078739 809528 746195 286115 408115 803176 685064 490063 42893 722000 269211 204121 408339 158930 249185 29931 444413 431473 417531
is_linear=0
shrinkage=0.05


Tree=12
num_leaves=31
num_cat=0
split_feature=28 12 4 4 25 31 4 21 4 35 25 51 20 26 12 33 4 28 20 26 48 25 4 25 32 25 30 34 32 4
split_gain=112273 37762.6 13688 10458.9 6729.28 4768.36 4615.89 4559.51 3989.25 3092.47 3048.19 2192.52 2169.63 2152.88 2092.59 1870.86 1830.42 1796.12 1790.76 1571.59 1421.81 1264.04 1256.76 1183.67 1146.44 1061.2 1374.46 1053.5 1036.88 949.65
threshold=0.37564011230775679 15.350000000000003 4.495000000000001 5.2750000000000012 0.51259960323601905 0.0069012403552561512 6.1350000000000007 7.0000000000000009 5.9350000000000014 1.5000000000000002 0.43842352312166422 0.09470000000000002 6.3850000000000007 1.9166666666666667 56.250000000000007 1.0354869633521122 2.9450000000000007 0.29154191616766473 6.7750000000000012 3.9166666666666674 0.31586100594548777 0.13186051884811059 4.4150000000000009 0.22764953774668242 23.850000000000005 0.12306432387074091 0.20249999999999999 -0.17175134664318534 43.850000000000001 2.5950000000000002
decision_type=10 10 2 2 2 8 2 2 2 10 2 2 8 2 10 10 2 10 8 2 8 2 2 2 10 2 8 2 10 2
left_child=1 2 7 10 6 12 17 29 11 13 22 -7 25 -8 -5 20 -9 19 -10 27 -15 24 -2 -11 -18 26 -4 -3 -17 -1
right_child=3 4 5 14 -6 8 9 16 18 23 -12 -13 -14 15 -16 28 21 -19 -20 -21 -22 -23 -24 -25 -26 -27 -28 -29 -30 -31
leaf_value=-0.06070305310114274 -0.0095723286171778606 -0.012600629993472542 -0.041720795977761321 0.036519139811601403 0.026795489965520166 -0.018974003001785655 0.027840051704811505 -0.045669464874434566 -0.0033655017835995159 -0.011240735423522137 0.037188058139188754 -0.0079144680227899583 -0.0064810045605747119 0.0062000810189836685 0.049369495260206758 0.009269944157291269 -0.017196371127111962 0.0066537976308755674 0.013019902152899044 -0.012296860131986257 0.022130776601721188 -0.0052507133423181579 0.013157705471385417 0.004751134633644607 -0.028522536007819295 -0.0076116338341372693 -0.023611982995206639 -0.00034732317038930929 -0.0033622432101828438 -0.040379550233256178
leaf_weight=7146.4551755681168 8865.272303333506 20266.123108135071 17345.300865283702 53403.463429984637 29282.834379781038 71881.588027553633 17809.427497548983 8967.8434567255899 66066.790841459297 23308.14178191917 10862.689877295867 119007.40451615863 15046.980290855747 23352.836320954841 77883.939756920561 35180.42671575211 37532.331254460849 43814.653626097366 22304.369173714891 49068.481058599427 34993.040678683668 10026.898795275483 19364.75832435675 22978.526852886193 55204.345279285219 5570.3058996959589 26467.330222204793 130477.71059024194 30180.50131500978 29370.204943122109
leaf_count=119955 22162 99128 211465 177847 81897 483722 49578 92093 319536 126706 33794 552979 94345 89359 279331 107276 176002 99288 78753 180768 84442 53733 44549 79181 470683 34613 230925 446879 122620 378579
internal_value=-1.18457e-11 -0.0066858 -0.0163195 0.0373825 0.00360085 -0.0108418 0.00202654 -0.0290187 -0.00801299 0.00791707 0.0146804 -0.0120791 -0.023103 0.0115865 0.0441424 0.00924653 -0.0240057 -0.00251425 0.000770079 -0.00452461 0.0157545 -0.0221152 0.00601964 -0.00330174 -0.0239386 -0.0281677 -0.0307812 -0.00199467 0.00343701 -0.0443569
internal_weight=1.12303e+06 952651 491938 170380 460713 343690 431430 148248 279260 187803 39092.7 190889 64429.9 141516 131287 123707 111731 243627 88371.2 199812 58345.9 102764 28230 46286.7 92736.7 49382.9 43812.6 150744 65360.9 36516.7
internal_count=5422188 4864505 3297383 557683 1567122 2006338 1485225 1291045 1434990 659162 100505 1036701 571348 453275 457178 403697 792511 826063 398289 726775 173801 700418 66711 205887 646685 477003 442390 546007 229896 498534
is_linear=0
shrinkage=0.05


Tree=13
num_leaves=31
num_cat=0
split_feature=10 4 10 12 31 4 25 25 4 25 25 25 20 4 51 4 25 25 44 31 25 30 33 28 25 26 4 32 51 25
split_gain=98956.7 24199.2 20915.6 8791.32 7044.04 5423.67 4771.95 4281.69 3020.01 2685 4621.18 3516.94 2736.58 2684.77 1808.53 1701.62 1697.55 1489.02 1474.92 1440.95 1380.36 1277.78 1247.55 1176.49 1162.77 1126.67 1048.33 1041.24 1029.78 990.711
threshold=51.150000000000013 5.0750000000000011 68.450000000000017 6.4500000000000011 0.027324485908474604 5.2350000000000012 0.17616781083759966 0.55286834956076281 6.535000000000001 0.22430023071561278 1.0000000180025095e-35 0.06689257437863716 6.3750000000000009 3.6350000000000002 0.15085000000000001 5.2550000000000008 0.018375108109581553 0.076619770051642958 2.5000000000000004 0.035541706634874756 0.3577767842789209 -0.17499999999999991 0.0085907872925039524 0.56433214685583477 0.37272799721347327 2.2250000000000005 4.3950000000000005 27.150000000000002 0.11260000000000002 0.27610905365014599
decision_type=10 2 8 8 8 2 2 2 2 2 2 2 8 2 2 2 2 2 2 10 2 10 10 10 2 2 2 10 2 2
left_child=1 3 7 17 9 20 13 15 18 10 12 -12 22 -5 19 24 -17 21 -6 -15 26 -1 -3 -7 -2 -10 -4 -14 -20 -18
right_child=2 4 5 6 8 23 -8 -9 25 -11 11 -13 27 14 -16 16 29 -19 28 -21 -22 -23 -24 -25 -26 -27 -28 -29 -30 -31
leaf_value=-0.034465306881696044 -0.00039660737258448864 -0.0020583414350754817 -0.021770361727438185 -0.032347367505566008 0.0052521331301097086 0.038660075087562695 0.0027520262327411496 0.035672845523045206 0.021695152509481296 0.0060857128917179296 -0.043576683454198836 -0.015507048959432971 0.014642243411037942 -0.023144478824148773 -0.0090756349697810757 0.018135725592236585 -0.010470804232054565 -0.017780440582827461 -0.0098263781670171677 -0.011484027643159882 0.033713193846900205 -0.050979142261723003 -0.014577874610029705 0.049073073976103082 0.01784812447026116 0.0077848110271109428 0.012751382301131986 -0.0019584986486547687 -0.00037665127464309379 0.01108472996473908
leaf_weight=27264.696685680188 42553.729466902092 28534.975661901757 3158.1511577796191 31286.107435264857 75538.807330712676 50162.82249537902 29139.615830668248 19022.789207644761 19560.532656333875 25393.154247529339 15516.422207049094 39738.229556346778 16236.372352976352 91947.515997116454 56745.885076689068 73480.800889482722 8974.9537188056856 7634.3709155048709 43334.097861127462 37219.324771260843 5252.8139932239428 20537.52198678907 65745.420292138122 59063.928427923471 10987.781474031508 56903.502746913582 7241.9717665016651 22584.588947722223 86135.31646041479 13127.184315108694
leaf_count=352167 104398 124470 8474 236489 257494 185640 103256 60885 55013 101403 192341 281389 59898 677697 229156 212239 47758 68123 180019 185834 16661 323046 449259 222699 25689 188625 17758 124993 288600 40715
internal_value=4.09652e-12 -0.00913482 0.0248456 -0.0202958 -0.00233364 0.0403463 -0.0162473 0.0133335 0.00286292 -0.00917664 -0.0112342 -0.0233895 -0.0061882 -0.0187963 -0.0165159 0.0104838 0.0144813 -0.0382854 -0.000300087 -0.0197845 0.0128206 -0.0415602 -0.0107887 0.0442909 0.00334757 0.0113433 0.00226834 0.00498455 -0.00353952 0.00233173
internal_weight=1.09002e+06 796996 293027 301775 495221 124880 246338 168147 281472 213749 188356 55254.7 133101 217199 185913 149124 95582.9 55436.6 205008 129167 15652.9 47802.2 94280.4 109227 53541.5 76464 10400.1 38821 129469 22102.1
internal_count=5422188 4479272 942916 2175768 2303504 451232 1432432 491684 969751 1333753 1232350 473730 758620 1329176 1092687 430799 300712 743336 726113 863531 42893 675213 573729 408339 130087 243638 26232 184891 468619 88473
is_linear=0
shrinkage=0.05


Tree=14
num_leaves=31
num_cat=0
split_feature=28 10 4 4 12 25 34 26 26 25 25 25 12 12 4 35 26 25 4 34 32 44 4 20 25 43 4 31 3 25
split_gain=86805.8 30877.1 13166.6 8812.96 5363.8 4434.06 3956.88 3297.96 3181.96 2736.28 2493.31 2455.52 1994.61 1837.59 1759.51 1846.36 1644.86 1579.73 1506.18 1310.57 1124.83 1032.44 1017.39 1001.68 943.902 904.314 895.039 865.178 774.908 756.538
threshold=0.37564011230775679 39.850000000000001 4.8750000000000009 5.2750000000000012 4.2500000000000009 0.51259960323601905 -0.027561703930426649 2.5500000000000003 2.5500000000000003 0.10556307084467881 0.43842352312166422 0.11883537168872642 8.2500000000000018 57.45000000000001 3.4750000000000005 1.5000000000000002 3.6333333333333337 0.013908576132634302 6.8950000000000005 -1.0000000180025095e-35 32.050000000000004 3.5000000000000004 4.4150000000000009 6.6850000000000014 0.18301714781103473 -0.024999999999999991 2.9450000000000007 0.037178436651230155 2.5000000000000004 0.68041330613234052
decision_type=10 10 2 2 8 2 2 2 2 2 2 2 8 10 2 10 2 2 2 2 10 2 2 10 2 10 2 10 2 2
left_child=1 2 4 10 -1 8 9 18 17 -4 22 14 25 29 -6 27 19 23 -8 -10 -14 -21 -2 -3 -22 -9 -18 28 -16 -5
right_child=3 5 6 13 11 -7 7 12 16 -11 -12 -13 20 -15 15 -17 26 -19 -20 21 24 -23 -24 -25 -26 -27 -28 -29 -30 -31
leaf_value=-0.043147536663000169 -0.0089101234635589315 0.012364978919065031 -0.03407029963411861 0.031098017321979456 -0.035522916602571272 0.025104794705346146 0.00079205456471199683 -0.0047184299915979345 -0.0062035269101320296 -0.0095971781778157704 0.034686492606852262 -0.0046959361885919289 -0.00090539179535700375 0.046805316999061597 -0.014240099217033779 -0.032112771464732688 -0.045994625693552532 0.00060355434348703478 0.019104891622633909 0.0092845149340623524 -0.01111709965254431 0.0011173336985755391 0.011946868381652728 0.02656131905544994 0.0055274572005316594 -0.02059756648359189 -0.0042380392190942704 -0.0081664506992403709 -0.023458905914384386 0.045453863068132573
leaf_weight=29119.794087106129 8535.3927758857608 39300.111614313908 21060.559717450291 41382.432940755039 21551.447689505992 26135.191139692441 53074.13140796544 11760.030208109878 28274.139349372126 24954.888446139172 9909.7829325571656 22802.917895064689 75623.973755061626 65210.663640002254 40174.50920804264 26299.826588426717 1304.8678953275084 20217.684504130855 14240.738120815251 83472.366072242614 76483.63809157256 72135.586599031463 18562.404810419306 18170.626435818151 9585.1625242535956 37740.228981220163 77680.907227443531 20698.21133606974 52693.314480154309 11792.437425880693
leaf_count=479162 22162 121705 242621 150200 198790 78312 256530 70591 128275 135731 33794 118887 279267 261845 195914 266118 5705 90372 48090 269284 414401 243896 44549 55771 37081 327239 271266 98449 431048 45133
internal_value=2.3228e-12 -0.00593063 -0.0135582 0.0345226 -0.0232066 0.00525747 -0.00721532 -0.00497115 0.00373434 -0.0207981 0.0132256 -0.0200546 -0.00804293 0.0411801 -0.0222242 -0.0201751 0.0011069 0.0126246 0.00466621 0.00369911 -0.00535438 0.00549843 0.00537723 0.0168535 -0.00926346 -0.0168251 -0.00492787 -0.0174106 -0.0194709 0.0342817
internal_weight=1.05995e+06 904555 537863 155393 213340 366691 324523 278508 340556 46015.4 37007.6 184220 211193 118386 161417 139866 262868 77688.4 67314.9 183882 161693 155608 27097.8 57470.7 86068.8 49500.3 78985.8 113566 92867.8 53174.9
internal_count=5422188 4864505 3599919 557683 1788368 1264586 1811551 1433199 1186274 378352 100505 1309206 1128579 457178 1190319 991529 918426 267848 304620 641455 730749 513180 66711 177476 451482 397830 276971 725411 626962 195333
is_linear=0
shrinkage=0.05


Tree=15
num_leaves=31
num_cat=0
split_feature=10 10 4 51 31 4 25 25 4 4 20 4 25 25 25 25 25 35 4 4 43 32 26 25 4 25 25 44 25 4
split_gain=76837.3 19465.1 19282.9 6924.33 4839.21 4669.53 3885.63 3268.76 2720.39 2641.8 2069.39 1820.03 1631.76 1543.52 1749.13 1750.97 1414.55 1507.5 1347.77 1318.04 1308.01 1235.46 1145.46 1140.93 1078.81 1036.82 1035.02 1020.48 879.366 878.793
threshold=49.250000000000007 68.450000000000017 5.1150000000000011 0.069050000000000014 0.019300449489046401 5.2350000000000012 0.51259960323601905 0.20394293704085453 3.9450000000000007 6.3850000000000007 6.6350000000000007 4.9350000000000014 0.018375108109581553 0.19539962785775764 1.0000000180025095e-35 0.055122623029688407 0.31519812248858869 2.5000000000000004 3.0450000000000004 2.5950000000000002 1.0000000180025095e-35 35.850000000000001 2.5500000000000003 0.3577767842789209 6.2150000000000007 0.20095733608002639 0.32103155974218839 2.5000000000000004 0.65891278072806636 3.2050000000000005
decision_type=10 10 2 2 8 2 2 2 2 2 10 2 2 2 2 2 2 10 2 2 10 10 2 2 2 2 2 2 2 2
left_child=2 6 3 18 10 23 11 8 19 16 13 26 22 14 -4 -16 17 27 -1 -5 -10 -11 -13 -3 28 -14 29 -6 -7 -2
right_child=1 5 4 7 9 24 -8 -9 20 21 -12 12 25 -15 15 -17 -18 -19 -20 -21 -22 -23 -24 -25 -26 -27 -28 -29 -30 -31
leaf_value=-0.053522021839969305 -0.043368571054572175 0.0016540075539567833 -0.010918444275243279 -0.049577977225403844 0.0036206477228784028 0.028653828781118391 0.030443432900574493 0.0026714439095953482 -0.010331020748876527 0.014329094456075926 0.002467690908251339 0.023912897103956887 -0.013636631945230713 0.0031915500457706894 -0.045372653543548198 -0.018056908053419182 0.010387977847000582 -0.01432749687744587 -0.031407368740818314 -0.023964988764901812 -0.020339506721299881 0.0030790891473813451 0.011582288378782328 0.031239012121544948 0.045308538897606339 0.0072302524381869463 0.012869308985053389 -0.0046493736348588261 0.045267192739923343 -0.0031504711388744156
leaf_weight=8004.659065884538 1423.6971125965938 9989.4529141681269 66355.016417063307 5585.8994847577997 59311.719005203806 23063.524474366568 23405.29737449903 23316.942075776868 100809.69820403587 42247.746341397054 25936.949366719928 25474.366190226749 8272.246064811945 12607.621622432722 8089.0056076385081 21353.892158412375 20556.843649213202 27131.287672441918 49460.089301557746 49829.374320281669 48278.62903057225 57781.375987284351 72258.97688049823 4836.6103514488786 63264.903299001046 21231.841952889226 10976.277059521526 100519.61748733791 12167.198713995516 29551.998627701774
leaf_count=152904 5178 26232 458503 67918 219643 99009 79479 84253 510982 128345 145876 75907 49432 59224 122138 186245 60112 162410 632690 367369 387355 230669 214672 16661 257490 72945 25313 393897 51840 77497
internal_value=7.14519e-12 0.0210235 -0.00884439 -0.0189778 -0.00230228 0.0374658 0.0113489 -0.0150655 -0.0170879 0.00115592 -0.0102191 0.00870744 0.0116852 -0.0132545 -0.0154189 -0.0255615 -0.00206143 -0.00343026 -0.0344879 -0.0265468 -0.013572 0.00783058 0.0147963 0.0113053 0.0414036 0.00137967 -0.000323926 -0.00158046 0.0343914 -0.00499897
internal_weight=1.03309e+06 305916 727176 285285 441891 113322 192595 227821 204504 307549 134342 169189 127237 108406 95797.9 29442.9 207519 186963 57464.7 55415.3 149088 100029 97733.3 14826.1 98495.6 29504.1 41952 159831 35230.7 30975.7
internal_count=5422188 1051655 4370533 2203471 2167062 451232 600423 1417877 1333624 1195076 971986 520944 412956 826110 766886 308383 836062 775950 785594 435287 898337 359014 290579 42893 408339 122377 107988 613540 150849 82675
is_linear=0
shrinkage=0.05


Tree=16
num_leaves=31
num_cat=0
split_feature=10 28 4 4 51 12 25 25 26 4 4 4 32 25 25 34 34 12 35 25 30 12 4 44 44 25 4 35 4 30
split_gain=68376.5 21551.8 15209.9 5657.61 5311.09 3766.48 3159.84 2453.29 2249.86 2174.17 2120.56 1955.9 1870.1 1727.75 1504.42 1406.76 1317.62 1128.85 1086.4 1462.23 1072.68 1049.35 978.042 947.179 906.812 856.606 866.716 795.147 731.379 721.795
threshold=46.050000000000004 0.41680418041804185 4.9750000000000005 5.3950000000000005 0.069050000000000014 10.15 0.55286834956076281 0.14693121848112814 2.5500000000000003 6.7350000000000012 3.3350000000000004 5.6650000000000009 44.550000000000004 0.47745836275790149 0.33287755350180886 -0.038679582646466343 -0.027561703930426649 1.7500000000000002 1.5000000000000002 0.073878499862929201 -0.11249999999999993 60.95000000000001 4.3750000000000009 2.5000000000000004 2.5000000000000004 0.37272799721347327 3.6950000000000007 1.5000000000000002 7.0750000000000011 0.087499999999999967
decision_type=10 10 2 2 2 8 2 2 2 2 2 2 10 2 2 2 2 8 10 2 10 10 2 2 2 2 2 10 2 8
left_child=2 6 4 13 17 9 11 10 28 18 -6 25 -13 22 15 -10 -12 -1 -4 -20 -11 -5 29 -17 -18 26 -2 -14 -7 -3
right_child=1 3 5 21 7 8 -8 -9 14 20 16 12 27 -15 -16 23 24 -19 19 -21 -22 -23 -24 -25 -26 -27 -28 -29 -30 -31
leaf_value=-0.050608699528330831 -0.023411233242347076 0.014655218315192467 -0.012002102297996907 0.035053500385291911 -0.035643508982243589 0.0044666701302696786 0.028474845254450928 -0.0013830069756713354 -0.015373615852190093 0.0098413001629889738 -0.02880760903629595 0.018346994230614821 0.0093190983321130242 0.03622848219619277 0.010243150023484165 0.0015897043540618995 -0.009204989914306249 -0.030819305601618975 -0.038878418891470312 -0.01400545608438987 -0.018564792970477965 0.045526967909506888 0.013805212879285669 -0.0058507117206269416 -0.017777465711177703 0.012726265264340349 0.00026377682514187005 -0.0014274873660976206 0.018875289937227042 -0.023970156990719291
leaf_weight=8765.9071680465713 4096.2596987681463 1830.7657682038844 58125.412821776699 49241.366800250486 15660.700197493657 65503.290400223341 18452.777648116462 25173.94678257918 27020.569912340026 14265.331287557259 18481.604354718234 50207.356862934306 57313.142774789128 6961.733155627735 18253.022506017238 66982.400334910955 49484.095751887653 40503.103889574995 10306.380804360611 13848.333956267685 4332.8965225014836 46498.932052084245 15744.451889778487 118350.13664046209 81918.921052410733 13311.665046909824 68704.233378919773 24600.845142278355 10175.319328851067 3564.2531076222658
leaf_count=188725 14337 4510 427984 206622 161984 268337 62909 115266 188374 69192 191642 147250 213104 28281 55243 277842 294212 537344 156475 105272 38664 205682 42706 519252 506620 32781 198541 118131 34710 10196
internal_value=-3.67896e-12 0.01745 -0.0097214 0.0343504 -0.0197057 -0.00383647 0.00860724 -0.0159252 -0.00107659 -0.012216 -0.0181366 0.00692733 0.0107488 0.0146244 -0.0035315 -0.00471551 -0.0163074 -0.0343402 -0.0157058 -0.0246183 0.00322343 0.0401402 0.00750965 -0.00316162 -0.0145492 0.0010641 -0.00106834 0.00609163 0.00640397 -0.0108629
internal_weight=1.00768e+06 360528 647151 123842 239988 407163 236686 190719 306285 100878 165545 218234 132121 28101.2 230606 212353 149885 49269 82280.1 24154.7 18598.2 95740.3 21139.5 185333 131403 86112.2 72800.5 81914 75678.6 5395.02
internal_count=5422188 1285050 4137138 497997 1995793 2141345 787053 1269724 1343758 797587 1154458 724144 478485 85693 1040711 985468 992474 726069 689731 261747 107856 412304 57412 797094 800832 245659 212878 331235 303047 14706
is_linear=0
shrinkage=0.05


Tree=17
num_leaves=31
num_cat=0
split_feature=12 10 4 12 20 4 25 51 25 34 26 26 4 51 25 25 35 25 31 4 25 28 33 4 25 4 4 44 26 25
split_gain=60759.6 17173.3 16977.6 4572.74 4104.55 4093.83 3524.43 3079.51 2279.99 2230.63 2068.44 1983.15 1891.7 1735.3 1434.27 1370.82 1328.02 1126.34 1098.08 934.672 922.753 907.79 875.932 823.632 805.205 750.881 708.484 702.711 684.21 674.832
threshold=23.150000000000002 68.450000000000017 4.9750000000000005 4.2500000000000009 5.8250000000000011 5.3950000000000005 0.51259960323601905 0.069050000000000014 0.13029729801982587 -0.027561703930426649 3.291666666666667 1.9166666666666667 3.9150000000000005 0.10040000000000002 0.27981329795467397 0.14511772057875277 1.5000000000000002 0.42887139598048479 0.0066041529756998008 4.5750000000000011 0.015464684824590702 0.56788764926348834 0.15516954022988502 2.4550000000000005 0.31519812248858869 4.3950000000000005 2.3050000000000002 3.5000000000000004 1.9166666666666667 0.065212930818234108
decision_type=10 10 2 8 8 2 2 2 2 2 2 2 2 2 2 2 10 2 10 2 2 10 10 2 2 2 2 2 2 2
left_child=2 6 3 26 7 17 10 -4 12 15 20 -11 23 18 22 -6 27 25 -13 24 28 -7 -9 -5 -12 -3 -1 -14 -2 -18
right_child=1 5 4 8 9 21 -8 14 -10 11 19 13 16 -15 -16 -17 29 -19 -20 -21 -22 -23 -24 -25 -26 -27 -28 -29 -30 -31
leaf_value=-0.05690259428118527 0.028872279381702493 -0.016926082514138987 -0.019618953189781799 -0.050047438954553096 -0.022386084848400985 0.033828276191129387 0.028361600061099647 -0.0019010876526993855 -0.0029338018667112702 0.016914195906409017 -0.0092769643411580293 -0.011841395783947037 -0.009502475087456037 0.0068580839620653814 0.0075041903240620897 -0.0015510035823326361 -0.033931498515893284 0.032350507796953504 0.0004230789859142127 0.0061000614073342084 0.0038512612983597656 0.044095069482600856 -0.0099080108367423231 -0.025449430740800819 0.0097033524893463743 0.011581362717310672 -0.035322168729937674 -0.017759607776363394 0.01467434693269888 -0.017358826229658404
leaf_weight=4604.843433319591 10406.15965766646 3095.3431643564254 44180.878913560882 3675.7626176660415 13798.124809252098 40800.906829710118 23112.072095608339 58967.859277775511 25299.036788733676 24877.927100311499 21315.428930664901 25352.203996274155 56115.213679811452 87652.991722436156 20892.150706092827 18451.69427441014 13163.739063594956 5088.9528539711609 65153.68135135551 85584.646415410563 16499.718672161922 45586.499146168586 81180.57002576068 45875.347307248041 7573.0345222968608 9103.1731143575162 21846.796735795913 47643.186964221299 45975.627742818557 11516.501323472708
leaf_count=107609 30671 8911 414876 46718 138915 181704 83461 244422 128894 90135 64850 168624 345849 320711 70609 83643 155910 21053 316735 276038 69745 212880 451959 392741 18083 26676 391129 307332 140397 110908
internal_value=-2.89378e-12 0.0181447 -0.0085043 -0.0195235 -0.00275743 0.0348014 0.00993965 -0.00792532 -0.0169789 0.00175011 0.00766712 0.00369037 -0.0189753 0.00184381 -0.00471721 -0.0104653 -0.0157736 0.0125909 -0.0030124 0.00347517 0.0142513 0.039246 -0.00653907 -0.0272741 -0.00430132 0.00434767 -0.039079 -0.0132939 0.0172948 -0.0261982
internal_weight=984390 314142 670249 229740 440508 103675 210467 205221 203289 235287 187355 203037 177990 178159 161041 32249.8 128439 17287.5 90505.9 114473 72881.5 86387.4 140148 49551.1 28888.5 12198.5 26451.6 103758 56381.8 24680.2
internal_count=5422188 1134469 4287719 1987090 2300629 451224 683245 1181866 1488352 1118763 599784 896205 1359458 806070 766990 222558 919999 56640 485359 358971 240813 394584 696381 439459 82933 35587 498738 653181 171068 266818
is_linear=0
shrinkage=0.05


Tree=18
num_leaves=31
num_cat=0
split_feature=10 28 4 12 4 12 25 34 20 26 25 25 51 43 25 4 34 31 26 12 4 25 26 4 25 32 44 25 4 51
split_gain=53849.3 17581 13133 6032.59 4851.35 2775.71 2600.45 2456.53 2242.81 1812.43 1747.15 1570.51 1490.17 1422.36 1402.25 1288.85 1081.42 998.096 989.596 957.909 882.093 875.59 858.26 822.347 817.73 763.949 690.805 653.051 633.186 631.889
threshold=46.050000000000004 0.41680418041804185 5.495000000000001 8.8500000000000032 5.3950000000000005 3.1500000000000008 0.56812241943081487 -0.027561703930426649 6.4450000000000012 2.916666666666667 0.25872449927894758 0.17161966929639391 0.16065000000000004 -0.019999999999999973 0.4192722984184355 4.0750000000000011 -0.37067286653292914 0.0071984317761419015 2.183333333333334 60.95000000000001 5.5550000000000006 0.37272799721347327 4.4500000000000011 4.4150000000000009 0.013908576132634302 44.550000000000004 2.5000000000000004 0.30431974272251511 3.2050000000000005 0.10040000000000002
decision_type=10 8 2 10 2 8 2 2 8 2 2 2 2 10 2 2 2 10 2 10 2 2 2 2 2 10 2 2 2 2
left_child=2 6 3 5 14 -1 9 11 13 24 16 -4 15 -9 23 -7 -5 -15 -10 -6 21 28 26 -3 -2 -22 -18 -19 -11 -20
right_child=1 4 7 10 19 12 -8 8 18 20 -12 -13 -14 17 -16 -17 22 27 29 -21 25 -23 -24 -25 -26 -27 -28 -29 -30 -31
leaf_value=-0.039749812456949696 0.016949636134519046 -0.011059705290586735 -0.021940565995541551 -0.022349943707099824 0.032625744560035093 -0.030604372064389873 0.027423421525273634 0.0031615857182114488 0.01732260845498693 -0.036900612717582847 0.0058878703692953373 -0.0023203667617717788 -0.0081647400817352039 -0.018260956487266951 0.030885028932376941 -0.018874225648961719 -0.0030108493676000718 -0.0054200258284314044 0.0004783179557231274 0.043107569854159616 0.012813745623267044 0.011879936610849674 -0.018056979565335148 0.01233348389587087 0.0040276694844391765 0.0029764512824174052 -0.010836688302813625 0.0097249668006967813 -0.0025626981976969825 0.011387512980102196
leaf_weight=21344.6605793403 46520.001172384247 5193.8065395299345 21067.927453373792 18696.362259799847 45372.411538981833 34647.667060371023 15884.848012072966 69603.332105887588 20349.960884162225 1376.7237050998956 16825.834344546776 19770.835942501668 21199.173517850693 14457.619593858719 7977.3266185941175 72245.797154520405 46043.059600536246 82010.641181832179 36165.221264962573 41948.596718679648 32851.409803954884 11256.634477302432 24643.390837691724 13578.099272733554 16616.19179614773 49432.944867511746 72761.988153311191 7794.3431776354555 54051.223460660316 20970.759510971606
leaf_count=435663 150337 14798 223269 171127 206622 389083 58213 283666 70190 5950 54697 88473 95252 139804 32414 647335 254131 428298 186270 205682 98773 29143 144785 38481 76778 208174 426213 25962 159685 72920
internal_value=1.40097e-14 0.0159286 -0.0087795 -0.0156403 0.0319541 -0.0230564 0.00791058 -0.00106832 0.000779642 0.00644923 -0.00944796 -0.012442 -0.0202747 -0.0023734 0.0133239 -0.0226763 -0.0110394 -0.00606843 0.00785456 0.0376612 0.00344027 -0.000833638 -0.0095652 0.00586106 0.0135488 0.00690392 -0.00780377 -0.00410556 -0.00341559 0.00448235
internal_weight=962659 342060 620599 328408 114070 149437 227990 292191 251352 212105 178971 40838.8 128093 173866 26749.2 106893 162145 104263 77485.9 87321 148969 66684.6 143448 18771.9 63136.2 82284.4 118805 89805 55427.9 57136
internal_count=5422188 1285050 4137138 2618286 497997 1567333 787053 1518852 1207110 728840 1050953 311742 1131670 877730 85693 1036418 996256 594064 329380 412304 501725 194778 825129 53279 227115 306947 680344 454260 165635 259190
is_linear=0
shrinkage=0.05


Tree=19
num_leaves=31
num_cat=0
split_feature=12 4 12 4 51 4 4 25 51 4 35 25 26 25 25 26 26 25 25 34 4 25 31 20 20 12 25 44 32 25
split_gain=47985.3 14726.1 14124.6 4582.59 3530.75 3506.09 3251.95 2886.95 2092.69 2060.71 1738.01 2009.79 1556.98 1480.22 1320.39 1023.85 920.318 907.775 899.811 895.412 854.131 853.102 815.795 791.805 778.912 760.135 687.099 604.048 596.566 584.564
threshold=23.150000000000002 4.7350000000000012 49.750000000000007 5.9850000000000012 0.093000000000000013 5.1950000000000012 2.8350000000000004 0.51259960323601905 0.053800000000000008 5.4150000000000009 1.5000000000000002 0.17839253422532297 1.9166666666666667 0.018375108109581553 0.13029729801982587 3.5500000000000003 1.9166666666666667 0.18071223720489937 0.27105871920963609 -0.038679582646466343 6.2150000000000007 0.34513373901306016 0.037178436651230155 6.8550000000000013 4.3150000000000004 5.1500000000000012 0.65891278072806636 2.5000000000000004 21.650000000000002 0.36520041114022206
decision_type=10 2 10 2 2 2 2 2 2 2 10 2 2 2 2 2 2 2 2 2 2 2 8 8 10 10 2 2 10 2
left_child=1 6 7 4 25 21 -1 9 -8 29 12 -12 -5 16 19 23 -11 -15 22 -10 26 -4 -6 27 28 -3 -7 -14 -21 -2
right_child=2 3 5 10 18 20 8 -9 14 13 11 -13 15 17 -16 -17 -18 -19 -20 24 -22 -23 -24 -25 -26 -27 -28 -29 -30 -31
leaf_value=-0.044860500421886718 -0.00095827806772541546 -0.023116227994365097 -0.00032186928460355976 0.017837378609989098 -0.0084436932409748672 0.024100936853120484 -0.032214609253648524 0.026303016145135333 -0.029192240988918434 0.029810791525158749 -0.01644534823103971 0.0028820105399975492 0.0083075117844450021 -0.014927811583929841 -0.0033835136708771567 -0.0063348624350381454 0.013025425791045703 0.0067940007127715906 0.0068425656050769453 -0.015262547962975352 0.040925222671574127 0.028107649239498045 -0.0011319383227732509 0.013634977388600384 -0.011536968198230009 -0.012786836400610461 0.040802683614087162 -6.205832465750793e-05 -0.025224751896125809 0.010724013852223858
leaf_weight=12141.926190813771 62875.262996568345 26703.36811178457 8572.0005819238722 20705.134544440545 76177.445294769481 17666.80890519172 22569.203667466529 22597.243767373264 14886.414283164777 9136.3605188224465 23220.026908402797 31970.101373607758 34402.67925923178 6660.5105212745257 18536.512453408446 23656.371057400014 76897.757317057811 17309.84022934502 18685.263621929102 31850.237086181995 50453.491948924027 3812.3553309999406 76416.961140459869 21924.860314305406 50311.993163262494 53482.893849148415 9452.802776247263 57739.029257486109 28451.461958461907 12906.222677541897
leaf_count=225079 182194 304080 24135 73152 473207 87475 379798 89005 188487 29046 220546 135407 151320 44349 101138 118069 262352 70524 63396 155688 249709 14547 289799 88325 353960 410250 49681 269203 286815 31452
internal_value=-3.47214e-12 -0.0076812 0.0165763 -0.00299326 -0.00756771 0.0331346 -0.0198788 0.00942828 -0.0180581 0.00737579 0.00239167 -0.00524955 0.00505357 0.0117465 -0.0158399 0.00313167 0.0148079 0.000758279 -0.00351392 -0.0176798 0.0370787 0.00842977 -0.00478208 0.00509494 -0.0161304 -0.0162267 0.0299225 0.00306286 -0.0199629 0.00103131
internal_weight=942173 643832 298341 465084 251466 89957.5 178748 208383 166606 185786 213618 55190.1 158428 110004 144037 137723 86034.1 23970.4 171280 125500 77573.1 12384.4 152594 114067 110614 80186.3 27119.6 92141.7 60301.7 75781.5
internal_count=5422188 4287719 1134469 2596754 1540732 425547 1690965 708922 1465886 619917 1056022 355953 700069 406271 1086088 626917 291398 114873 826402 984950 386865 38682 763006 508848 796463 714330 137156 420523 442503 213646
is_linear=0
shrinkage=0.05


Tree=20
num_leaves=31
num_cat=0
split_feature=10 28 4 4 4 51 12 25 26 25 20 25 4 4 25 44 35 31 1 44 35 25 20 4 12 48 39 20 51 1
split_gain=42910.4 17076.1 9702.6 4247.34 3227.84 2866.13 2649.23 2639.92 1934.4 1595.9 1583.27 1457.93 1363.95 1015.61 1006.7 935.912 927.415 925.967 883.796 862.181 821.601 890.174 781.315 770.524 731.418 685.72 624.257 606.942 599.182 592.559
threshold=42.45000000000001 0.41680418041804185 4.5750000000000011 5.6550000000000011 6.0250000000000012 0.069050000000000014 3.1500000000000008 0.56812241943081487 3.6333333333333337 0.09946068712638477 6.8550000000000013 0.47745836275790149 6.9350000000000014 2.8350000000000004 0.27105871920963609 3.5000000000000004 2.5000000000000004 0.0070439339201047004 7.1750000000000007 3.5000000000000004 1.5000000000000002 0.05076381616188861 4.2350000000000012 4.0150000000000006 62.050000000000004 0.058651558967422933 1.7350000000000001 5.5250000000000012 0.17875000000000002 7.245000000000001
decision_type=10 8 2 2 2 2 8 2 2 2 8 2 2 2 2 2 10 10 8 2 10 2 10 2 10 8 2 10 2 8
left_child=2 7 6 11 5 20 -1 8 12 13 17 23 15 -8 19 -2 22 -6 -14 -7 27 -22 28 29 -5 -12 -10 -4 -15 -3
right_child=1 3 4 24 10 14 9 -9 26 -11 25 -13 18 16 -16 -17 -18 -19 -20 -21 21 -23 -24 -25 -26 -27 -28 -29 -30 -31
leaf_value=-0.041680911796072119 0.0087665295939081799 0.015863755860371982 -0.019313119419290422 0.031651938868635071 -0.01223030844702068 -0.0033579683055440335 -0.040470399507032323 0.025187074298407205 -0.0016895672498628584 -0.0048685919682750637 0.036219788775386945 0.031724593510472771 0.0040263275364450131 -0.02483696815668468 0.0065004219264049512 0.0013141071472003892 -0.03130535106138263 0.00019859577178128328 0.020386124318863809 -0.010569703721289229 -0.041615630916795224 -0.01721798694967969 -0.012286290272016533 0.011579183309809197 0.041710714746458884 0.0089431840063237244 -0.030183025853028057 -0.0071887197296574487 -0.0129281885489805 -0.032707777125766661
leaf_weight=13247.346721180249 91820.96079314407 948.39057442545891 27613.573735490907 38446.120276627131 17914.452646780759 89253.594861147925 6019.6797848585993 17145.872506460175 63229.963348081801 19122.191955749411 2525.0298763653263 9205.6200949354097 11654.13420584891 38203.725815341342 15796.62390660122 77845.712871856987 14113.067382511683 91654.436752001755 28306.986952252686 77369.020548139699 6850.4647520554718 8230.5826979370322 40090.938128831796 21249.472961536609 34103.38663977338 26337.326309594791 1982.5353479329497 16483.772682516836 14598.631567913108 1858.2887683110312
leaf_count=322091 324910 2597 268605 191707 165833 489764 88372 65564 230059 122996 5757 45368 59735 356957 56622 291810 195549 453725 103019 453331 130173 91398 319811 69737 182432 122812 9571 132416 63275 6192
internal_value=-2.40513e-13 0.0123886 -0.00937938 0.0295973 -0.0051767 -0.0086648 -0.0203642 0.00615244 0.00496496 -0.0182273 0.000910911 0.0148026 0.00730457 -0.0204873 -0.00556297 0.00534724 -0.0193632 -0.00183352 0.015615 -0.00670664 -0.0182263 -0.0283005 -0.0175488 0.00832702 0.0363803 0.0113295 -0.0025558 -0.014781 -0.0215445 -0.0162952
internal_weight=923222 397797 525424 105811 380029 241598 145396 291986 274840 132148 138431 33261.8 209628 113026 182419 169667 107006 109569 39961.1 166623 59178.4 15081 92893.3 24056.2 72549.5 28862.4 65212.5 44097.3 52802.4 2806.68
internal_count=5422188 1582701 3839487 498033 2370436 1622309 1469051 1084668 1019104 1146960 748127 123894 779474 1023964 999717 616720 935592 619558 162754 943095 622592 221571 740043 78526 374139 128569 239630 401021 420232 8789
is_linear=0
shrinkage=0.05


Tree=21
num_leaves=31
num_cat=0
split_feature=12 28 4 4 4 4 51 25 4 25 35 25 4 35 25 35 26 20 26 44 43 12 4 51 51 25 34 26 25 46
split_gain=38493.9 13985 10784.7 3971.75 3099.25 2533.26 2431.01 2236.6 2079.74 1604.84 1458.85 1566.75 1404.58 1335.55 1332.48 1331.46 922.504 891.357 813.907 723.097 715.818 700.268 690.385 687.024 653.453 633.743 622.823 546.13 603.826 512.858
threshold=20.550000000000004 0.41680418041804185 4.6550000000000011 5.6650000000000009 5.8550000000000013 2.5950000000000002 0.093000000000000013 0.51259960323601905 5.6650000000000009 0.09946068712638477 1.5000000000000002 0.16935374220356539 7.1950000000000012 1.5000000000000002 0.47745836275790149 1.5000000000000002 1.7750000000000001 4.3350000000000009 2.5500000000000003 2.5000000000000004 -0.030000000000000002 62.050000000000004 4.5750000000000011 0.11605000000000001 0.10040000000000002 0.053618110704226403 -0.19316685232155892 3.4500000000000006 0.31519812248858869 -4.4999999999999991
decision_type=10 10 2 2 2 2 2 2 2 2 10 2 2 10 2 10 2 10 2 2 10 10 2 2 2 2 2 2 2 10
left_child=2 7 5 14 6 -1 26 8 27 15 12 -12 18 16 22 17 -10 23 -6 -8 -18 -5 29 -7 -20 -17 -4 -2 -29 -3
right_child=1 3 4 21 10 9 19 -9 13 -11 11 -13 -14 -15 -16 25 20 -19 24 -21 -22 -23 -24 -25 -26 -27 -28 28 -30 -31
leaf_value=-0.046453892124712806 0.0052311424505885407 -0.016493256128248934 -0.027524027664630874 0.030597587185062575 0.0073684009349020948 -0.028620185630111834 0.00019270423059198494 0.022341355087253226 0.026278955590784761 -0.0047869441184256734 -0.017249502370900786 0.0010135824766064785 0.016734618923787286 1.4860641934800375e-05 0.030622413421801883 -0.038237120996583739 0.019014512004749698 -0.012131427348143096 -0.0053132973964717658 -0.0071325515055469515 0.0081186185031481197 0.040676059206842405 0.01332860377998462 -0.017509227047144176 0.0034314468985430164 -0.020953424681349073 -0.013848741141822607 -0.0054493346198880872 0.0066433147850222798 0.012048140192385119
leaf_weight=8296.163736829767 28297.489858618006 4133.2785731852055 9668.9481257754378 36716.865386944264 39343.743159071077 22211.535623054486 54242.878770179115 20614.648464366794 9977.8194482270628 19710.653736897977 20622.362095462624 27274.891309906496 16978.01233927533 31092.256834939122 8975.4867144403979 13183.410581713542 18830.162544405088 41792.181194717297 46693.706584259868 88908.932652749587 75557.845524985809 32482.810553389601 17145.258964217268 37236.200744070578 39379.398130379617 8873.5613768012263 59940.639395516599 52696.989823034965 12837.969901418313 2541.862728824839
leaf_count=184804 88766 12794 144584 190243 167213 285692 267327 80120 33330 137188 221940 123643 75597 157464 46158 234843 56379 360153 283991 478014 287167 182136 59890 240338 152302 119884 535804 175165 32447 6812
internal_value=-6.185e-13 0.0129338 -0.00821023 0.028536 -0.00393733 -0.0195927 -0.00808382 0.00656589 0.00514758 -0.0180344 0.000698777 -0.00684966 0.00323784 0.00911087 0.0142038 -0.0201522 0.0118207 -0.0177269 0.00141075 -0.00435688 0.0102923 0.0353285 0.00801732 -0.0216606 -0.00131248 -0.0312839 -0.0157483 -0.000573881 -0.00308045 -0.00562483
internal_weight=906258 351901 554357 101996 403054 151304 212761 249905 229291 143008 190292 47897.3 142395 135458 32795.9 123297 104366 101240 125417 143152 94388 69199.7 23820.4 59447.7 86073.1 22057 69609.6 93832.4 65535 6675.14
internal_count=5422188 1408871 4013317 498033 2450415 1562902 1425729 910838 830718 1378098 1024686 345583 679103 534340 125654 1240910 376876 886183 603506 745341 343546 372379 79496 526030 436293 354727 680388 296378 207612 19606
is_linear=0
shrinkage=0.05


Tree=22
num_leaves=31
num_cat=0
split_feature=10 28 4 12 4 25 4 51 4 4 43 32 25 44 30 25 20 20 25 4 25 26 25 20 4 32 14 26 25 25
split_gain=34625.2 11637 9929.22 3706.59 2946.26 2396.01 2105.47 2157.9 1969.17 1572.87 1223.87 1146.79 1118.04 948.342 868.811 971.979 858.236 834.258 776.712 774.302 753.912 656.291 639.72 646.499 594.562 576.16 552.921 529.309 510.808 542.02
threshold=45.850000000000001 0.46321273908336341 5.2350000000000012 8.7500000000000018 5.3950000000000005 0.60057595140037512 6.8950000000000005 0.069050000000000014 3.4750000000000005 5.5550000000000006 0.0049999999999999914 44.550000000000004 0.17616781083759966 2.5000000000000004 -0.04999999999999994 0.11192965521873068 7.285000000000001 5.5850000000000009 0.38605004624869266 3.2050000000000005 0.37272799721347327 4.2250000000000005 0.80994398240861065 6.3050000000000006 2.3050000000000002 33.750000000000007 240.00000000000003 2.5500000000000003 0.068592201127459215 1.0000000180025095e-35
decision_type=10 10 2 10 2 2 2 2 2 2 10 10 2 2 10 2 8 10 2 2 2 2 2 10 2 10 2 2 2 2
left_child=2 5 3 8 20 9 7 14 24 18 -10 27 21 -9 17 -16 -8 -4 19 -2 -3 -5 23 -6 -1 -15 -21 -11 29 -12
right_child=1 4 6 12 22 -7 16 13 10 11 28 -13 -14 25 15 -17 -18 -19 -20 26 -22 -23 -24 -25 -26 -27 -28 -29 -30 -31
leaf_value=-0.050698150884556273 -0.035439816454537719 0.0025280965214679683 -0.015448726073539698 -0.0087113304979490134 0.025429771799362906 0.0269414638325245 0.0052207077711039565 0.0041398360488645652 -0.014619553780645549 0.02271414760210403 -0.025053363694061734 0.0058304026909136598 0.0018646851991460007 0.0011975563326381952 -0.029737170283866028 -0.0065300431942994291 0.022880159727468735 -0.0029737007985540932 0.011775974633859159 -0.003403933779814339 0.026543823274824904 -0.017416732153058914 0.043201430120232386 0.03710351057818656 -0.030605614945905607 -0.0057887174379549324 0.0060926917532841528 0.012093812568185494 -0.013685351976422528 -0.041348175352263997
leaf_weight=4952.9918494005688 1600.0922580240294 10389.072326011024 20341.878394792555 84685.471454997081 22113.015828566626 15215.139999243431 36556.711107488722 73997.44898504531 69084.49325538124 16331.099511680193 17496.63341412181 79192.212696886621 20063.416779284365 48887.360914504156 10397.699804767268 7970.437887019245 8475.0908668320626 39280.217286052881 14157.052124385722 46269.392871669028 4767.5408383687027 29085.937693286454 16161.151664690115 25579.269334042445 14346.527223594952 74460.952644363511 22919.668828398921 41659.697374477983 6134.1119455283042 7204.8560835573589
leaf_count=134498 7340 32515 168718 588772 126578 67162 189773 335804 595649 55659 252686 351454 84485 200414 163635 52942 36276 260531 42662 151910 21758 204297 101220 136522 212636 410044 63245 142435 67576 162992
internal_value=-8.53375e-13 0.0132793 -0.00732614 -0.0147291 0.0299001 0.00774639 -0.0014786 -0.00311786 -0.0211407 0.00643159 -0.0183165 0.00974242 -0.00901778 -0.000335202 -0.0101591 -0.019667 0.00854426 -0.00722993 0.00108481 -0.0010533 0.0100823 -0.0109369 0.0346042 0.0316909 -0.0357621 -0.00301981 -0.000258068 0.0150847 -0.0265993 -0.0298062
internal_weight=889777 316354 573422 253054 79010 237344 320368 275336 119220 222129 99920.1 137183 133835 197346 77990.2 18368.1 45031.8 59622.1 84946.2 70789.2 15156.6 113771 63853.4 47692.3 19299.5 123348 69189.1 57990.8 30835.6 24701.5
internal_count=5422188 1300460 4121728 2303591 418593 881867 1818137 1592088 1426037 814705 1078903 549548 877554 946262 645826 216577 226049 429249 265157 222495 54273 793069 364320 263100 347134 610458 215155 198094 483254 415678
is_linear=0
shrinkage=0.05


Tree=23
num_leaves=31
num_cat=0
split_feature=12 28 4 4 4 25 4 51 4 20 25 35 25 51 20 31 26 33 43 25 12 4 44 48 32 44 26 39 26 25
split_gain=31146.8 12570.5 8494.59 3515.49 2859.92 2054.16 2040.73 1989.19 1822.3 1373.55 1118.82 1099.21 1070.47 830.1 800.708 777.458 723.4 721.692 697.895 682.654 665.233 596.655 595.63 587.146 584.057 564.192 513.94 506.931 484.055 471.56
threshold=18.950000000000003 0.41680418041804185 4.4350000000000014 5.6650000000000009 5.8550000000000013 0.51259960323601905 6.1550000000000011 0.09470000000000002 2.5950000000000002 6.7650000000000006 0.55286834956076281 1.5000000000000002 0.094776259163248819 0.053800000000000008 7.0050000000000008 0.0070439339201047004 3.4500000000000006 2.0581890856236789 -1.0000000180025095e-35 0.33287755350180886 62.050000000000004 3.3350000000000004 3.5000000000000004 0.048601870278060101 74.850000000000009 3.5000000000000004 1.9166666666666667 2.2450000000000006 4.6333333333333337 0.11743701527292395
decision_type=10 10 2 2 2 2 2 2 2 8 2 10 2 2 10 10 2 10 10 2 10 2 2 8 10 2 2 2 2 2
left_child=2 5 8 10 7 6 16 18 -1 15 21 14 13 -10 17 -6 -2 24 -4 22 -5 -3 -9 -11 -8 -17 -25 -18 -15 -20
right_child=1 3 4 20 9 -7 11 19 12 23 -12 -13 -14 28 -16 25 27 -19 29 -21 -22 -23 -24 26 -26 -27 -28 -29 -30 -31
leaf_value=-0.044496682045291697 0.0049456706990195012 -0.0323138259446396 -0.010037611802228267 0.02840744774636611 -0.011474410616793508 0.020421350353012312 0.016052652162414752 -0.0026024341912968892 -0.031801044666029954 0.030085542924941575 0.030848631286992629 0.00051935926955743827 -0.005678468128341569 -0.016478019019985558 0.021911767831813995 0.0029266291574529127 -0.0018077950111332012 0.002822169893934611 -0.021145832839036482 0.0090942313303521826 0.038637948088802221 0.0093466327518508634 -0.0093685357708491838 0.019726570942772401 0.0020247235884102753 -0.0043992338511796144 0.0039055570989458472 -0.033038041496405261 -0.025951860580527578 -0.0037754978704133101
leaf_weight=7379.900187383173 55623.352337417193 891.50551538914442 40852.496422403958 34175.297503551003 18927.412278087111 21286.272715047002 38116.567152515054 70858.358266032301 14300.693529749289 3030.7940929969773 6720.9368768213317 27524.841895067133 13549.823173499666 58321.937476734398 16452.350544988643 56671.841139703291 92959.141371815931 25015.790995235089 36425.028844617307 8281.1547613590956 29697.961940187495 23893.789444547147 60127.344150718302 6413.3690556399524 9213.6720059746876 49009.577409449033 25714.808707990916 1317.8069800203666 17537.115816457663 4376.6130435909145
leaf_count=183939 202539 3488 336638 190243 193553 86060 119762 391944 290741 7317 38339 147666 104606 531838 64985 286868 324511 104161 476995 27082 182136 83827 360745 22733 51726 269599 135651 6981 161953 33562
internal_value=-1.62923e-12 0.0106931 -0.00832545 0.0264224 -0.00477561 0.00547502 0.00427996 -0.00846104 -0.0204903 0.000320462 0.0127546 0.00924941 -0.018782 -0.0207513 0.0119555 -0.00214213 0.000423655 0.00969128 -0.0146572 -0.00482813 0.0331641 0.00784814 -0.00570833 0.00904826 0.0133219 -0.000470727 0.00706372 -0.00224433 -0.0186682 -0.0192826
internal_weight=874668 382889 491778 95379.5 380689 287510 266224 220921 111089 159768 31506.2 116323 103710 90159.7 88798.4 124609 149900 72346 81654.1 139267 63873.3 24785.3 130986 35159 47330.2 105681 32128.2 94276.9 75859.1 40801.6
internal_count=5422188 1606424 3815764 498033 2542687 1108391 1022331 1626966 1273077 915721 125654 488300 1089138 984532 340634 750020 534031 275649 847195 779771 372379 87315 752689 165701 171488 556467 158384 331492 693791 510557
is_linear=0
shrinkage=0.05


Tree=24
num_leaves=31
num_cat=0
split_feature=10 28 4 4 26 25 12 26 12 25 4 26 35 25 25 44 4 25 34 34 25 26 25 20 25 25 25 20 4 4
split_gain=28184 11010.6 7381.39 2701.12 2406.07 2363.78 2110.88 1720.5 1603.11 1303.81 960.319 936.899 914.64 840.93 807.544 781.344 769.065 754.685 718.938 699.114 681.344 642.498 552.449 548.427 524.483 505.347 497.973 496.755 494.949 484.537
threshold=42.45000000000001 0.46321273908336341 4.7350000000000012 5.6550000000000011 2.5500000000000003 0.60057595140037512 3.1500000000000008 2.916666666666667 9.5500000000000025 0.10073162660362071 3.6950000000000007 4.2250000000000005 1.5000000000000002 0.53948623388604044 0.27105871920963609 3.5000000000000004 7.1750000000000007 1.0000000180025095e-35 -1.0000000180025095e-35 -0.32901377486861311 0.013908576132634302 3.6333333333333337 0.21302642391908691 6.1150000000000011 0.049967200365305157 0.049967200365305157 0.8411856390381045 6.6050000000000013 4.495000000000001 7.1350000000000007
decision_type=10 10 2 2 2 2 8 2 8 2 2 2 10 2 2 2 2 2 2 2 2 2 2 8 2 2 2 10 2 2
left_child=2 5 6 13 12 7 -1 20 18 10 -8 15 16 28 19 -9 -4 -12 24 -10 29 -21 -14 -20 -6 -19 27 -5 -3 -2
right_child=1 3 4 26 8 -7 9 11 14 -11 17 -13 22 -15 -16 -17 -18 25 23 21 -22 -23 -24 -25 -26 -27 -28 -29 -30 -31
leaf_value=-0.036824535189147752 0.011851878413196701 -0.0096902552645013393 0.0048046034329567947 0.026481343651547064 -0.038625037681143178 0.024928549877024718 -0.025266811918390305 0.0074063619098470633 -0.015000720589173093 -0.0038396186599938403 -0.012830881076938763 -0.0050101418681690662 -0.014265302003500908 0.030667319634364767 0.0065651361386827841 0.00045260274927429406 0.0217218817261359 -0.037787179592729876 -0.013189728843118358 -0.0016428229559427038 0.0038165526594820063 -0.008624596588531824 0.003295260920931924 -0.001649691459445702 -0.015947530424209242 -0.018212413244431999 0.042130123010572694 0.037662089789102501 0.01125069557796254 0.023745411691198499
leaf_weight=12166.217618849827 49618.57453600876 3801.5120855299756 52586.340977053158 25776.460070298519 4068.8290384818101 15822.654561228584 28019.177363887778 84858.941319691483 15033.243245863821 21695.465108281001 79880.411525255069 34212.803694577888 9391.4434083350934 4442.7874357108958 17528.73363600811 77098.579246595036 7701.9749280819669 5176.195396742085 42199.192340638023 110949.2353265821 23218.389236309566 46873.24022379471 8561.8328741667792 13617.7919345228 6828.7620328299236 9082.534838735126 12587.18203097349 16164.099417680874 10947.466186263599 10349.537048799917
leaf_count=345808 180159 12073 270891 159032 95172 72481 328091 317164 143487 145818 618222 133133 99671 26729 64881 304377 27380 101657 420592 585500 117497 246899 36942 102984 80995 124497 87340 90953 42466 39297
internal_value=-6.83729e-12 0.0104449 -0.0078417 0.0277301 -0.00366161 0.00612799 -0.0168262 0.00506314 -0.00599802 -0.0151348 -0.0171409 0.00250792 0.00401576 0.0115975 -0.00366082 0.00409608 0.00696583 -0.0147223 -0.0126677 -0.0046978 0.0110888 -0.00371641 -0.00589075 -0.0103743 -0.0244146 -0.0253184 0.0334081 0.0307905 0.00585322 0.0139045
internal_weight=860260 368899 491361 73719.5 335341 295179 156020 279357 257099 143854 122158 196170 78241.6 19191.8 190384 161958 60288.3 94139.1 66714.6 172856 83186.5 157822 17953.3 55817 10897.6 14258.7 54527.7 41940.6 14749 59968.1
internal_count=5422188 1582701 3839487 418593 2175394 1164108 1664093 1091627 1740510 1318285 1172467 754674 434884 81268 1040767 621541 298271 844376 699743 975886 336953 832399 136613 523576 176167 226154 337325 249985 54539 219456
is_linear=0
shrinkage=0.05


Tree=25
num_leaves=31
num_cat=1
split_feature=10 4 28 12 4 4 20 25 51 4 25 32 35 25 43 26 25 26 4 28 34 51 26 43 4 25 20 44 50 31
split_gain=25260.5 9353.11 7291.8 3514.31 2495.82 1787.97 1727.3 1569.98 1425.05 1357.55 1086.46 1010.29 841.028 763.397 747.953 738.244 712.785 712.007 650.157 632.116 621.22 572.343 570.689 500.895 468.543 451.152 474.59 449.22 445.632 415.6
threshold=48.350000000000001 5.455000000000001 0.46706815571416854 8.8500000000000032 5.6650000000000009 3.6950000000000007 6.4450000000000012 0.60057595140037512 0.10040000000000002 5.6650000000000009 0.19291520730663078 4.9500000000000011 1.5000000000000002 0.43842352312166422 -0.020000000000000007 1.9166666666666667 0.11463200087562846 3.4500000000000006 2.3050000000000002 0.29154191616766473 -0.027561703930426649 0.10040000000000002 2.0833333333333335 -0.010000000000000021 4.5750000000000011 0.8411856390381045 6.3050000000000006 3.5000000000000004 0 0.0075213290689614505
decision_type=10 2 10 10 2 2 8 2 2 2 2 10 10 2 10 2 2 2 2 10 2 2 2 10 2 2 10 2 1 10
left_child=1 3 7 5 13 18 8 9 14 19 17 -7 22 24 -3 -8 20 -5 -1 -2 -13 29 -11 -10 -4 26 -6 -19 -21 -17
right_child=2 6 4 10 25 11 15 -9 23 12 -12 16 -14 -15 -16 21 -18 27 -20 28 -22 -23 -24 -25 -26 -27 -28 -29 -30 -31
leaf_value=-0.048109737236189831 -0.0047749239930240253 -0.00010264744855576266 -0.010440590293412544 -0.0034787112185278492 0.023649802468268515 -0.0075214138120665288 0.016341944045396725 0.024763320276488254 0.0056958403760905517 0.022951936400492971 0.0025274822437894419 -0.032246628475070843 0.002273365724707873 0.026584167759102009 -0.0096858837679709379 -0.0063475909014755116 -0.0048889814752933539 -0.0081044733556783523 -0.026697823204997379 -0.003792636329337698 -0.018350741804101834 0.0093366541392381208 0.011278705001594592 -0.0010356226873340199 0.010525623484233623 0.041095185136953732 0.034686914116230615 -0.014883306517050979 0.0073204993043382493 0.0038154585454443129
leaf_weight=4266.137591258157 24895.946250450797 29840.139103631722 3803.2397244051099 41302.84467395395 17006.970956126694 28792.636197118089 14802.967895927839 12928.601223268081 46061.61568139866 12677.108437623829 24024.301889117341 9473.667895187973 22619.806817854289 5474.2632215949707 64091.807452959707 14574.882508936571 8337.8983840425499 51765.669673477765 20980.47037225985 11542.67198155541 53255.190748906462 31973.453115629964 60145.662434181664 69083.407027883455 8901.4128776784055 11820.59238565946 22793.204329513479 46296.732545983512 41231.032607330009 32468.317363645183
leaf_count=134694 86723 169177 12013 288802 109154 158420 56668 64050 172874 47899 98760 209757 115761 31980 543043 104459 67562 339183 311053 35466 666527 130227 232686 353629 35063 86831 136597 329175 122186 171769
internal_value=6.02441e-12 -0.00567854 0.0131263 -0.0121215 0.0269073 -0.0184281 0.000458133 0.00795589 -0.00207117 0.00670066 -0.00729264 -0.0154226 0.0106949 0.010975 -0.0066415 0.00609468 -0.0186238 -0.00898547 -0.030316 0.00179238 -0.0204494 0.00417496 0.0133108 0.00165717 0.00424922 0.0325181 0.0299707 -0.0113049 0.0048905 0.000666752
internal_weight=847233 591392 255841 288496 69799.7 125106 302897 186041 209077 173112 163390 99859.4 95442.6 18178.9 93931.9 93819.6 71066.8 139365 25246.6 77669.7 62728.9 79016.7 72822.8 115145 12704.7 51620.8 39800.2 98062.4 52773.7 47043.2
internal_count=5422188 4305779 1116409 2603933 411638 1548013 1701846 704771 1238723 640721 1055920 1102266 396346 79056 712220 463123 943846 957160 445747 244375 876284 406455 280585 526503 47076 332582 245751 668358 157652 276228
cat_boundaries=0 1
cat_threshold=533507
is_linear=0
shrinkage=0.05


Tree=26
num_leaves=31
num_cat=0
split_feature=12 28 4 4 4 12 4 25 4 25 5 20 4 43 25 25 43 51 4 34 51 12 25 35 34 25 33 5 43 49
split_gain=22933.4 9490.74 6636.12 2910.75 2594.1 2035.38 1899.44 1534.52 1283.4 1027.73 1023.83 940.377 925.78 882.307 716.564 713.397 645.232 612.531 550.099 544.814 534.211 532.122 527.419 509.625 509.278 502.405 479.224 477.857 470.492 428.371
threshold=18.150000000000002 0.41680418041804185 4.2350000000000012 5.8350000000000009 6.3350000000000009 8.1500000000000004 6.2250000000000005 0.41116466228916004 2.3050000000000002 0.60057595140037512 38.475000000000009 7.0650000000000004 4.5550000000000006 -0.024999999999999991 0.085534699182060567 0.20394293704085453 -0.024999999999999991 0.14620000000000002 3.6650000000000005 -0.11070186069252813 0.053800000000000008 62.050000000000004 0.14344070184354976 1.5000000000000002 -0.49086923562817719 0.044864766465482951 1.6281687694617095 41.190000000000005 -0.024999999999999991 0.0039170884020427428
decision_type=10 8 2 2 2 8 2 2 2 2 2 8 2 10 2 2 10 2 2 2 2 10 2 10 2 2 10 2 10 8
left_child=2 6 8 9 5 16 7 12 -1 18 15 28 -2 -8 20 17 -4 -7 -3 -15 -10 -5 23 -18 -14 -25 -21 -26 -6 -13
right_child=1 3 4 21 11 10 13 -9 14 -11 -12 29 24 19 -16 -17 22 -19 -20 26 -22 -23 -24 25 27 -27 -28 -29 -30 -31
