tree
version=v4
num_class=1
num_tree_per_iteration=1
label_index=0
max_feature_idx=7
objective=binary sigmoid:1
feature_names=venue_code exhibition_time exhibition_start_timing pred_course nat_win_rate motor_rate boat_rate racer_id
feature_infos=-1:7:4:2:9:18:14:16:12:13:20:21:8:15:17:0:3:10:22:11:1:6:19:5 [6.3099999999999996:8.0999999999999996] [0:0.98999999999999999] [1:6] [0:8.4499999999999993] [0:90] [0:90] -1:945:474:1346:1362:88:368:483:659:794:1163:1171:1183:1337:1349:1378:1398:48:71:427:446:541:854:1000:1011:1263:1319:1363:404:440:555:651:796:855:868:989:1048:1124:1248:1326:1369:1393:1515:108:126:176:294:322:333:367:394:401:489:533:549:611:660:727:734:770:815:880:906:924:949:1068:1231:1258:1387:1457:1523:124:139:198:214:317:349:350:351:407:433:454:523:552:604:741:758:763:824:861:891:962:986:1020:1100:1155:24:47:51:98:128:308:336:376:382:432:449:507:516:522:563:620:663:673:704:744:767:781:820:908:926:969:1115:1203:2:110:188:193:209:226:238:240:278:393:408:409:416:423:448:458:486:491:504:609:621:670:760:789:873:887:940:966:988:998:1086:1131:1137:1179:1213:1225:1232:1274:1436:1504:1533:0:74:76:80:150:276:285:307:437:453:487:490:514:527:544:558:568:591:598:603:616:623:650:696:737:759:768:782:858:957:980:991:1003:1015:1026:1064:1138:1220:1235:1287:1364:1395:1463:1554:1:12:19:101:117:131:136:159:178:181:199:220:246:301:381:385:418:425:478:509:521:529:578:584:586:622:666:682:695:699:716:721:755:818:822:842:844:863:879:897:936:938:948:984:1105:1114:1126:1141:1159:1160:1181:1206:1224:1230:1233:1281:1311:1342:1357:1361:1386:1449:1450:1472:1505:1559:27:37:137:165:195:202:206:224:244:248:249:267:277:342:344:354:379:388:406:413:420:443:468:473:477:495:505:532:535:540:559:564:566:581:582:599:602:607:630:657:674:677:688:705:742:764:777:797:801:805:814:821:823:831:870:893:904:965:981:1004:1005:1007:1014:1025:1038:1042:1054:1063:1072:1076:1099:1109:1148:1150:1162:1166:1173:1193:1217:1256:1285:1290:1295:1314:1344:1347:1352:1354:1366:1469:1471:16:25:40:46:56:62:81:97:122:154:158:168:180:189:194:232:234:256:258:264:299:353:358:375:378:411:435:444:466:511:513:526:534:542:547:550:556:572:574:576:580:587:601:605:606:608:634:641:649:667:690:691:710:751:757:761:765:776:785:791:792:795:817:836:843:856:867:871:894:900:930:950:956:967:982:1009:1022:1023:1028:1031:1045:1061:1065:1066:1073:1107:1111:1118:1156:1197:1227:1239:1251:1270:1276:1294:1301:1302:1310:1317:1330:1345:1365:1374:1376:1407:1427:1433:1445:1459:1475:1478:1494:1502:45:49:50:66:69:75:84:93:94:106:114:129:130:132:133:135:138:143:156:157:160:225:231:241:259:263:266:295:312:319:321:328:331:348:357:362:366:371:391:397:402:403:422:438:439:441:465:471:479:480:481:494:515:548:561:585:589:600:613:629:654:665:683:686:712:729:731:736:747:762:771:778:803:811:829:832:841:848:865:876:878:885:909:918:921:951:977:987:1006:1017:1030:1034:1047:1049:1058:1070:1083:1087:1088:1095:1106:1112:1125:1128:1143:1161:1167:1174:1177:1178:1190:1194:1246:1247:1303:1323:1333:1335:1338:1381:1396:1400:1415:1438:1453:1458:1460:1474:1510:1517:6:52:59:63:85:103:121:144:164:173:183:211:213:221:227:287:302:313:324:330:345:352:364:369:389:398:414:445:460:463:492:496:531:543:551:569:583:615:631:639:655:662:668:675:701:703:723:730:732:733:743:750:773:800:804:808:827:830:834:853:872:874:888:898:913:922:925:927:935:937:941:947:960:978:1012:1024:1029:1036:1039:1044:1059:1067:1090:1110:1122:1123:1130:1132:1154:1157:1165:1169:1170:1204:1207:1209:1218:1219:1237:1238:1260:1280:1284:1291:1305:1341:1350:1373:1375:1384:1406:1410:1440:1452:1455:1456:1470:1511:1527:1552:20:31:32:36:41:43:77:83:104:120:123:142:166:174:182:186:191:205:210:228:233:265:271:281:290:296:298:303:304:305:334:361:377:383:395:417:431:452:462:467:482:500:501:510:518:554:588:590:617:618:624:625:640:642:644:647:672:679:684:692:700:708:726:779:783:810:837:849:852:860:869:877:883:895:901:923:931:933:939:944:993:997:1001:1035:1053:1055:1057:1081:1089:1097:1102:1113:1116:1121:1136:1146:1149:1151:1180:1182:1186:1191:1196:1214:1222:1254:1266:1273:1277:1283:1309:1402:1405:1432:1437:1446:1448:1461:1481:1495:1524:4:7:18:29:39:95:99:112:127:151:208:229:262:274:275:310:318:325:359:365:386:405:424:428:451:476:499:503:520:525:539:562:571:577:632:635:636:637:638:643:645:646:648:685:689:724:774:798:802:833:840:846:850:862:910:929:934:958:1008:1016:1021:1040:1091:1096:1101:1103:1120:1144:1145:1152:1164:1184:1187:1201:1215:1216:1249:1269:1296:1313:1318:1321:1343:1388:1390:1397:1411:1424:1425:1503:1514:1521:1529:1544:1556:3:13:22:23:30:53:58:61:68:73:96:107:115:119:134:147:161:163:207:212:216:219:230:245:251:257:273:283:293:297:314:315:335:337:341:347:400:461:469:475:493:498:506:528:545:573:593:595:614:633:718:749:756:772:784:806:819:835:896:911:914:919:983:1019:1027:1060:1084:1098:1129:1133:1192:1261:1315:1380:1401:1417:1426:1439:1443:1454:1487:1513:1553:33:65:70:72:89:91:100:125:140:145:148:155:162:175:204:235:242:338:339:356:360:373:380:392:497:538:546:579:612:658:671:687:698:714:715:739:740:752:826:892:907:912:917:920:953:955:961:992:995:1010:1056:1077:1079:1135:1139:1142:1158:1195:1202:1210:1211:1229:1241:1257:1275:1289:1292:1300:1332:1367:1372:1385:1394:1483:1496:1497:1498:1500:1532:28:34:64:82:111:197:218:288:289:292:311:326:327:396:484:508:517:524:536:537:560:575:626:680:745:753:769:775:799:881:905:976:1092:1127:1175:1223:1250:1262:1271:1278:1324:1327:1379:1512:1558:10:21:54:116:118:153:169:184:190:200:222:237:253:254:255:279:291:329:370:372:390:412:415:434:447:455:456:470:485:488:557:594:669:709:780:838:859:903:928:942:943:970:985:1018:1037:1051:1069:1104:1140:1168:1188:1200:1212:1264:1265:1268:1336:1348:1383:1389:1404:1418:1464:1468:1482:1484:1526:1545:11:14:17:42:57:170:171:177:179:236:247:252:268:284:340:410:426:429:553:565:592:596:656:693:702:713:725:735:786:813:890:946:964:1094:1108:1119:1134:1226:1236:1245:1253:1267:1282:1304:1308:1322:1334:1339:1340:1355:1370:1391:1409:1419:1421:1428:1442:1493:1509:1541:1542:1547:1549:1551:15:35:55:60:87:90:92:146:201:217:239:309:363:374:384:387:419:661:676:697:706:711:766:787:788:816:857:866:875:882:902:915:963:971:973:979:990:1062:1078:1117:1147:1185:1199:1205:1242:1279:1288:1298:1299:1316:1320:1328:1359:1368:1371:1382:1392:1412:1414:1416:1420:1429:1431:1435:1447:1465:1466:1467:1473:1479:1485:1489:1491:1492:1507:1518:1519:1520:1525:1528:1531:1537:1538:1543:9:78:79:86:113:149:172:187:270:306:316:332:421:436:530:610:628:719:720:738:809:839:952:972:1002:1033:1046:1052:1244:1272:1306:1403:1434:1476:1480:1486:1508:1516:1522:1536:1546:1555:8:26:223:272:286:300:442:459:567:570:694:722:825:899:968:974:975:1013:1041:1071:1080:1093:1176:1189:1221:1228:1259:1286:1312:1325:1358:1413:1422:1423:1490:1530:38:192:243:343:457:464:519:652:793:812:886:994
tree_sizes=8929 11548 9067 9512 9505 9168 9279 9103 9534 9189 9521 9168 9604 11896 9712 9179 9741 9180 9834 9195 12959 12084 9199 9877 9212 9229 9132 10078 12377 9171 10497 9213 10333 10518 10682 9188 9170 10410 12600 10963 9215 10482 10604 9241

Tree=0
num_leaves=87
num_cat=4
split_feature=4 4 1 4 1 5 4 1 0 4 4 0 2 0 5 5 2 4 5 5 1 1 1 1 5 4 5 5 1 5 4 5 4 4 2 5 5 4 5 4 5 0 5 5 5 2 4 4 4 5 5 1 2 2 5 2 5 5 4 5 1 5 5 1 1 1 4 1 4 4 5 4 5 2 4 1 4 5 5 1 2 4 4 4 5 1
split_gain=504.322 83.149 48.7718 24.7122 23.802 24.7699 18.2348 17.9703 14.9213 14.9092 14.0037 13.5374 11.2121 10.0625 13.9514 9.63118 9.59715 9.16722 8.37277 19.6041 10.5373 8.2422 7.98527 7.85244 8.66568 7.83106 7.76888 7.73557 7.01694 6.86839 6.81799 6.60717 6.58243 12.2566 6.55815 6.52619 6.36613 6.25718 6.16892 12.6751 6.62349 6.09087 6.44941 6.69726 6.06356 19.3466 7.90882 5.89974 5.72062 9.45351 7.8424 13.3849 7.85029 11.4547 6.75252 6.09467 10.0662 6.2241 6.04208 6.02127 6.23171 7.28682 5.5554 5.5166 5.4023 7.17335 5.38045 6.60102 7.83946 18.1086 8.87967 5.26874 5.24177 5.12668 5.12102 4.96842 6.66495 5.96393 5.26173 4.90822 9.62859 5.28706 4.86417 6.47352 4.82205 4.7579
threshold=5.6250000000000009 3.9950000000000006 6.7750000000000012 6.8250000000000011 6.6250000000000009 41.810000000000009 4.6750000000000007 6.745000000000001 0 5.8750000000000009 7.7000000000000011 1 0.21500000000000002 2 28.605000000000004 48.160000000000004 0.22500000000000003 3.4950000000000006 30.325000000000003 31.770000000000007 6.8250000000000011 6.5950000000000006 6.9250000000000007 6.8750000000000009 33.535000000000004 6.4450000000000012 32.225000000000001 21.180000000000003 6.9650000000000007 49.900000000000006 5.1350000000000007 49.235000000000007 6.035000000000001 6.2950000000000008 0.075000000000000025 35.195000000000007 33.535000000000004 6.2550000000000008 34.015000000000008 6.6550000000000011 30.935000000000006 3 21.180000000000003 31.470000000000002 18.620000000000005 0.14500000000000005 5.205000000000001 6.535000000000001 5.9450000000000012 37.870000000000012 37.785000000000004 6.7250000000000005 0.085000000000000006 0.03500000000000001 40.550000000000004 0.075000000000000025 31.385000000000002 30.935000000000006 5.995000000000001 30.145000000000003 6.6550000000000011 31.285000000000004 34.70000000000001 6.8750000000000009 6.9850000000000012 7.0450000000000008 5.8050000000000006 6.7250000000000005 6.0550000000000006 6.5150000000000006 46.590000000000011 5.7350000000000012 33.175000000000004 0.015000000000000001 6.4450000000000012 6.705000000000001 5.2550000000000008 29.675000000000004 28.185000000000006 6.745000000000001 0.015000000000000001 6.535000000000001 5.0850000000000009 5.1350000000000007 40.725000000000001 6.785000000000001
decision_type=2 2 2 2 2 2 2 2 1 2 2 1 2 1 2 2 2 2 2 2 2 2 2 2 2 2 2 2 2 2 2 2 2 2 2 2 2 2 2 2 2 1 2 2 2 2 2 2 2 2 2 2 2 2 2 2 2 2 2 2 2 2 2 2 2 2 2 2 2 2 2 2 2 2 2 2 2 2 2 2 2 2 2 2 2 2
left_child=1 17 4 8 9 13 21 15 37 -2 18 28 22 26 25 41 48 -1 27 20 -20 -3 29 24 -13 71 -6 -5 31 -10 34 44 -11 62 -17 85 -28 -4 40 -40 -35 75 -43 82 45 -9 -47 -18 49 -16 55 52 53 -52 -55 59 57 74 -58 -50 -61 -62 -34 -21 -39 -66 -7 68 -68 -70 -71 -15 -63 -19 -57 76 78 -78 -8 80 -74 -81 -44 -84 -38 -26
right_child=2 6 3 10 5 66 7 11 12 32 -12 23 -14 14 16 30 47 73 19 63 -22 -23 -24 -25 35 -27 36 -29 -30 -31 -32 -33 33 38 -36 -37 84 64 39 -41 -42 42 43 -45 -46 46 -48 -49 50 -51 51 -53 -54 54 -56 56 58 -59 -60 60 61 72 -64 -65 65 -67 67 -69 69 70 -72 -73 79 -75 -76 -77 77 -79 -80 81 -82 -83 83 -85 -86 -87
leaf_value=-1.6689894071333418 -1.6025682850684422 -1.5821161221816624 -1.6173336494725661 -1.5108840734984963 -1.5768658371674917 -1.5738925848540124 -1.5635147123954567 -1.618934561565782 -1.5733929247237692 -1.4398450655976693 -1.4676429382545146 -1.6438838399119109 -1.6364430039260449 -1.5466241954858688 -1.5611849859251687 -1.5713142314481601 -1.6354952267878029 -1.6149479044702761 -1.5472066271034408 -1.5590211532902263 -1.4146376756973758 -1.6373603351570507 -1.6043765440821933 -1.6543450680392968 -1.6214365325705478 -1.5664798188121869 -1.6776713094395683 -1.606560472410429 -1.6428020481244026 -1.6591393943350048 -1.6194281476823684 -1.5508306460572221 -1.6194281476823684 -1.5077954209810689 -1.4552883281848055 -1.6257966842562175 -1.5955836317951928 -1.6008143537187274 -1.4398450655976693 -1.5903065668037686 -1.4014859940102662 -1.514590456519409 -1.6491321601785405 -1.5933668007266046 -1.6164332354404556 -1.5541252087424779 -1.4330500300593294 -1.5472066271034408 -1.6233110251328484 -1.6360690510415685 -1.5903065668037686 -1.4805406081075074 -1.6067665907786295 -1.4446986624107692 -1.5553606697494489 -1.4851453025199357 -1.6287470535635205 -1.4252842751583694 -1.5502643930956939 -1.5086240838515983 -1.5104088961881228 -1.6141333147953503 -1.514590456519409 -1.5975247364232505 -1.4964703617505024 -1.6165159895945085 -1.4432425833668394 -1.5466241954858688 -1.5870708355950354 -1.420175225881422 -1.5262390888708488 -1.6167065046096021 -1.4534351366743496 -1.6527011682849504 -1.5757457763644687 -1.6467421821616071 -1.6388425349347684 -1.5417705986727688 -1.6392645868315596 -1.5593061742555816 -1.5681957368774242 -1.649553921005058 -1.5294159886030598 -1.6199776114725308 -1.6562133024763894 -1.5641340067736345
leaf_weight=163.02293708920479 5.2767219841480282 8.8871107101440412 100.39657880365849 3.0549443066120174 25.272721081972122 7.637360766530036 3.4715276211500194 16.385610371828083 150.38657654821873 4.9989997744560268 4.5824164599180213 75.401579931378365 12.358638331294058 3.8881109356880179 26.244748815894127 3.1938054114580137 8.0539440810680372 12.636360540986059 3.4715276211500159 44.852136865258217 4.3046942502260208 332.85006831586361 37.075914993882179 55.82216414809227 8.0539440810680407 24.439554452896118 4.9989997744560268 23.884110033512115 21.106887936592102 3.0549443066120139 2.9160832017660141 6.2487497180700293 3.8881109356880215 3.3326665163040143 3.0549443066120148 69.847135737538338 20.690304622054104 94.286690190434456 3.3326665163040161 3.8881109356880188 4.3046942502260208 2.7772220969200125 13.886110484600069 81.928051859140396 102.6183564811945 4.5824164599180213 2.7772220969200134 3.4715276211500159 6.2487497180700293 6.804194137454032 5.83216640353203 12.636360540986059 6.38761082291603 4.8601386696100235 2.7772220969200134 4.9989997744560224 3.4715276211500159 2.9160832017660132 33.326665163040161 5.6933052986860266 5.4155830889940253 10.69230507314205 2.7772220969200134 16.246749266982079 3.7492498308420172 2.7772220969200134 5.5544441938400295 19.440554678440094 7.4984996616840389 5.2767219841480237 4.8601386696100235 29.716276437044144 2.7772220969200196 131.50146628916264 3.3326665163040161 20.134860202670097 2.9160832017660123 6.6653330326080322 19.162832468748093 4.304694250226019 14.996999323368071 4.0269720405340195 3.0549443066120174 14.719277113676069 5.2767219841480246 10.970027282834051
leaf_count=1174 38 64 723 22 182 55 25 118 1083 36 33 543 89 28 189 23 58 91 25 323 31 2397 267 402 58 176 36 172 152 22 21 45 28 24 22 503 149 679 24 28 31 20 100 590 739 33 20 25 45 49 42 91 46 35 20 36 25 21 240 41 39 77 20 117 27 20 40 140 54 38 35 214 20 947 24 145 21 48 138 31 108 29 22 106 38 79
internal_value=-1.61052 -1.63438 -1.57797 -1.58946 -1.56252 -1.56685 -1.62565 -1.61928 -1.59571 -1.51566 -1.56433 -1.62633 -1.58539 -1.57314 -1.56848 -1.60447 -1.55893 -1.65979 -1.56895 -1.55848 -1.47382 -1.63592 -1.5808 -1.63486 -1.62977 -1.59086 -1.6016 -1.59571 -1.61232 -1.5751 -1.54795 -1.60766 -1.49837 -1.51196 -1.51459 -1.61779 -1.61917 -1.60744 -1.48335 -1.52086 -1.44788 -1.60754 -1.60061 -1.60191 -1.61047 -1.58469 -1.50844 -1.6089 -1.5555 -1.5766 -1.55032 -1.52609 -1.55508 -1.53056 -1.48494 -1.55802 -1.54334 -1.49647 -1.55767 -1.57104 -1.56422 -1.57172 -1.57575 -1.56926 -1.59737 -1.54755 -1.53013 -1.52229 -1.5019 -1.52037 -1.47103 -1.6086 -1.58075 -1.64939 -1.52139 -1.62228 -1.61089 -1.57131 -1.62765 -1.56707 -1.55026 -1.60293 -1.62403 -1.60441 -1.6079 -1.58839
internal_weight=2080.69 1200.59 880.102 504.482 375.619 343.82 893.432 551.695 404.086 31.7992 100.397 373.814 202.876 293.552 237.314 177.881 179.27 307.161 95.8142 68.8751 7.77622 341.737 190.517 220.095 164.273 58.0439 56.2387 26.9391 153.719 153.442 9.16483 132.612 26.5225 21.5235 6.24875 88.8711 30.966 201.21 14.8581 7.22078 7.63736 168.716 116.366 113.588 126.364 23.7452 7.35964 11.5255 167.744 33.0489 134.695 32.4935 19.8571 13.4695 7.63736 102.202 48.0459 11.2477 36.7982 54.1558 47.9071 42.2138 6.66533 61.0989 100.813 6.52647 50.2677 42.6304 23.1898 17.6354 10.1369 33.6044 36.7982 144.138 8.33167 52.3506 32.2158 9.58142 22.6344 26.1059 17.7742 8.33167 31.6603 17.7742 25.967 19.024
internal_count=14984 8646 6338 3633 2705 2476 6434 3973 2910 229 723 2692 1461 2114 1709 1281 1291 2212 690 496 56 2461 1372 1585 1183 418 405 194 1107 1105 66 955 191 155 45 640 223 1449 107 52 55 1215 838 818 910 171 53 83 1208 238 970 234 143 97 55 736 346 81 265 390 345 304 48 440 726 47 362 307 167 127 73 242 265 1038 60 377 232 69 163 188 128 60 228 128 187 137
cat_boundaries=0 1 2 3 4
cat_threshold=341488 1102599 4915200 3672067
is_linear=0
shrinkage=1


Tree=1
num_leaves=87
num_cat=14
split_feature=4 7 7 7 7 7 7 4 7 7 7 7 4 2 5 7 5 5 6 4 5 7 5 5 5 5 6 2 6 2 2 5 6 4 6 4 5 4 2 4 2 7 2 5 4 7 2 2 4 2 5 5 2 2 2 5 5 6 2 4 2 4 4 6 4 4 5 6 4 2 4 4 4 2 2 2 5 6 5 4 5 5 5 2 4 6
split_gain=448.947 208.371 137.53 81.3133 64.7646 62.1871 36.3419 35.062 29.4926 23.3707 19.3562 18.2137 16.4446 14.7578 14.5843 12.194 11.342 15.3396 9.19701 8.99704 7.05597 8.76763 6.7668 6.68484 6.50657 6.26868 7.61407 8.16592 9.87457 6.25333 6.17369 6.04486 6.21431 7.52639 6.04308 10.9464 9.14571 7.56003 5.93666 5.51149 5.48625 5.38895 5.00302 4.74265 4.73657 4.71757 5.16117 4.67404 5.79804 4.60221 4.50757 4.47724 4.33467 4.13762 5.44671 4.51763 10.1673 7.97425 8.12588 6.26199 5.84171 4.50949 4.11936 3.96728 3.8383 9.38141 11.7966 3.83429 4.12905 4.47793 6.7739 6.15359 7.12719 5.99484 5.79433 6.29077 3.73695 3.69981 10.0911 3.68114 5.18626 5.33169 3.64688 3.62156 4.67328 4.61359
threshold=5.4250000000000007 0 1 2 3 4 5 3.6550000000000007 6 7 8 9 7.7000000000000011 0.065000000000000016 28.100000000000005 10 33.645000000000003 36.285000000000004 35.145000000000003 5.0450000000000008 29.675000000000004 11 31.770000000000007 42.145000000000003 42.890000000000008 45.775000000000006 28.805000000000003 0.13500000000000004 33.260000000000005 0.075000000000000025 0.085000000000000006 52.135000000000012 37.845000000000006 5.3650000000000011 37.710000000000008 6.8250000000000011 27.935000000000006 6.745000000000001 0.095000000000000015 5.0450000000000008 0.17500000000000002 12 0.085000000000000006 1.0000000180025095e-35 6.6650000000000009 13 0.115 0.13500000000000004 4.9450000000000012 0.13500000000000004 36.775000000000013 35.935000000000009 0.085000000000000006 0.055000000000000007 0.045000000000000005 35.650000000000006 33.535000000000004 35.205000000000005 0.095000000000000015 6.8250000000000011 0.115 6.5050000000000008 4.4350000000000014 35.755000000000003 5.285000000000001 5.2150000000000007 34.955000000000005 38.795000000000009 7.1550000000000011 0.03500000000000001 6.3850000000000007 6.9750000000000005 6.4450000000000012 0.075000000000000025 0.16500000000000004 0.13500000000000004 36.185000000000009 32.335000000000008 36.545000000000009 4.8650000000000011 31.715000000000003 37.870000000000012 40.845000000000006 0.10500000000000002 3.9950000000000006 33.955000000000005
decision_type=2 9 9 9 9 9 9 2 9 9 9 9 2 2 2 9 2 2 2 2 2 9 2 2 2 2 2 2 2 2 2 2 2 2 2 2 2 2 2 2 2 9 2 2 2 9 2 2 2 2 2 2 2 2 2 2 2 2 2 2 2 2 2 2 2 2 2 2 2 2 2 2 2 2 2 2 2 2 2 2 2 2 2 2 2 2
left_child=2 16 13 -3 23 53 18 -6 -8 67 -11 38 15 22 -15 -12 34 -18 -7 41 43 -22 -1 47 30 26 -19 28 -28 -25 -16 32 -21 64 35 36 -2 -36 62 51 49 -13 -38 -17 -30 -43 83 48 52 -32 -40 -24 79 54 61 56 59 58 -57 -55 -59 77 -9 -20 65 -34 -67 68 69 70 -10 72 74 -74 75 -71 -70 -5 -79 80 -4 -82 -60 -47 -85 -86
right_child=1 3 4 5 7 6 8 11 9 10 12 19 -14 14 24 20 17 25 63 31 21 -23 39 29 -26 -27 27 -29 44 -31 40 -33 33 -35 37 -37 42 -39 50 -41 -42 45 -44 -45 -46 46 -48 -49 -50 -51 -52 -53 -54 55 -56 57 -58 60 82 -61 -62 -63 -64 -65 -66 66 -68 -69 76 71 -72 -73 73 -75 -76 -77 -78 78 -80 -81 81 -83 -84 84 85 -87
leaf_value=-0.01019995184650528 0.16446280924241424 -0.041161089228214778 0.069791763940865961 0.060688452661379504 -0.056327391800029894 0.088659161160704686 -0.026251167220806473 0.088491913614146142 -0.022080638250764905 -0.019256847874343178 0.03934682258652273 -0.056628451929442748 0.13222875068082035 0.21123855094736954 0.13266038642911573 0.0287494624858564 0.2527655352572038 0.20446487547197001 -0.014724545186707419 -0.026305875341257636 -0.0067959130732588302 0.019670667671117106 0.079787655746879904 0.1447213669617535 0.16858960041612464 0.20192687151552577 0.024430068393896096 0.19612413896815803 0.086196281061145033 0.03743870460949629 0.063273527386981054 0.058022308796854778 -0.028825426408855614 0.069391258582364501 0.13854011953909939 0.18288873460975247 0.10097563368891174 0.026796177461650965 -0.036692132072402607 0.1113800566857882 0.10755437985547521 -0.053860223888157394 0.02049295433589372 -0.0013368394884428728 0.16757105716891466 -0.02519479093263419 -0.035731600924333612 0.049339508588018749 -0.022187173438283376 -0.01865065529581145 0.01971989005014798 -0.0089984927938584567 -0.011037032418038229 0.07929105347416554 0.010850101916510462 0.20843216902449624 0.00050826583749522534 0.032569762166081713 0.063615295225201651 0.16252425643240179 0.12847404152852918 0.048401736191174362 0.01990245929780644 0.052042286784095247 -0.041058636642210093 0.14200906061374041 -0.0084818165459677412 0.095575383667441768 0.058142626824996102 0.079698411189769655 0.066629400329563104 0.14823985398396919 -0.028304008240091823 0.0589189197953702 0.018689002797350772 0.17222769368925586 -0.02494331398014471 0.070510658367474291 0.20617449965575832 0.097936329177520556 -0.029151421058589352 0.063377923078947157 0.14943257713040731 -0.054343084118633159 -0.013186636405588818 0.045001593006811204
leaf_weight=5.9025600701570538 5.1071139872074154 59.408180385828018 6.1746212244033876 3.9519250392913872 185.45447321236134 31.738560616970062 45.382354781031609 3.2644693255424526 4.9167107045650464 45.634667202830315 59.994342997670174 56.677739515900612 3.941087767481803 3.6474951207637814 4.8026401251554551 19.253031462430954 5.104775711894038 3.7228982001543107 3.1923828572034862 140.54390378296375 45.362079456448555 345.4162807315588 3.4514174461364728 2.9273801594972602 2.8645155727863303 5.0139271467924109 4.2696165293455151 3.2049843221902838 4.3965563327074033 4.2983500510454178 6.048342898488043 3.1342186331748954 10.131873741745958 4.5240286141633979 3.2819184958934766 8.0785108804702741 7.0148386359214765 4.7478704750537872 10.953282505273821 4.7343878000974655 4.840754121541976 43.147239729762077 3.8256617784500122 131.43412728607655 4.7908283025026321 281.27079991996288 171.96989275515079 14.985906973481177 11.166591867804526 3.4522646218538284 7.7536049485206595 3.8521840423345566 6.9911086410284033 11.131951510906221 4.2834708243608466 4.4936731755733508 4.1127356588840476 4.4743159562349302 3.0003600120544434 3.9163610935211173 3.7350163906812668 7.7452403753995887 20.004178613424301 26.788363292813301 8.4412971884012205 2.9618605077266684 3.8261656761169434 7.5899187922477713 3.1323180049657813 14.154344841837892 6.286476731300354 2.8726551979780188 4.2471548914909345 6.2307344079017639 3.9148714244365683 2.8250393569469443 3.8894853144884109 4.0819082409143448 3.0858676880598068 3.0701240599155417 5.8784198462963086 3.0220904946327209 3.3696715384721756 4.3169765472412136 10.390094801783563 7.5342366695404044
leaf_count=43 36 424 45 28 1387 224 322 24 35 325 424 416 27 26 35 136 35 25 23 1021 322 2444 25 21 20 34 30 22 31 31 44 22 73 32 23 54 49 33 80 34 35 316 27 938 33 2059 1259 109 81 25 56 28 51 79 30 31 29 31 21 27 26 54 145 188 61 21 28 53 22 100 44 20 30 44 28 20 27 29 21 22 43 22 23 32 76 55
internal_value=-0.000777913 0.026515 -0.0261255 0.0188531 -0.0302555 0.0233237 0.0185768 -0.0338256 0.0146438 0.0175816 0.0139125 -0.0289767 0.0166851 0.0641333 0.106388 0.0162054 0.119414 0.163214 0.0580183 -0.0307748 0.0126805 0.0169279 0.039454 0.0255543 0.0890112 0.145216 0.131267 0.114911 0.0955694 0.0809024 0.0771039 -0.019888 -0.0213208 0.00212287 0.114987 0.129198 0.102 0.0724679 0.00842728 0.0638008 0.0584991 -0.0345941 0.0725729 0.00250723 0.12863 -0.0305061 -0.027321 0.0227391 0.0117585 0.0335045 -0.0133106 0.0329586 0.0268385 0.075132 0.0684816 0.098809 0.0793933 0.118314 0.150136 0.100953 0.0762035 0.0815674 0.0295252 0.0449329 -0.00987672 0.00567986 0.0571828 0.0496911 0.0525243 0.0587668 0.0276975 0.0689311 0.0616691 0.0235636 0.0807779 0.0950935 0.01212 0.104668 0.128917 0.0414314 0.0299239 0.00226611 0.109012 -0.0234558 -0.00146374 0.011272
internal_weight=2079.96 1001.55 1078.41 938.988 1034.81 879.579 818.197 976.3 756.478 711.095 651.036 790.846 605.401 43.5966 25.656 601.46 62.5595 30.5036 61.7193 748.87 541.466 390.778 17.9405 58.5146 22.0085 25.3988 20.3849 16.662 13.457 7.22573 19.144 173.563 170.429 29.8852 32.0559 24.0261 15.9476 8.02979 41.9755 12.038 14.3414 575.307 10.8405 150.687 9.18738 518.629 475.482 51.2889 36.303 9.50061 18.7069 7.3036 25.1364 61.3825 23.1484 38.2341 19.161 19.073 10.8637 15.0483 8.20933 18.8649 23.2686 29.9807 25.3612 16.9199 6.78803 60.0597 52.4698 45.448 11.2032 34.2448 31.3721 10.4779 20.8943 16.9794 7.0218 11.1197 7.16778 18.1453 15.0751 8.90051 6.37003 303.512 22.2413 17.9243
internal_count=14984 7081 7903 6649 7588 6225 5796 7163 5361 5039 4616 5776 4291 315 185 4264 432 210 435 5471 3840 2766 130 425 159 175 141 116 94 52 139 1258 1236 215 222 166 112 56 305 87 104 4213 76 1074 64 3797 3481 373 264 69 136 53 183 429 162 267 135 132 75 106 57 132 169 211 183 122 49 423 370 321 79 242 222 74 148 120 49 78 50 132 110 65 44 2222 163 131
cat_boundaries=0 44 87 130 176 216 256 299 341 376 420 464 508 554 599
cat_threshold=0 0 0 0 0 0 536870912 16384 2097152 0 16777216 0 0 0 0 0 268468224 0 272629760 0 0 0 0 0 872415744 2228224 0 2147483648 0 2097152 0 524352 32768 0 1073741824 2064 2147483648 0 49152 33554432 16384 0 4 20971520 268435456 131072 0 0 0 0 2097152 256 0 0 0 0 65536 0 1064960 0 2048 0 0 2162688 0 8388608 33554432 0 0 67108864 4096 0 4194336 4 25165824 0 536870912 0 0 537001984 16 1048576 0 262144 0 0 524288 0 32768 0 0 268435456 0 4 0 0 4194304 2415919104 0 16384 1 0 1 1073741824 0 100663296 8 2048 32 0 0 136314880 16777472 2097152 256 67112964 0 0 1073741824 34 0 128 68 0 128 0 0 0 0 131072 128 0 0 17408 4224 64 0 0 0 2147483648 0 32768 2 268435456 0 2 1024 128 16 131072 0 134217728 0 0 4 1 1073741826 0 0 4194304 0 0 0 134287360 0 0 0 2048 0 0 32 0 1310722 0 0 2147484192 134217728 0 0 4 0 2097152 16384 1 4 0 0 65536 0 0 0 0 0 524288 0 256 0 0 4160 32 0 34816 4194304 0 1024 0 4194336 8388608 0 256 134348800 69468160 524296 524288 0 268436480 0 0 128 4096 0 0 0 131072 0 536870912 0 16793600 131072 128 67108864 0 0 0 0 8192 512 0 0 2281701376 1 0 67108880 0 8388865 128 131076 147456 20 0 4096 0 134217792 0 0 32768 0 16384 0 256 0 0 0 0 128 1048832 8192 1152 0 0 0 0 0 4096 516 262144 0 2147483648 131072 16777216 16908288 1048576 0 0 0 0 536870912 268435456 4096 512 1 0 0 0 0 0 0 0 1073742080 33554432 524544 0 0 0 0 0 0 2048 0 1073758212 2 1048576 1073741824 64 8 0 2048 134217728 0 0 0 256 813695040 32768 16384 0 8388608 268435456 256 135266304 0 1048576 1073741952 0 0 0 8192 0 0 0 2048 0 0 1024 0 0 0 0 0 0 32 0 67108864 262144 131072 536871936 192 131076 17825792 256 0 268435456 65538 0 4194304 65536 0 8389120 0 2147745792 0 268435456 512 0 0 16384 16 0 1048576 0 0 8 134250496 134217858 33554432 0 0 512 20971520 0 524288 512 512 0 0 1073741824 32 0 524288 67108864 16384 0 0 0 0 0 0 0 0 0 0 4096 0 0 0 5 8389632 0 0 2113536 4 0 0 2147483648 0 16640 268435456 0 0 64 0 0 33554432 16 0 0 536936450 0 1152 4194306 1073758208 0 0 524672 0 262176 0 1088 0 1024 2214592512 2147483648 0 0 0 0 0 0 256 2097408 0 0 0 2048 16777216 0 0 1207959552 2048 0 8 4194304 0 33554432 0 0 0 2048 1 1024 0 4194304 0 67108864 134217728 2056 0 0 0 0 0 0 0 528384 0 4096 0 0 0 0 264192 64 0 0 0 16512 8192 4 2147483649 0 4 0 520 0 0 33554432 256 16384 0 33558592 0 0 8388608 16384 0 1073741824 0 8388608 32768 0 0 33554432 8388608 0 0 1073750016 0 0 0 0 1073743872 0 8388608 0 512 1024 0 0 1073741841 67371008 32 0 0 262144 1610612736 0 0 128 256 0 135168 0 0 516 33554432 0 0 134217728 0 1343225856 0 0 0 16777216 256 0 0 0 0 0 0 0 147456 1 2 32 0 8 524288 0 4194308 0 0 0 536871040 2 4194304 0 33554432
is_linear=0
shrinkage=0.056614


Tree=2
num_leaves=87
num_cat=3
split_feature=3 3 2 0 5 5 6 5 5 5 5 5 6 2 5 2 5 6 2 0 5 5 5 6 6 5 5 6 3 5 5 6 6 2 6 6 6 2 5 5 5 5 2 6 5 5 6 6 6 6 6 2 5 6 6 2 6 5 5 3 5 5 2 6 6 6 5 6 5 3 0 5 6 5 5 2 2 2 6 5 5 6 6 6 2 5
split_gain=3001.88 147.781 19.3675 17.9099 12.0687 10.6246 9.87236 8.49047 8.45247 11.4221 9.97336 8.95802 12.16 8.4664 8.23275 7.71237 7.60462 7.45574 7.09814 10.4309 12.3189 10.2055 9.68203 11.6318 9.07145 7.6338 7.07944 6.78319 6.68724 6.45033 10.4629 7.31539 8.20077 6.64246 6.39047 6.38699 7.31441 6.78013 12.5584 6.42677 6.10669 10.8748 11.0352 6.68374 10.4443 8.95527 7.91737 6.10445 6.07576 11.8783 6.06512 7.71008 5.72876 5.63378 5.36311 5.23725 5.13608 5.00533 4.86139 4.76509 6.76318 5.4851 4.74652 9.71011 10.4897 9.70365 6.39035 7.27357 5.29446 4.67724 4.94638 4.57557 4.57408 4.56337 6.75941 4.55585 5.15081 4.55453 4.53733 4.32646 5.89297 4.2112 5.10916 7.00094 5.4383 4.15186
threshold=1.5000000000000002 4.5000000000000009 0.18500000000000003 0 29.675000000000004 28.605000000000004 34.140000000000008 15.450000000000001 33.005000000000003 48.490000000000002 31.110000000000003 26.735000000000003 39.905000000000008 0.03500000000000001 35.730000000000011 0.27500000000000008 34.105000000000011 30.515000000000004 0.115 1 31.830000000000002 33.095000000000006 45.320000000000007 33.260000000000005 38.110000000000007 31.645000000000003 36.245000000000012 35.805000000000007 5.5000000000000009 29.675000000000004 27.795000000000005 29.425000000000004 32.055000000000007 0.13500000000000004 49.310000000000009 41.82500000000001 40.435000000000009 0.095000000000000015 36.125000000000007 45.320000000000007 32.965000000000011 35.255000000000003 0.025000000000000005 30.185000000000006 31.990000000000006 31.385000000000002 26.635000000000005 37.530000000000008 35.845000000000006 38.795000000000009 38.680000000000007 0.095000000000000015 36.185000000000009 40.290000000000006 29.585000000000004 0.115 38.905000000000008 39.910000000000004 34.305000000000007 3.5000000000000004 43.395000000000003 54.590000000000011 0.065000000000000016 29.395000000000003 28.145000000000003 25.400000000000002 36.245000000000012 27.665000000000003 36.125000000000007 2.5000000000000004 2 21.180000000000003 30.470000000000002 30.420000000000005 30.935000000000006 0.015000000000000001 0.055000000000000007 0.075000000000000025 32.835000000000008 31.110000000000003 31.590000000000003 38.680000000000007 33.995000000000012 35.07500000000001 0.075000000000000025 29.975000000000005
decision_type=2 2 2 1 2 2 2 2 2 2 2 2 2 2 2 2 2 2 2 1 2 2 2 2 2 2 2 2 2 2 2 2 2 2 2 2 2 2 2 2 2 2 2 2 2 2 2 2 2 2 2 2 2 2 2 2 2 2 2 2 2 2 2 2 2 2 2 2 2 2 1 2 2 2 2 2 2 2 2 2 2 2 2 2 2 2
left_child=2 3 6 -2 34 7 29 -4 10 14 11 13 47 -8 50 17 -17 -7 19 20 54 25 -20 -24 -25 85 -16 -9 52 30 33 -32 -33 55 69 36 37 59 -39 -40 43 42 -42 46 45 -45 -31 -13 -12 -50 51 -10 -3 56 -6 75 -28 -38 -52 61 77 81 66 64 65 -64 -43 -68 -65 70 -5 -72 -70 -56 -75 -1 -77 -61 -22 -76 -81 82 -23 -84 -85 -21
right_child=1 28 5 4 18 15 8 27 9 -11 48 12 -14 -15 26 16 -18 -19 22 21 78 35 23 24 -26 -27 53 -29 -30 40 31 32 -34 -35 -36 -37 57 38 39 -41 41 62 -44 44 -46 -47 -48 -49 49 -51 58 -53 -54 -55 73 -57 -58 -59 -60 60 -62 -63 63 68 -66 -67 67 -69 72 -71 71 -73 -74 74 79 76 -78 -79 -80 80 -82 -83 83 84 -86 -87
leaf_value=0.20137833608112973 -0.032510474026721733 -0.051215940466803223 0.14376100309678966 0.0049568288833763876 -0.028203719204193924 0.092800824369973653 0.081524743808297939 -0.015210560935567994 0.26398654485363471 0.091883701060606088 0.039520894268946387 0.1840075320106008 0.24704539227103134 0.16137099567321661 0.10247104366686395 0.15727107102787047 0.041004173978935375 0.16424092465815673 -0.02205322574865989 0.05890458884811111 -0.010958104888817977 0.00455593405078658 -0.026975673014485998 0.1146827139027936 0.0016485685724602999 -0.043071646940821842 0.17695570218384762 0.099107763487991815 -0.056854928452813133 0.14625560840420926 0.035362339776362724 0.17258750844493001 0.049042462553408273 0.088024856877524191 0.055135723723884082 -0.026983619673502768 0.027485612833156939 0.12779761734579892 -0.0072243518798754585 0.089810323700474468 0.19158706578935317 0.079827108664192889 0.093559926906378127 0.15325995846522189 0.21442064852245532 0.036283666288132864 0.23030698954541939 0.11191639150682861 0.18989288026656576 0.07178774390078406 0.11190674965291439 0.17966300856791001 -0.03610546574035494 0.21412205903273071 0.069417060699804384 0.22655633640454131 0.11984196993710178 0.12783119223140818 0.21219076949369428 0.014716811416755869 -0.047438893172861672 0.091827631760560011 0.10469413006974455 0.26430557157047124 0.040885883070540759 0.218283054286004 0.20060646600686566 0.13623127510722871 0.23819629413957402 -0.030912414035581301 0.0066225655351497175 -0.036619747732457776 0.17014728706066895 -0.05230376715099519 0.093268621703612428 0.10689150246910141 0.15847092264599261 -0.036284762192805887 -0.029357054249204512 -0.048774869760162404 0.053821884323699311 -0.032703809772531123 0.076956264966193261 -0.00012694373308270684 0.067691692268027168 -0.0072345296738916699
leaf_weight=4.2011450529098537 201.99335585534573 217.62773019075394 2.9374751597642881 31.946696594357491 5.7331663966178921 6.3249337822198894 6.4324335157871273 4.2919247001409531 9.5291859805583972 4.5839608907699576 3.1637679934501639 11.214782193303114 7.3511001765727988 12.581620261073111 4.3165578246116629 2.765166610479354 5.1822064369916916 18.028246864676476 177.71279616653919 3.5739976018667248 84.214670345187187 53.722249239683151 8.2024651765823382 5.2405152171850187 4.0222886502742767 22.913032189011574 31.129513040184975 2.7165834903717041 335.67241397500038 5.538265302777293 5.4883114993572217 4.2308263778686523 2.9041421562433243 5.8071639090776435 3.2148028761148444 13.73523500561714 3.5653975903987876 4.3339746147394207 9.3118537366390211 2.8594868332147589 4.5705735236406353 4.5791542381048194 18.905894637107849 5.8554657846689206 4.8140846192836753 3.2685444205999374 10.221496880054472 5.667088881134986 5.2598554641008359 5.6732951700687408 2.8267545402050009 5.4706584960222235 127.54982155561447 10.817190349102018 7.4101705253124264 2.8850100040435782 6.0230216532945624 2.8803932964801788 3.4284447580575943 26.571700170636177 10.855759739875792 2.8117764741182318 4.9104482084512693 2.8881966918706921 3.1099068224430075 4.7348241358995438 7.3674785047769573 23.791598662734032 3.8747668415308025 156.72627937793732 9.8626973628997785 38.296288579702377 17.307378724217415 3.6100965142250052 3.1300261765718442 10.351629778742792 15.492608696222304 7.1147478073835364 87.694663375616074 2.9267520308494568 4.6377845406532288 6.4066414684057227 8.5779422819614428 15.781495690345766 4.9874484986066809 20.440781146287918
leaf_count=30 1453 1581 21 231 42 45 46 31 66 32 23 79 51 90 31 20 37 129 1287 26 604 384 58 36 28 167 218 20 2447 39 40 30 21 42 23 98 26 31 67 20 32 32 135 40 35 24 71 41 37 41 20 38 917 76 53 21 43 20 24 188 77 19 35 20 22 33 52 168 27 1144 71 281 121 26 21 74 111 51 628 21 33 46 61 112 35 146
internal_value=4.29869e-05 -0.030595 0.150107 -0.0173453 -0.0132277 0.114129 0.15497 0.0629647 0.166474 0.178589 0.149968 0.163447 0.186271 0.134359 0.183994 0.129883 0.0814575 0.145687 -0.00918014 -0.0050329 -0.0140173 0.00356617 -0.0181003 0.0221216 0.0655987 -0.0196953 0.171917 0.0291006 -0.0511653 0.14617 0.129265 0.0845021 0.122301 0.143851 -0.0241482 0.0100628 0.0132474 0.0107639 0.0450407 0.0155726 0.153075 0.146137 0.112645 0.175512 0.146953 0.111355 0.20077 0.159807 0.108614 0.128607 0.213703 0.233233 -0.0456323 0.178166 0.0204995 0.153696 0.167697 0.0723265 0.166872 0.00662921 -0.00857819 0.013969 0.156973 0.171237 0.131302 0.160454 0.142275 0.151453 0.1924 -0.0252244 -0.0140959 -0.0229902 0.182595 0.0333581 0.0146787 0.1467 0.137811 0.00394502 -0.0203438 0.0372896 0.0141268 0.0115223 0.0149332 0.0339297 0.016159 0.00260862
internal_weight=2092.68 1737.87 354.815 1057.02 855.026 42.2465 312.568 9.94598 135.469 78.1253 57.3439 43.247 24.233 19.0141 73.5413 32.3006 7.94737 24.3532 614.979 419.801 199.357 220.444 195.178 17.4653 9.2628 46.9278 52.2863 7.00851 680.85 177.099 51.3608 12.6233 7.13497 38.7376 240.047 173.516 159.781 153.335 16.5053 12.1713 125.738 96.0402 23.4765 29.6979 13.9381 9.12401 15.7598 16.8819 14.0969 10.9332 21.255 14.9998 345.178 47.9697 27.448 32.9304 37.1525 6.44579 6.2552 136.83 44.5422 92.2876 72.5638 36.8255 12.7552 9.64527 35.7382 31.1591 24.0703 236.832 80.1057 48.159 21.1821 21.7148 14.3047 30.0454 25.8442 33.6864 171.909 10.6946 7.56454 89.4758 83.0691 29.3469 20.7689 24.0148
internal_count=15073 12559 2514 7614 6161 303 2211 72 956 548 408 307 171 136 516 231 57 174 4411 3002 1428 1574 1409 122 64 339 368 51 4945 1255 369 91 51 278 1750 1235 1137 1091 118 87 886 677 167 209 99 64 110 120 101 78 148 104 2498 337 196 236 261 46 44 973 316 657 510 258 90 68 252 220 168 1727 583 352 148 154 101 215 185 239 1232 75 54 638 592 208 147 172
cat_boundaries=0 1 2 3
cat_threshold=110592 2231192 6963233
is_linear=0
shrinkage=0.056614


Tree=3
num_leaves=87
num_cat=2
split_feature=3 7 3 7 3 2 1 5 5 5 2 5 1 5 2 5 5 1 1 2 3 2 2 5 1 3 2 1 2 5 5 5 5 3 1 5 3 1 2 5 5 5 1 2 3 5 5 1 1 5 2 3 1 5 5 1 2 1 5 5 5 1 1 5 5 5 5 3 1 1 1 5 5 5 2 1 1 5 5 1 5 2 5 2 5 5
split_gain=2466.7 167.615 130.719 29.188 15.6987 13.1409 15.6533 8.04462 8.03935 7.70741 7.6317 8.43381 6.88299 6.45297 5.85157 5.83638 7.44671 10.1202 6.39577 7.14316 5.64129 5.57194 5.41143 5.58863 5.411 5.27641 5.03497 5.02915 4.45821 6.24904 4.42806 4.16045 7.81603 6.28757 5.91062 4.34191 4.15047 4.57487 4.63353 4.49182 15.1138 8.89717 4.10899 3.84048 4.47977 3.83838 3.72989 3.68438 3.41069 3.3507 3.34946 3.2418 3.19743 14.0376 9.26569 4.7189 5.93609 5.26687 4.09764 3.19097 4.40852 3.18377 3.16924 3.02884 5.48915 4.40273 7.67103 6.7166 4.20431 5.01236 3.87198 3.09007 5.10421 3.42674 4.30966 4.2322 3.33229 3.18195 3.53104 5.22287 6.0987 2.98738 2.97106 2.96566 7.74133 4.10873
threshold=1.5000000000000002 0 4.5000000000000009 1 4.5000000000000009 0.18500000000000003 6.8050000000000006 37.245000000000012 42.430000000000007 28.605000000000004 0.075000000000000025 26.485000000000003 6.6050000000000013 15.450000000000001 0.13500000000000004 34.165000000000006 32.115000000000002 6.8750000000000009 6.8650000000000011 0.045000000000000005 3.5000000000000004 0.10500000000000002 0.27500000000000008 34.105000000000011 6.9750000000000005 5.5000000000000009 0.055000000000000007 6.8150000000000004 0.015000000000000001 35.855000000000011 36.185000000000009 36.285000000000004 29.585000000000004 2.5000000000000004 6.7550000000000008 40.330000000000005 3.5000000000000004 6.6550000000000011 0.17500000000000002 21.180000000000003 20.815000000000001 27.795000000000005 6.705000000000001 0.085000000000000006 2.5000000000000004 30.820000000000004 43.505000000000003 6.7650000000000006 6.9150000000000009 41.305000000000007 0.20500000000000004 3.5000000000000004 6.9150000000000009 36.895000000000003 35.820000000000007 6.8550000000000013 0.115 6.8350000000000009 32.755000000000003 17.290000000000003 30.535000000000004 6.9350000000000014 6.745000000000001 35.730000000000011 34.015000000000008 38.370000000000012 37.870000000000012 2.5000000000000004 6.9150000000000009 6.9650000000000007 6.6550000000000011 32.82500000000001 31.865000000000006 30.620000000000001 0.055000000000000007 6.9150000000000009 6.9650000000000007 30.325000000000003 29.895000000000003 6.785000000000001 30.025000000000002 0.045000000000000005 28.605000000000004 0.025000000000000005 25.600000000000005 11.190000000000001
decision_type=2 9 2 9 2 2 2 2 2 2 2 2 2 2 2 2 2 2 2 2 2 2 2 2 2 2 2 2 2 2 2 2 2 2 2 2 2 2 2 2 2 2 2 2 2 2 2 2 2 2 2 2 2 2 2 2 2 2 2 2 2 2 2 2 2 2 2 2 2 2 2 2 2 2 2 2 2 2 2 2 2 2 2 2 2 2
left_child=5 4 3 31 7 6 83 43 36 13 15 14 -10 -7 21 16 18 -18 19 82 50 -12 45 -24 28 30 -9 -6 -17 -30 -4 32 33 -3 35 -33 39 -38 -39 40 -5 -41 -32 44 -2 -11 -47 -45 -31 -36 61 81 54 58 -13 57 -57 -56 -54 -20 -61 -14 -15 64 71 66 68 -68 70 -70 -65 72 73 77 -75 -76 -73 78 -43 -80 -81 -34 -8 84 -1 -85
right_child=1 2 25 8 27 9 10 26 12 22 11 52 20 62 -16 24 17 -19 59 -21 -22 -23 23 -25 -26 -27 -28 -29 29 48 42 34 51 -35 49 -37 37 38 -40 41 -42 63 -44 47 -46 46 -48 -49 -50 -51 -52 -53 53 -55 55 56 -58 -59 -60 60 -62 -63 -64 65 -66 -67 67 -69 69 -71 -72 76 -74 74 75 -77 -78 -79 79 80 -82 -83 -84 85 -86 -87
leaf_value=0.091839344407832604 0.0061223049494008187 0.063253664249619826 -0.052601372178160077 -0.013109507065459797 0.067313014414269054 0.12335720134584155 0.074845705670468263 0.10569401455423656 0.074400401498350296 0.070696458534324838 0.075874386307258818 0.18437054123902305 0.0054285730429801844 0.060794104880279351 0.032721220967646097 0.17002060005354944 0.10588267235094856 -0.035310650453862912 0.17206240652202978 0.030497662720695998 -0.027805526868606847 0.17427061850973705 0.13364177186156065 0.037628300984909005 0.064101170316956377 -0.057812892331989683 0.18301593257018051 0.0019848843549528832 0.1738044381235205 0.11497431678919345 -0.016975826839725764 0.0038465009715881971 0.082557198291329958 -0.032096462479844594 0.0042558439428880372 0.086688959662302403 -0.0021135373717839673 -0.028253910578205553 -0.048712428662851824 -0.03923857132854508 0.11576520324658927 -0.026957818058553493 -0.043903810570292183 0.084896385638566899 0.095658633757000358 0.14227494555633347 0.075588607428734814 0.16730527447765808 0.054102830543190573 -0.068204566411756207 -0.040916226231606991 0.10232579705415394 0.10871990771363102 0.21527817401278776 0.13042692542641113 0.21548461545841052 0.11026329978752052 0.042250720818514845 0.025207728026958729 0.093463180917994201 0.16831094446802344 -0.043183362823779742 -0.015006577751544068 0.035424518600507333 -0.037815181905562281 -0.022677399165556507 -0.0016455044817947646 0.081727357312739016 0.070954097619239209 -0.020524552564296663 -0.019697249502314353 -0.0017587506691265635 -0.041070673602895062 -0.03007473403259367 0.00090606872827229653 0.069362138992050931 -0.067213307069554945 -0.059737878418407109 0.049553374762722806 0.034126178569374027 -0.067665925968762142 0.024172217296456761 0.14442309276543233 0.19786375295346476 0.16284467905678368 0.13664457001411595
leaf_weight=5.6074769198894492 2.9940649121999758 3.4367999881505984 204.78056328743696 51.781120583415031 11.575954183936121 3.2202486544847471 3.920800134539606 4.519149497151373 3.1438052952289572 3.6310801059007671 4.275506064295767 15.560839012265207 64.546847552061081 3.9466044306755066 3.8798755407333374 6.8356004059314754 3.2003002464771262 3.3098693788051605 3.5114934742450741 6.7902942448854446 39.617328383028507 3.2442298233509064 3.0600768178701383 5.3230890482664108 4.6391877084970465 315.29957742244005 6.7025613337755203 5.6060818731784812 5.1051278263330486 15.297116920351984 22.285655781626701 4.6394918859004992 4.8548028171062487 6.2432529628276825 4.6487040370702726 3.6022036820650101 18.05938496440649 218.35124306380749 42.366878643631935 88.514583095908165 3.0907563120126715 50.321599349379539 98.167742431163788 4.392802819609642 4.4574845731258392 19.999095901846889 3.1057123243808737 2.8781406581401825 3.6552307754755011 3.6525083780288696 6.3083793222904196 5.2862600535154334 5.0835405588150007 3.3746009021997443 5.6356362253427523 3.1662268787622443 3.7582372575998306 3.5318768173456192 2.9911804646253586 10.414058536291121 3.3283082544803611 4.6278088539838782 3.2024355828762054 4.3644700944423667 64.24762274324894 90.208364695310593 6.8208937942981702 5.6727808862924576 4.0846581310033789 3.6221892535686493 63.66125875711441 41.968846492469311 36.353344559669495 13.442572712898253 24.699198022484783 3.2788742929697028 2.6503623127937308 7.2620113193988791 5.2760295271873456 3.3266201317310333 4.3577254116535187 6.6652989238500595 3.9476233422756195 3.5893899053335181 40.217962846159935 166.91133619844913
leaf_count=37 20 24 1544 378 77 21 26 30 21 24 28 100 460 28 26 44 20 22 23 45 289 21 20 37 30 2395 43 39 33 99 163 31 33 44 32 23 131 1605 316 661 23 374 727 29 30 130 20 20 24 26 46 36 34 22 36 20 24 23 20 69 22 34 23 31 469 656 49 41 30 27 466 305 269 97 180 23 20 54 37 24 32 45 25 23 253 1062
internal_value=-7.59138e-05 -0.0295005 -0.0323582 -0.0199562 0.071412 0.128301 0.132074 0.115768 -0.0218626 0.0997002 0.11642 0.132495 -0.0082477 0.0568133 0.0891898 0.104574 0.0892797 0.0340978 0.100537 0.0730399 -0.0105051 0.118325 0.112363 0.0726758 0.121112 -0.0525942 0.151877 0.045998 0.129674 0.11821 -0.047535 0.0230179 0.0422797 0.00175659 0.00609225 0.0400545 -0.0239943 -0.0296697 -0.0315784 -0.0212617 -0.00585041 -0.0228751 -0.0389217 0.0882452 0.0596825 0.124807 0.133311 0.117517 0.103234 -0.0276265 -0.00142498 0.0656201 0.143948 0.118309 0.153222 0.123101 0.158376 0.0964562 0.0777839 0.123898 0.111591 0.00217642 0.0268389 -0.0195502 -0.0234823 -0.0138827 -0.00489044 0.0362101 -0.0116708 0.0279595 -0.0161607 -0.0187095 -0.0226392 -0.0166548 -0.00372937 0.00892874 -0.00564672 -0.0242441 -0.020171 0.00618041 -0.0235992 0.0487768 0.109753 0.14137 0.154156 0.137933
internal_weight=2092.99 1702.72 1659.59 1019.06 43.1262 390.271 344.783 25.9442 976.028 45.4883 128.457 54.5017 118.244 10.3693 11.3996 73.955 38.4227 6.51017 31.9126 14.6587 115.1 7.51974 35.1191 8.38317 35.5323 640.534 11.2217 17.182 30.8931 24.0575 325.234 43.0293 26.4864 9.68005 16.5429 8.2417 857.783 278.778 260.718 579.006 54.8719 524.134 120.453 14.7225 7.45155 26.7359 23.1048 7.27094 18.9523 8.30121 75.483 16.8064 43.1021 11.4493 31.6528 16.092 6.92446 9.16751 8.07472 17.2539 13.7424 69.1747 7.14904 435.619 257.185 178.435 88.2263 12.4937 75.7326 7.70685 68.0257 192.937 148.318 111.965 41.4206 27.9781 44.6192 70.544 63.282 12.9604 7.68435 11.5201 7.86842 216.326 45.8254 170.501
internal_count=15073 12559 12271 7442 288 2514 2211 172 7148 303 836 354 850 72 75 482 252 42 210 96 829 49 231 57 230 4829 73 116 200 156 2434 294 182 68 112 54 6298 2052 1921 4246 401 3845 890 99 50 174 150 49 123 58 540 114 279 76 203 103 44 59 54 114 91 494 51 3184 1884 1300 644 90 554 57 497 1415 1090 821 300 203 325 521 467 93 56 78 51 1375 290 1085
cat_boundaries=0 44 87
cat_threshold=0 524288 0 0 0 0 536870912 0 0 2147483648 0 8192 0 268435456 0 0 268435456 524288 0 0 0 0 33554432 32 8704 2228256 67108880 0 0 4194308 32 524288 0 0 134217728 16 0 4202496 16384 0 0 0 0 16777216 0 32768 0 1342177284 0 0 0 0 0 0 0 16777216 8388608 16777216 64 0 536905728 32 268435456 8192 0 0 0 8388608 268435456 0 4194304 512 256 256 0 256 0 0 0 131072 2148007936 0 0 33792 0 0 270340
is_linear=0
shrinkage=0.056614


Tree=4
num_leaves=87
num_cat=2
split_feature=3 4 7 3 4 4 3 4 7 1 4 4 4 1 3 2 4 4 1 4 2 4 4 2 2 4 2 4 4 4 1 4 4 2 4 1 1 2 1 4 4 1 1 4 4 1 4 1 1 4 4 1 1 2 2 1 2 1 4 4 2 4 2 1 4 4 1 2 1 1 1 4 4 4 4 4 4 4 1 1 2 4 1 2 4 4
split_gain=2032.5 203.539 137.583 126.522 64.2715 19.3236 17.9306 15.3042 15.1057 14.8431 12.0264 11.1512 8.97075 7.21524 6.57256 6.61754 6.56739 6.45636 5.64964 6.17921 6.11384 6.84827 5.17182 5.12188 5.35129 6.74662 4.9964 6.28694 4.94477 4.60265 4.55256 4.4533 5.09209 4.27953 6.284 4.16955 4.69978 5.2586 4.43351 7.09284 6.81994 6.07577 4.05911 18.5869 4.05137 4.04974 4.02289 3.96325 3.88196 6.55209 5.1361 4.81071 4.6132 4.13657 7.62811 4.91166 3.78065 3.65196 3.51775 4.73035 3.47404 3.42203 4.76736 3.33248 3.30101 3.27385 3.2032 7.31084 5.52158 4.04976 4.03388 4.6935 3.65212 6.42804 3.478 5.57143 4.64454 7.98644 3.18427 3.14799 3.14119 3.15048 3.13782 3.76849 3.10714 4.75257
threshold=1.5000000000000002 5.455000000000001 0 4.5000000000000009 4.8450000000000006 6.5150000000000006 5.5000000000000009 3.9450000000000007 1 6.8350000000000009 5.9150000000000009 7.5700000000000012 5.4250000000000007 6.7650000000000006 2.5000000000000004 0.055000000000000007 7.2150000000000007 4.5550000000000006 6.6950000000000012 4.5950000000000006 0.03500000000000001 5.2750000000000012 4.7750000000000012 0.21500000000000002 0.115 5.7750000000000012 0.045000000000000005 3.6050000000000004 5.4750000000000005 7.2800000000000002 6.7550000000000008 5.785000000000001 5.8250000000000011 0.095000000000000015 4.7750000000000012 6.6250000000000009 6.8050000000000006 0.17500000000000002 6.8450000000000006 6.7750000000000012 6.705000000000001 6.8350000000000009 6.8550000000000013 4.4250000000000007 4.745000000000001 6.8750000000000009 6.6350000000000007 6.745000000000001 6.8150000000000004 5.785000000000001 5.8550000000000013 6.8750000000000009 6.9650000000000007 0.015000000000000001 0.03500000000000001 6.705000000000001 0.20500000000000004 6.5850000000000009 6.495000000000001 6.3850000000000007 0.095000000000000015 5.035000000000001 0.10500000000000002 6.7150000000000007 5.0050000000000008 4.4350000000000014 6.7550000000000008 0.025000000000000005 6.7650000000000006 6.9150000000000009 6.9350000000000014 6.7150000000000007 6.0250000000000012 6.2750000000000012 7.0150000000000006 7.3050000000000006 6.7650000000000006 6.705000000000001 6.7750000000000012 6.8950000000000005 0.12500000000000003 5.9450000000000012 6.8750000000000009 0.055000000000000007 6.705000000000001 6.9450000000000012
decision_type=2 2 9 2 2 2 2 2 9 2 2 2 2 2 2 2 2 2 2 2 2 2 2 2 2 2 2 2 2 2 2 2 2 2 2 2 2 2 2 2 2 2 2 2 2 2 2 2 2 2 2 2 2 2 2 2 2 2 2 2 2 2 2 2 2 2 2 2 2 2 2 2 2 2 2 2 2 2 2 2 2 2 2 2 2 2
left_child=1 7 6 4 17 23 63 26 45 84 65 12 -10 -12 28 -16 46 57 19 -9 21 30 -21 24 48 -26 27 -1 -14 35 -20 -30 -33 34 -19 -17 37 58 39 41 -40 60 44 -44 -22 -6 -11 -8 50 51 53 -50 -51 -3 -55 -56 -46 -4 59 -37 -38 62 -45 -2 -32 -5 67 -34 -68 74 -71 -72 -69 -74 76 -76 77 -70 -57 -65 -27 -82 -48 -84 -7 -86
right_child=2 5 3 10 8 9 47 18 11 16 13 -13 14 -15 15 29 -18 33 20 22 42 -23 -24 -25 25 80 -28 -29 31 -31 64 32 66 -35 -36 36 38 -39 40 -41 -42 -43 43 61 56 -47 82 -49 49 52 -52 -53 -54 54 55 78 -58 -59 -60 -61 -62 -63 -64 79 -66 -67 68 72 69 70 71 -73 73 -75 75 -77 -78 -79 -80 -81 81 -83 83 -85 85 -87
leaf_value=0.0031342535874480108 0.12262041457109168 0.21275504604986728 0.0034798144776999533 -0.060749208880291505 0.026684587574582128 0.19472019478704139 0.04244651238771182 0.054896977873069519 -0.021086314484016103 0.089389413528523462 -0.023416333676580494 0.069781426572757904 0.06811827301399985 -0.046388819483094368 -0.021122153691528586 0.044603431688656353 0.054347007559264658 -0.0011826571904497909 0.038743173200630823 0.17314410398731411 0.034186012063016559 0.15873456634909364 0.097646013605391477 0.091138732535825939 0.11971612092621257 0.22248909681068979 0.01101106219204193 0.10832575748600377 -0.01879978004959084 -0.050813175674483062 0.078514817541736351 0.068673294737558385 0.06207965745975793 -0.039167900599651022 -0.046297720462279174 -0.0025372338916253437 -0.014462523605513818 -0.038353533745896569 -0.012414721098756664 -0.050539563775584009 0.045140988059511881 0.093043329091820393 0.16140071844711504 -0.013005765920280434 0.070241772958272247 0.079884223387829661 0.18746807651048106 -0.0382521263831627 0.12253529982566341 0.12029403128446008 0.12678875476548726 0.047550903858913515 0.18861110619532007 0.082193512108936939 0.22012045671234778 0.12642197508977265 0.0086551542520870838 -0.042748169533066718 -0.023642187680048225 0.0551496317046241 0.043854274006195147 0.0758988978543641 0.065465571583486482 0.073920259547346975 0.13860833663651811 -0.050935419099979777 -0.057791760747314888 0.04501287968481741 -0.0090669851440197558 0.085502362314273411 -0.022386785011919416 0.068333473137129092 -0.051851307894699238 0.011575505786056811 0.086617441708457699 -0.017214231124499067 -0.04798062296080511 0.081461139880316863 0.1881000091957114 0.12521135819712206 0.20989756912517488 0.15136692243549468 0.086760873266912078 0.16073554257909853 0.14918110731488449 0.18520433502154324
leaf_weight=3.0932350307703045 11.974364355206488 3.7695839852094677 5.5965881049633017 194.60335460305214 23.146620154380802 23.200105845928192 4.0373267605900756 9.449894919991495 168.6829491853714 4.2043311148881974 67.713413164019585 5.6701851338148108 3.7428095489740363 124.19297719746828 116.96304407715797 5.9577377289533606 3.5630260556936255 36.881754264235497 6.6855482906103196 3.4676420688629177 26.950492471456528 3.9354051053524008 18.024717956781387 9.0599637329578382 10.917535543441774 3.6405275613069561 20.210091665387154 4.4278479069471359 26.478166416287422 6.4039157778024665 10.601685270667074 4.1230446547269812 9.0664672255516034 34.490665502846241 13.524160124361513 46.639841049909592 5.2852055132389131 19.111737668514252 37.86920228600502 3.1359825879335395 7.9909878075122824 5.2731683850288382 6.3255602717399624 4.9511981606483477 29.937259629368782 5.7194988578557959 5.2104348093271247 3.7739136591553688 4.6588097810745221 22.333493709564213 53.457146108150482 6.6661950796842575 3.6917205452918997 4.3980241417884853 4.0656021088361731 7.6797767430543882 3.5764445364475241 256.87954299896955 22.690201178193092 5.0492739826440802 8.6045328527688962 8.1075859963893873 4.9746035635471344 17.000121854245666 4.0486599653959265 247.53996789455414 5.3732227087020865 5.9802398830652228 38.406290903687477 3.3022234290838224 4.9753121882677078 2.8892966508865356 6.7501185536384609 21.223531663417816 3.2837438732385626 3.3422005772590637 8.3379365354776365 3.3999464362859717 4.1232578456401825 4.952599696815013 3.8017703741788891 13.117723241448401 3.556741073727606 5.8173393309116364 20.85028463602066 26.860661014914513
leaf_count=20 75 22 42 1599 161 131 27 59 1262 25 497 37 27 929 840 40 21 279 41 21 169 24 108 56 65 21 130 28 191 45 66 29 62 263 102 335 38 138 277 22 57 38 39 32 182 40 30 27 28 132 306 41 22 26 24 45 23 1996 159 36 62 51 31 116 25 1932 38 42 276 23 36 20 47 149 23 24 59 24 24 34 22 76 21 34 119 151
internal_value=0.000376269 0.112103 -0.0275826 -0.0301785 -0.0177411 0.144674 0.0651758 0.0641181 -0.00716592 0.165045 -0.050118 -0.00909842 -0.00998031 -0.0382831 -0.0057385 -0.0107084 0.124817 -0.0373729 0.0716778 0.0930512 0.0656707 0.090113 0.109827 0.132446 0.135004 0.155684 0.0256707 0.0650631 0.00385905 -0.00370866 0.0774557 0.00222216 0.00684322 -0.0238017 -0.0132873 -0.00190891 -0.00362316 -0.0118655 0.00768255 0.0283893 -0.00238583 0.0413059 0.0583886 0.0779007 0.0505279 0.0276476 0.13818 0.00345787 0.129336 0.114343 0.136562 0.0783975 0.129985 0.158298 0.148169 0.166454 0.0636695 -0.0417625 -0.00505943 0.00309793 0.0216641 0.0486114 0.0263224 0.0985961 0.0951218 -0.0552548 0.0046518 0.0169153 -0.00254473 0.00182483 0.0329908 0.010942 0.00485536 -0.00372956 -0.00430559 0.0342436 -0.0093994 -0.00170467 0.147969 0.0854917 0.174783 0.164519 0.152246 0.132668 0.177726 0.169462
internal_weight=2085.44 417.412 1668.03 1626.29 992.241 248.644 41.7383 168.768 644.869 93.2629 634.05 616.003 610.332 191.906 441.649 290.975 22.3519 347.373 141.037 30.9423 110.094 25.2713 21.4924 155.381 146.321 31.4776 27.7312 7.52108 150.675 174.012 21.3359 146.932 120.454 84.8966 50.4059 167.608 161.65 93.4911 68.1591 22.2989 45.8602 19.1629 84.8231 24.3589 60.4642 28.8661 18.7888 7.81124 114.844 37.3502 77.4934 11.325 26.0252 24.0362 20.2667 15.8686 33.5137 262.476 74.3793 51.6891 13.8897 18.0334 9.9258 33.9271 14.6503 442.143 116.331 43.0204 73.3102 67.937 11.1668 7.86461 33.9539 27.9737 56.7701 6.62594 50.1442 41.8062 11.803 21.9527 20.56 16.9195 14.5845 9.37408 70.9111 47.7109
internal_count=15066 2491 12575 12296 7339 1442 279 1049 4657 532 4957 4456 4419 1426 3157 2087 131 2682 871 188 683 156 129 910 854 184 178 48 1070 1247 132 1043 852 644 381 1202 1162 668 494 160 334 138 527 153 374 201 110 54 670 223 447 69 154 141 119 93 205 2038 530 371 100 114 63 225 91 3531 823 300 523 485 79 56 238 196 406 47 359 300 69 150 119 98 85 55 401 270
cat_boundaries=0 46 89
cat_threshold=16777216 0 0 4096 0 0 0 0 0 0 0 16785408 536870912 0 0 0 268435456 0 134217728 0 4194304 8192 0 0 8192 2230272 0 0 0 4 0 524352 1048576 0 0 16 2147483648 4194304 16384 0 0 0 0 4196352 0 8388608 0 32768 0 0 0 0 0 0 0 64 0 134217728 33555458 16777232 0 8 32768 0 0 0 0 0 0 0 0 0 2147483648 16777216 0 0 67108864 8519680 16777216 0 134217728 0 0 0 0 1024 0 1073741824 262144
is_linear=0
shrinkage=0.056614


Tree=5
num_leaves=87
num_cat=4
split_feature=4 4 0 4 4 4 5 6 6 2 4 4 4 0 2 6 6 5 4 2 2 4 5 0 5 4 2 2 2 4 6 5 5 6 5 4 2 5 2 2 0 6 6 5 6 4 2 2 6 6 4 6 5 6 5 6 6 6 4 2 5 2 4 5 4 2 5 6 6 5 6 6 4 5 6 2 5 6 5 5 2 5 5 2 6 2
split_gain=364.666 44.5365 30.8182 45.8647 17.8013 13.5524 11.3236 12.595 11.9326 10.7124 16.2688 10.5572 9.72469 9.16426 7.92932 12.7564 15.6861 6.35106 6.30859 6.03711 5.7713 7.44833 5.70188 6.12209 5.42437 4.84737 4.83149 4.93263 6.0304 4.82541 5.90875 5.16083 11.4569 4.47458 4.39311 4.5565 4.1022 3.99928 3.85704 3.75747 6.06436 4.86055 5.83436 4.02842 8.40125 3.74542 11.3069 7.36863 6.96185 6.1042 5.48619 7.9826 9.15686 6.19655 5.39078 4.4025 9.61639 9.98386 9.79292 5.05391 4.76196 4.12665 4.67132 3.89159 3.7247 3.62111 5.99435 3.70952 3.62628 3.58132 3.48079 8.27647 5.75624 5.33525 5.90266 5.52069 9.1937 9.66677 4.52956 4.29806 4.10843 4.08037 5.63059 5.4265 7.19771 7.08862
threshold=5.4050000000000011 3.9450000000000007 0 6.5150000000000006 7.7000000000000011 4.6550000000000011 28.805000000000003 40.965000000000011 31.645000000000003 0.18500000000000003 7.4500000000000011 3.1750000000000003 6.2550000000000008 1 0.12500000000000003 32.250000000000007 28.605000000000004 44.245000000000005 5.8050000000000006 0.39500000000000007 0.22500000000000003 6.6350000000000007 36.775000000000013 2 39.910000000000004 5.7150000000000007 0.115 0.085000000000000006 0.045000000000000005 5.8750000000000009 34.140000000000008 33.505000000000003 37.045000000000009 42.335000000000008 44.360000000000007 6.2250000000000005 0.27500000000000008 46.975000000000001 0.075000000000000025 0.085000000000000006 3 32.055000000000007 38.795000000000009 33.955000000000005 35.035000000000004 6.6950000000000012 0.015000000000000001 0.045000000000000005 36.380000000000003 30.595000000000002 6.955000000000001 32.465000000000011 33.505000000000003 38.320000000000007 43.065000000000005 27.665000000000003 33.905000000000008 31.875000000000004 6.6650000000000009 0.095000000000000015 34.875000000000007 0.10500000000000002 6.7350000000000012 36.775000000000013 4.5050000000000008 0.03500000000000001 31.200000000000006 37.295000000000009 29.735000000000003 28.305000000000003 28.145000000000003 25.400000000000002 6.8250000000000011 50.130000000000003 30.655000000000005 0.065000000000000016 46.265000000000008 31.685000000000006 38.605000000000011 33.175000000000004 0.025000000000000005 30.145000000000003 29.755000000000006 0.15500000000000003 35.695000000000007 0.10500000000000002
decision_type=2 2 1 2 2 2 2 2 2 2 2 2 2 1 2 2 2 2 2 2 2 2 2 1 2 2 2 2 2 2 2 2 2 2 2 2 2 2 2 2 1 2 2 2 2 2 2 2 2 2 2 2 2 2 2 2 2 2 2 2 2 2 2 2 2 2 2 2 2 2 2 2 2 2 2 2 2 2 2 2 2 2 2 2 2 2
left_child=1 11 4 6 20 19 7 8 -4 10 14 -1 25 -7 45 16 -16 33 -9 22 70 -22 39 -24 64 -10 27 28 -19 30 -8 -32 -33 -15 36 37 -31 -36 -35 40 41 -3 43 44 -43 46 48 50 -5 -49 69 52 -52 -53 61 -48 57 60 59 -58 -57 62 -51 -64 -25 66 68 -68 -13 -47 71 -2 79 74 80 -76 77 78 -77 -73 -72 82 83 84 -79 -86
right_child=2 5 3 9 -6 13 29 18 12 -11 -12 65 -14 17 15 -17 -18 26 -20 -21 21 -23 23 24 -26 -27 -28 -29 -30 34 31 32 -34 38 35 -37 -38 -39 -40 -41 -42 42 -44 -45 -46 47 55 49 -50 54 51 53 -54 -55 -56 56 58 -59 -60 -61 -62 -63 63 -65 -66 -67 67 -69 -70 -71 73 72 -74 -75 75 76 -78 81 -80 -81 -82 -83 -84 -85 85 -87
leaf_value=-0.057988929127478779 0.0038537126919386774 -0.023698613944179162 0.016465227625284674 0.15207449049626651 0.098630335926380042 -0.020090343615690769 0.0087722452050198255 0.097784017880538601 -0.067517741700097555 0.0073023944524977591 0.13166261768872423 0.045265848049659003 0.064346830334059635 -0.0077275849747809643 0.059627689907038282 0.044471211695934224 0.1908549759722509 0.070350616766802099 0.017471122339999822 0.049265509456995725 -0.041310536129066246 0.036860825307000293 0.00032817050632659976 -0.021375925735711839 -0.048130505715620255 -0.019851639791562733 -0.012066805307150008 0.11131977015447171 -0.024346533303832504 0.03115779077517622 0.0060782315054955247 0.078677367114463395 0.01777858288531434 0.050785736140995019 0.1230764077107678 0.01982480791962787 -0.021759431148579499 0.056338406651821528 -0.0034461383115549564 -0.039253834716104274 -0.030130983278232715 -0.013750478235396879 -0.047819894355564621 -0.008461725317529473 0.099671345537213366 0.049301088212457649 0.010567025574397017 0.032235919017801519 0.049884079090663905 0.023327690627670664 0.036418138570118851 -0.035393435461776687 0.14916544920577887 0.065121600610689168 0.13078371600739191 0.097876648782096981 0.028608853842324443 0.15917334728319449 0.10059837875861508 -0.049997320995506148 0.021019081832904615 0.020488468037954077 0.1099800817119207 0.045954760864066524 0.040323108432361532 -0.039060388135987195 -0.051253251424150936 0.0074939349644060531 -0.017583862213779073 -0.0090757429503061007 0.021515414094137916 0.091462805570209485 0.13292408621492643 -0.042313297348656007 0.0046095748768618262 0.073335758744040122 0.10732704798275294 0.072412835890137875 -0.00041508110376509605 0.011647550568275464 -0.017736759399783652 0.0074056612561504706 0.10676632422732733 -0.019769927434173828 -0.032787585333582538 0.061545819568639595
leaf_weight=105.40496344864368 17.07254130393267 11.747563354671003 62.726751081645489 6.2797340080142003 7.2145123034715644 173.32650441676378 78.526778608560562 6.7517558634281141 8.763450935482977 13.94535009562969 9.3147768974304181 6.0021178200840968 3.8098510950803748 228.77444564551115 5.6675149351358431 12.202174901962278 6.0213231891393661 4.8684647083282488 5.8516879975795746 3.41939603537321 14.790412992239 5.3090180903673163 54.204465925693512 22.117734633386139 29.676661416888237 31.123989641666412 6.0052919760346404 3.1234762370586386 3.8676280900835991 187.97033029049635 16.564791105687618 17.181070700287819 23.36881697922945 8.0608972087502497 4.0787411704659489 6.9544639587402335 4.8156696781516066 9.7755400463938695 8.783344089984892 106.34731062501669 85.933444321155548 3.1933665126562136 2.9410688504576674 3.8250138387083998 6.075255461037159 4.2787026762962368 7.7236671373248091 19.178160555660725 3.2387568354606628 4.224398002028475 5.7834373414516467 4.8545699119567853 3.8428637087345123 3.3034712821245193 4.4455520510673514 5.3873024806380254 15.295256346464162 4.8899020105600348 5.6015110611915579 3.1638474464416495 4.9651338905096054 5.6303370893001548 10.234876453876494 4.3301003128290168 3.654158003628253 119.22041030973196 14.258070245385172 4.5425779595971099 5.7719883695244789 15.830086410045622 11.152000918984411 3.5327330231666547 3.0089160948991767 6.4025328755378714 134.7017065808177 13.398088768124582 3.7994739115238181 9.9777205362916082 3.333150126039981 5.5750837847590446 36.583266600966454 99.945139907300472 2.8549720346927634 7.0103428065776816 6.305313862860201 4.2904627770185471
leaf_count=904 120 91 436 38 42 1284 550 46 66 94 53 45 26 1705 38 78 37 34 40 27 108 36 412 168 228 220 43 21 28 1254 116 118 161 58 26 47 34 63 65 832 661 25 23 29 45 29 52 124 20 28 37 32 24 21 27 36 99 30 36 23 33 38 63 27 27 952 111 35 46 107 76 25 18 45 935 90 24 69 24 38 259 688 18 51 45 29
internal_value=0.000276577 -0.0237655 0.0236571 0.0311004 0.0102554 -0.0169719 0.0220606 0.00698041 0.000642819 0.0550626 0.0588536 -0.0442619 -0.02207 -0.0104125 0.0547772 0.0849602 0.127227 -0.00316358 0.0604953 -0.0255727 0.00888013 -0.0206625 -0.0263488 -0.0158019 -0.0267965 -0.0303241 0.0293076 0.0502582 0.0284265 0.0272003 0.0188494 0.0327046 0.0435815 -0.00565415 0.0325034 0.0572166 0.029836 0.0759863 0.0225068 -0.0316041 -0.0244501 0.00291697 0.0242356 0.0404206 0.0605935 0.0497162 0.061032 0.0422705 0.117303 0.0569933 0.0236039 0.0465101 0.0814274 0.00530856 0.0734422 0.0496423 0.0573213 0.0925052 0.0350323 0.0151359 0.061015 0.0630034 0.0757432 0.0909456 -0.0126277 -0.0346028 -0.0172212 -0.0370589 0.0144552 0.00334555 0.0104896 0.0292505 0.0650346 0.00887777 0.00986097 0.0129408 0.020377 0.0181313 0.0586433 0.0426062 -0.00856659 0.0129327 0.0310807 0.0232471 0.037905 0.00541008
internal_weight=2079.3 1025.15 1054.15 657.896 396.257 769.945 468.264 119.027 106.424 189.633 175.687 255.2 43.6973 436.81 166.373 23.891 11.6888 263.484 12.6034 333.135 389.043 20.0994 329.716 109.653 55.4486 39.8874 17.8649 11.8596 8.73609 349.236 135.641 57.1147 40.5499 245.619 213.595 20.8087 192.786 13.8543 16.8442 220.063 113.716 27.7823 16.0347 13.0936 9.26862 142.482 56.5451 85.9366 9.51849 48.0434 37.8931 17.7843 9.6263 8.15804 28.8653 47.0266 39.303 15.2423 24.0606 18.4591 10.3524 24.4197 18.7894 14.565 25.7719 149.795 30.5748 18.8006 11.7741 20.1088 368.943 29.1893 12.1167 339.754 333.352 285.616 150.915 147.115 16.7312 9.10782 47.7353 130.384 30.4388 27.5838 20.5735 10.5958
internal_count=15066 7899 7167 4427 2740 5806 3203 834 748 1224 1130 2093 312 3238 1077 153 75 1954 86 2568 2698 144 2541 835 423 286 126 83 62 2369 945 395 279 1828 1424 136 1288 89 123 1706 874 213 122 99 70 924 367 557 58 307 250 114 61 53 183 309 257 99 158 122 69 156 118 90 195 1189 237 146 91 136 2554 201 81 2353 2308 1973 1038 1014 114 63 335 900 212 194 143 74
cat_boundaries=0 1 2 3 4
cat_threshold=201896 6567973 3248068 342176
is_linear=0
shrinkage=0.056614


Tree=6
num_leaves=87
num_cat=4
split_feature=3 7 4 3 4 0 4 4 4 4 1 4 4 1 3 3 1 4 1 4 4 1 4 1 1 4 1 3 1 0 4 3 1 4 1 4 4 4 4 4 4 1 1 4 1 1 0 1 1 1 4 1 3 3 4 1 1 1 1 1 3 1 1 4 1 1 1 1 4 1 4 4 1 1 4 4 4 4 4 1 1 4 1 3 1 1
split_gain=1597.89 169 135.869 109.102 65.7805 27.04 22.3951 13.3218 9.57857 8.0164 7.46542 6.96782 8.70886 14.4085 6.74412 7.18063 6.72371 5.16825 6.24453 4.95781 4.96419 4.72595 4.47336 4.44562 4.34279 4.88279 4.28202 5.71062 4.22561 4.02766 5.61255 11.4594 5.32309 3.82453 4.62999 4.41323 3.91486 3.77292 3.35035 3.15259 4.38309 3.07542 3.74789 3.03813 3.01127 2.90473 2.86641 4.88202 9.47589 7.49956 6.18151 3.79134 3.13933 2.82359 2.7574 4.96973 4.54649 2.75582 2.73044 2.6486 2.61029 3.29697 2.57662 5.25111 5.16245 2.67484 2.53739 2.4986 2.48206 5.06733 3.69773 3.13198 2.5858 4.31879 4.47356 2.47737 2.42499 3.54334 2.40108 2.58494 4.78418 3.29256 2.88344 2.50344 4.80807 3.12802
threshold=1.5000000000000002 0 5.5650000000000004 4.5000000000000009 5.0050000000000008 1 4.0150000000000006 6.5150000000000006 5.4850000000000012 6.1250000000000009 6.6450000000000005 5.0050000000000008 4.5650000000000004 6.8550000000000013 3.5000000000000004 2.5000000000000004 6.7150000000000007 5.6650000000000009 6.6550000000000011 3.6550000000000007 3.7850000000000006 6.8150000000000004 5.9150000000000009 6.6550000000000011 6.9150000000000009 6.4450000000000012 6.8150000000000004 5.5000000000000009 6.6050000000000013 2 6.1850000000000014 2.5000000000000004 7.0450000000000008 5.9350000000000014 6.8950000000000005 6.2550000000000008 6.5650000000000004 4.4350000000000014 4.6550000000000011 5.035000000000001 5.0850000000000009 6.9650000000000007 6.9450000000000012 5.8550000000000013 6.995000000000001 6.8850000000000007 3 6.785000000000001 6.7650000000000006 6.8350000000000009 6.6350000000000007 6.745000000000001 2.5000000000000004 3.5000000000000004 5.705000000000001 6.7350000000000012 6.7350000000000012 6.6750000000000007 6.7550000000000008 6.8150000000000004 5.5000000000000009 6.8950000000000005 6.7750000000000012 7.3050000000000006 6.7550000000000008 6.785000000000001 6.7550000000000008 6.705000000000001 5.4750000000000005 6.7550000000000008 5.455000000000001 5.3350000000000009 6.6850000000000014 6.7250000000000005 5.285000000000001 5.785000000000001 5.0450000000000008 5.1650000000000009 6.0050000000000008 6.7650000000000006 6.785000000000001 5.4050000000000011 6.7150000000000007 2.5000000000000004 6.8750000000000009 6.8950000000000005
decision_type=2 9 2 2 2 1 2 2 2 2 2 2 2 2 2 2 2 2 2 2 2 2 2 2 2 2 2 2 2 1 2 2 2 2 2 2 2 2 2 2 2 2 2 2 2 2 1 2 2 2 2 2 2 2 2 2 2 2 2 2 2 2 2 2 2 2 2 2 2 2 2 2 2 2 2 2 2 2 2 2 2 2 2 2 2 2
left_child=2 14 6 4 37 17 19 10 -5 21 -7 12 13 67 15 -2 -10 -6 -19 -1 -21 43 -23 -14 45 -26 27 58 -9 30 76 -32 41 -20 66 -36 -37 -3 -25 -13 -41 42 -31 54 -39 62 47 48 50 -49 -30 -48 -51 -33 56 75 -4 -52 -16 -22 61 -18 64 65 -11 -64 -35 -8 70 -70 71 72 -42 -74 -75 -56 -12 -78 79 81 -81 82 -79 85 -85 -82
right_child=1 3 9 8 5 7 11 28 16 24 29 39 23 -15 26 -17 60 18 33 20 59 22 -24 38 25 -27 -28 -29 46 32 31 53 -34 34 35 36 -38 44 -40 40 68 -43 -44 -45 -46 -47 51 49 -50 52 57 -53 -54 -55 55 -57 -58 -59 -60 -61 -62 -63 63 -65 -66 -67 -68 -69 69 -71 -72 -73 73 74 -76 -77 77 78 -80 80 83 -83 -84 84 -86 -87
leaf_value=-0.0076202763319419137 0.085685452362375611 -0.042415862378765525 0.14908952503629075 -0.055955434156450184 -0.034119098555946401 0.030326329542916409 0.083640216734149925 0.082593136250592641 -0.022121564888533722 0.13089201848772394 0.043086933098972789 0.12928827694891859 0.085005447894437036 0.13003036812143709 0.12247090427669045 0.1571978676166213 -0.034863172664188584 0.039146161153753391 -0.00083390687625692795 0.081053693616209954 0.005045163642053826 0.072243352115873599 0.12022840441594755 -0.0056540165116186506 0.1480133747506126 0.071978348804797476 0.027755658794946108 0.036473891287085496 0.10422474335152708 -0.012912765859657678 0.09043884858945668 0.028238652589383604 0.061739217757681063 -0.01464261582502103 -0.032400440358673295 0.081573112312788618 0.0063126334263022346 -0.029089700763680067 0.040114964210990714 0.032303587674859864 0.13218469326063564 -0.044329515954775467 0.046876991290676205 0.10461737345971896 -0.066276303468385006 0.16748899520240906 -0.024185038606164055 -0.03956224321413563 0.12474212863195888 0.0020367120553914501 -0.018971778566454142 0.016013456603873207 0.05566396928727646 -0.034909021585747158 0.14331148911108035 0.17617589876778655 0.075242364461313202 0.034634906920478346 0.065333715298895478 0.06210208700367268 -0.052536818315104129 -0.059323387291649321 0.092451851858171868 0.17388100742909166 0.1691440661242547 0.12296308861745442 -0.030922436828394264 0.046350385988346586 0.10910466889349689 0.024312873331681275 0.13582242223668689 0.059647520652025839 0.037139117221107257 0.085234714720939075 0.15633556658153275 0.085999335008097672 -0.039671111323757752 -0.048265087374600744 -0.022703436761069909 -0.049212531612573725 -0.033611772375832599 0.045415466937067585 0.027539606138769854 0.04056189771888985 -0.014854184798354476 0.036467806389301173
leaf_weight=14.622376084327696 9.6856792122125626 222.80409286171198 4.7968824058771151 342.38069073855877 73.636932775378227 19.907978862524033 7.6691064238548305 3.6799395382404319 47.011649832129478 68.874077752232552 3.5863182768225661 4.1880828142166129 6.0867962539196006 11.445963025093077 9.2925340682268196 8.4062377661466599 87.192210108041763 6.2522948235273352 32.954830847680569 5.5866094827652004 11.21654726564884 17.838994383811954 9.5659212768077833 6.0730508267879477 4.0601680427789679 8.1222887337207776 5.2259424328804007 5.3350499793887129 3.2597763240337434 128.38921868056059 6.7600937038660041 4.1034071743488294 3.0698315873742095 45.86690317094326 6.3678365051746395 3.0310739874839774 8.2308976501226407 145.71802102774382 32.878594979643822 5.939842775464057 4.6863774657249477 9.7304524704813939 3.450630545616149 29.112093985080719 7.3306062445044509 7.2259484678506842 11.112380355596541 5.8531320840120342 4.6554033905267707 5.5310469865798941 4.4782610684633246 23.262243911623955 9.522134140133856 5.0781641900539398 5.1819296628236788 8.3294896781444532 6.0326047539710999 9.7999560534954053 3.7674790918827048 3.3974929004907599 98.135229215025902 22.148614227771759 11.790841683745382 5.600792482495307 13.529572635889052 42.061402320861816 92.709912016987801 23.125798463821411 3.6885692030191404 5.8287487477064133 4.8258366882801047 12.384365946054457 4.6364260315895107 15.791069820523264 3.4572638422250739 4.5311979353427887 8.2019131109118444 2.952374503016471 12.359074503183363 6.0546029210090628 8.2068052738904971 9.4474530071020109 3.5327439978718758 11.976711861789228 8.6370836570858938 2.7173628434538832
leaf_count=97 59 1826 26 2924 559 136 47 23 344 352 27 24 35 67 56 52 656 42 240 35 71 101 52 38 22 45 35 36 22 927 47 29 23 316 46 22 56 1135 199 35 27 72 25 154 59 39 73 41 31 37 30 158 65 36 28 45 33 66 25 21 755 170 63 28 69 223 664 143 20 34 26 72 27 93 20 24 62 22 87 44 59 67 25 86 65 20
internal_value=-0.00168875 -0.0274986 0.094778 -0.0304823 -0.0190938 -0.00758972 0.058457 0.00321586 -0.0497722 0.122393 -0.0029788 0.0677997 0.0573292 0.0757953 0.074937 0.118913 -0.0414535 -0.0205722 -0.0165201 0.0174876 0.035662 0.108366 0.0889929 0.0400102 0.129819 0.0973193 0.0729794 0.0858273 0.0233182 -0.00576171 0.00352434 0.0344993 -0.0112385 -0.0183601 -0.0220576 0.00526903 0.0265684 -0.0377147 0.032979 0.0817673 0.0785174 -0.0136148 -0.0113479 0.117523 -0.0308708 0.132475 0.0205027 0.0279602 0.0529407 0.0148157 0.0338813 0.00233817 0.0359595 -0.00668721 0.130536 0.14409 0.107953 0.0178216 0.105988 0.0183098 -0.0458339 -0.039818 0.130692 0.121709 0.137172 0.116283 -0.0255341 0.055637 0.0834814 0.0571751 0.0889501 0.0834271 0.0937345 0.0861902 0.0980054 0.116575 -0.00237928 -0.00458019 -0.000211723 0.00498166 -0.0031179 0.0240924 -0.00697076 0.00573126 0.0173428 -0.0161796
internal_weight=2056.98 1622.8 434.183 1581.09 984.22 608.367 187.529 339.316 596.868 246.654 258.162 152.706 87.2793 42.2409 41.7129 18.0919 254.488 269.051 195.414 34.823 20.2006 85.3891 27.4049 45.0384 161.265 12.1825 23.621 18.3951 81.1543 238.254 93.6141 15.9417 144.64 189.161 156.207 17.6298 11.262 375.853 38.9516 65.4266 61.2385 141.57 131.84 57.9842 153.049 149.083 77.4743 43.0997 22.1934 20.9063 17.538 34.3746 15.0532 9.18157 28.8721 18.0426 10.8295 14.2782 13.06 14.614 207.476 109.341 141.857 59.453 82.4037 53.8522 138.577 30.7949 55.2987 9.51732 45.7813 40.9555 28.5711 23.8848 19.2483 9.71313 77.6724 74.0861 65.8842 53.5251 37.5926 15.9326 6.48512 31.538 20.6138 10.9242
internal_count=14917 12482 2435 12219 7370 4350 1131 2405 4849 1304 1859 907 529 257 263 111 1925 1945 1386 224 127 463 153 272 841 67 152 117 546 1723 676 112 1047 1344 1104 124 78 3020 237 378 354 1024 952 310 1194 774 523 292 149 143 118 231 102 65 156 97 59 96 81 92 1581 826 735 314 421 286 980 190 319 54 265 239 167 140 113 52 564 537 475 388 274 114 47 230 151 79
cat_boundaries=0 46 47 48 49
cat_threshold=0 0 0 0 0 0 0 0 0 0 16777216 8192 0 0 0 0 0 0 0 1024 0 8192 0 32 536871424 133152 16 0 0 256 32 9043968 32768 0 0 16 0 4194304 16384 268468224 0 0 16 2048 0 8388608 112080 4212748 2246693
is_linear=0
shrinkage=0.056614


Tree=7
num_leaves=87
num_cat=4
split_feature=3 3 4 4 0 4 4 4 5 6 4 4 6 6 5 5 5 0 4 6 4 4 5 5 0 5 5 4 4 5 6 4 4 5 6 6 5 3 5 5 6 4 4 4 4 5 5 5 4 6 4 5 6 4 6 6 4 4 5 5 5 5 5 5 5 6 5 5 5 3 6 6 3 5 4 4 6 4 5 6 0 4 6 5 4 5
split_gain=1377.8 107.915 107.4 77.876 27.9045 19.464 18.3858 17.1311 12.2392 11.1638 10.5579 9.68793 9.49626 10.6926 9.3142 8.38299 7.88903 7.29229 6.61088 9.44516 12.9983 6.30394 6.54579 8.81362 6.04265 5.96946 8.85455 5.8337 5.84351 5.80905 5.65692 7.49842 6.22612 5.52809 5.37467 5.25828 5.08492 5.02612 4.82793 6.3771 6.53317 4.80824 4.69366 5.4675 4.56566 4.49124 7.23755 4.43673 4.37165 4.12436 7.9536 4.86047 3.91588 4.97133 3.88652 3.81696 4.95462 3.75555 3.74791 3.7432 4.06492 3.6789 3.66196 5.23911 4.72155 5.29733 3.6343 7.97392 4.31144 3.58639 4.84971 4.58649 4.7441 8.2283 5.04943 4.72172 3.5743 3.48316 6.33686 3.45845 4.13533 3.62193 3.34706 3.29974 3.22065 3.49504
threshold=1.5000000000000002 4.5000000000000009 5.5650000000000004 5.4650000000000007 0 5.4850000000000012 4.0150000000000006 7.5700000000000012 34.70000000000001 1.0000000180025095e-35 4.535000000000001 6.5150000000000006 28.145000000000003 24.335000000000004 41.595000000000006 44.245000000000005 40.845000000000006 1 5.1650000000000009 35.600000000000009 4.4250000000000007 6.1250000000000009 29.675000000000004 35.935000000000009 2 33.685000000000009 39.315000000000005 5.0250000000000012 5.4750000000000005 28.805000000000003 37.470000000000006 5.1350000000000007 5.0050000000000008 38.805000000000007 32.985000000000007 25.400000000000002 22.875000000000004 5.5000000000000009 40.040000000000006 41.935000000000009 34.355000000000011 6.6050000000000013 5.3850000000000007 5.1950000000000012 4.3150000000000004 40.655000000000008 38.705000000000005 31.470000000000002 6.5550000000000006 36.940000000000005 6.9050000000000011 35.255000000000003 27.020000000000007 6.3850000000000007 25.545000000000005 18.675000000000004 6.535000000000001 4.8650000000000011 31.925000000000004 25.820000000000004 27.935000000000006 36.965000000000011 30.535000000000004 32.755000000000003 23.48 34.045000000000009 29.975000000000005 21.180000000000003 31.200000000000006 3.5000000000000004 35.550000000000004 31.685000000000006 2.5000000000000004 37.045000000000009 6.3750000000000009 5.995000000000001 38.480000000000011 4.6050000000000013 32.82500000000001 29.425000000000004 3 4.6250000000000009 31.105000000000004 28.455000000000002 3.4550000000000005 31.715000000000003
decision_type=2 2 2 2 1 2 2 2 2 2 2 2 2 2 2 2 2 1 2 2 2 2 2 2 1 2 2 2 2 2 2 2 2 2 2 2 2 2 2 2 2 2 2 2 2 2 2 2 2 2 2 2 2 2 2 2 2 2 2 2 2 2 2 2 2 2 2 2 2 2 2 2 2 2 2 2 2 2 2 2 1 2 2 2 2 2
left_child=2 3 6 10 12 -3 34 11 9 -8 -2 14 13 -5 24 79 47 35 19 29 -21 -4 55 -24 45 66 -27 33 42 -11 31 32 -17 44 54 -13 -14 58 -35 -40 -41 48 43 -29 -10 46 -6 -15 -37 83 -51 -52 -16 -54 -1 -23 59 77 -7 -57 -61 -56 64 -64 -20 -66 67 -19 -68 70 71 -38 73 -73 75 -74 -25 78 -31 -12 81 -81 -48 -43 -36 -86
right_child=1 5 21 4 7 37 8 -9 27 18 15 17 36 16 52 30 -18 25 62 20 -22 22 23 76 -26 26 -28 28 -30 57 -32 -33 -34 38 84 41 69 -39 39 40 -42 49 -44 -45 -46 -47 82 -49 -50 50 51 -53 53 -55 61 56 -58 -59 -60 60 -62 -63 63 -65 65 -67 68 -69 -70 -71 -72 72 74 -75 -76 -77 -78 -79 -80 80 -82 -83 -84 -85 85 -87
leaf_value=0.037059214036120988 -0.039462807834393848 -0.054796256440094886 0.096851140079721981 -0.033120076542285673 0.0059693894294584986 -0.038953565720896102 0.10424457487816474 0.13449440207720775 0.12540321383737579 -0.020282444815719475 -0.037814238796639685 -0.018390462820633158 0.025590342656671951 0.036854191597560829 -0.018913609593240999 0.025499125274723606 -0.029693633126831865 0.064657905646696032 0.028894638256514289 0.1385563210563619 0.031712840805437903 0.14257873893268808 0.13811642752126485 0.10187542514767992 -0.011347236352844183 -0.039462920407253313 0.026456088376005167 0.1269363128338519 0.032883889782823798 0.083880347441353489 -0.044660702408649167 -0.023888867141407373 0.11795780213017537 -0.011810612978245844 -0.0023853148162103761 0.049923296200784575 -0.029829781174527316 -0.042430834372166645 0.10499631072907431 0.064148866885748446 -0.020983479079581844 0.10029031881428227 0.1563319265391932 0.065532423561783987 0.068386957281884264 -0.04511793771012057 0.015389790033128696 0.1170343905526971 0.13714755332124418 -0.039095140883900877 0.096104857580869063 0.0010757980138357769 0.04806346759823605 -0.017302180117215012 -0.04342411103955629 0.030558035639259115 0.10807928969589502 0.057452018033444477 -0.019594760746584769 0.12414624574292796 0.055210523928104834 0.017285728944405512 -0.0047550677592190236 0.073038538207544787 0.13334635697718564 0.050996884067789031 0.10141335781742283 -0.031928727887616137 0.025392526657621792 -0.04060272560714407 -0.035626603789825607 -0.042115192604715371 0.019980956499685499 0.051129343253849012 -0.0027219878665963064 0.11823676584611535 0.13496301149261483 -0.023269255389893058 -0.021741911569821668 0.028621858445156238 -0.028361978878389919 -0.012503999960377475 0.087624775846338959 0.04315571133330097 0.015892961444181345 0.078600491924879654
leaf_weight=5.2445715665817287 239.4072442278266 330.39250640571117 89.974323078989983 8.1022852286696452 81.29834670573473 50.623238146305084 9.8367474824190122 3.5082972049713126 6.8297125250101116 12.177575454115866 60.652438141405582 4.4048085063695899 6.0786421597003928 4.3156141713261587 4.5083783417940131 7.9127224758267456 2.8959901481866828 4.2189245223999041 3.8587703853845623 5.0725259035825756 13.009398221969603 5.1331498473882666 58.210123330354691 55.352911740541458 102.68527647852898 17.226176619529728 10.519652403891085 9.2677641063928693 3.6717853248119345 3.9667772501707095 4.7660738080739966 6.4326032102107993 3.3112321496009827 3.7281821817159679 4.2480935454368618 4.2207161784172049 19.243200041353703 123.10465742647648 6.3614539355039623 8.6869920194149 4.329033136367797 3.6764834374189403 5.3468358963727942 9.3234787732362729 13.204614996910093 4.7742062732577315 3.3133875131607038 4.5377774089574814 3.2674346417188644 5.5526330173015577 3.7030093371868134 3.2296756654977798 23.953680053353313 4.4168872162699691 8.408474534749983 5.7858297675848034 22.445882111787796 8.6697834581136686 87.383853644132614 5.0566521435976011 5.9885461926460266 5.1640403121709815 4.8725184649229032 6.4447232782840729 6.580462381243704 4.0413210690021515 3.2695819586515418 7.8130194097757339 8.8998444676399213 43.641483582556248 38.351045578718185 10.727237597107885 3.2364960610866547 4.2291005998849878 6.8503253757953644 3.0399936139583588 12.903621286153792 5.8149655312299728 3.3649517446756363 7.7447099685668936 112.45655108243227 60.336169637739658 5.4176003634929657 27.281638354063034 4.5794640183448774 7.538014754652977
leaf_count=33 2015 2937 463 59 573 393 55 19 39 75 475 29 45 31 31 59 20 28 22 29 76 26 282 270 737 118 68 51 20 23 34 47 22 22 29 27 139 963 37 51 25 25 28 52 76 33 22 30 21 37 23 22 159 31 54 30 113 50 656 26 31 33 27 34 38 22 20 56 59 319 276 76 24 29 48 22 63 35 20 62 885 467 37 174 29 46
internal_value=-0.00166541 -0.0265003 0.085268 -0.015157 0.000751241 -0.0456665 0.0533264 0.00975047 0.0615463 0.0474152 -0.0308562 0.00874312 -0.0184633 0.0169146 0.00219886 -0.0230398 0.0514182 0.0227955 0.0402367 0.0286267 0.0616857 0.10898 0.115366 0.121932 -0.00244601 0.00289617 -0.0144702 0.079065 0.0993858 0.0110422 0.0100715 0.0248455 0.0527758 0.0660596 0.0163044 0.0346847 -0.025014 -0.0341143 0.0471884 0.0585397 0.0358345 0.0460849 0.109586 0.0961424 0.0878238 0.00759142 0.0112298 0.0779503 0.0879834 0.0388631 0.011395 0.0518344 0.0300985 0.037887 -0.00433152 0.0966676 0.0906674 0.0285271 -0.0266959 0.0674468 0.0867703 -0.0203254 0.0636728 0.0395453 0.0825295 0.102014 0.0240026 0.00193876 0.0458172 -0.0273927 -0.0206639 -0.00853876 0.00605033 -0.0157491 0.030888 0.0675708 0.10813 0.00945213 0.0354042 -0.0261181 -0.0221887 -0.00682338 0.0602118 0.0499408 0.0400316 0.0549019
internal_weight=2045.43 1590.93 454.494 999.429 496.409 591.504 193.643 341.16 158.46 87.7105 503.02 337.651 155.249 19.8517 230.368 263.613 11.7494 107.284 77.8738 52.076 18.0819 260.851 170.877 126.467 197.489 51.9472 27.7458 70.7499 27.6099 33.9941 22.4226 17.6566 11.224 43.14 35.1827 55.3364 135.398 261.112 23.1057 19.3775 13.016 50.9316 23.9381 18.5912 20.0343 94.8035 90.0293 8.85339 7.48815 43.4434 12.4853 6.93269 32.8789 28.3706 18.8171 44.4101 39.2769 21.8165 138.007 16.831 11.0452 13.5725 25.7978 11.3172 14.4806 10.6218 24.2014 12.0319 12.1694 129.319 85.6774 47.3264 28.0832 14.9563 13.1268 6.27649 68.2565 13.1467 7.33173 241.19 180.537 68.0809 8.73099 30.9581 16.3656 12.1175
internal_count=14917 12482 2435 7533 3467 4949 1131 2349 907 506 4066 2330 1118 140 1623 2051 81 707 451 308 105 1304 841 615 1402 349 186 401 151 203 162 128 81 250 224 358 978 2012 135 113 76 329 131 103 115 665 632 61 48 281 82 45 221 190 120 226 200 128 1049 87 57 87 143 61 82 60 163 84 79 933 614 338 199 105 94 46 333 78 43 1889 1414 529 59 199 104 75
cat_boundaries=0 1 2 3 4
cat_threshold=79232 2116149 7358486 379412
is_linear=0
shrinkage=0.056614


Tree=8
num_leaves=87
num_cat=2
split_feature=3 7 3 7 3 5 5 6 2 6 3 2 5 5 6 6 6 6 5 6 5 2 5 2 2 6 6 5 5 5 2 6 6 6 5 5 5 5 6 6 6 6 6 6 3 5 6 2 3 5 6 6 5 6 6 6 5 6 5 2 6 5 2 2 2 5 2 6 6 2 6 6 5 5 5 2 5 5 5 6 6 5 5 5 5 6
split_gain=1198.88 161.584 102.869 28.9926 9.59377 5.79836 7.59734 10.5684 5.78147 5.32498 5.27266 4.71137 6.46043 8.56578 5.02235 7.10499 5.37366 9.77858 4.68247 4.4877 6.50262 4.41252 4.23417 9.53176 4.09812 4.02353 9.20296 4.14867 4.07937 3.95009 3.91791 3.83502 4.5491 6.01441 4.90975 8.48614 3.81353 8.32048 3.61162 3.58599 4.16015 4.18812 3.94895 3.55584 3.54892 4.34148 5.51047 4.27724 3.5221 11.2615 3.69065 3.47001 5.45864 4.93163 4.19799 3.38218 3.95883 3.31253 3.26982 3.23413 3.45205 3.22846 4.45992 4.19117 3.07461 3.06568 3.04174 3.89731 3.02458 3.02021 5.21491 2.98712 3.37576 2.97759 7.95491 2.88059 2.65059 2.62396 3.08796 7.3947 6.00076 3.48397 3.16 2.61239 2.56178 3.27751
threshold=1.5000000000000002 0 4.5000000000000009 1 5.5000000000000009 28.305000000000003 27.795000000000005 30.790000000000003 0.10500000000000002 27.425000000000004 3.5000000000000004 0.045000000000000005 40.465000000000011 41.690000000000005 32.635000000000012 31.925000000000004 31.765000000000004 31.395000000000003 39.910000000000004 32.705000000000005 36.285000000000004 0.025000000000000005 45.925000000000004 0.065000000000000016 0.115 41.555000000000007 41.930000000000007 45.320000000000007 47.560000000000009 26.735000000000003 0.15500000000000003 40.965000000000011 34.280000000000008 33.740000000000002 32.495000000000012 37.245000000000012 43.210000000000008 46.590000000000011 35.205000000000005 32.510000000000012 30.935000000000006 30.155000000000005 45.305000000000007 31.830000000000002 5.5000000000000009 39.315000000000005 37.95000000000001 0.095000000000000015 2.5000000000000004 31.470000000000002 34.095000000000006 34.695000000000007 44.245000000000005 35.375000000000007 33.805000000000007 45.305000000000007 35.935000000000009 29.495000000000001 50.130000000000003 0.015000000000000001 29.640000000000004 43.210000000000008 0.075000000000000025 0.03500000000000001 0.14500000000000005 25.455000000000002 0.025000000000000005 34.395000000000003 32.465000000000011 0.075000000000000025 33.130000000000003 36.380000000000003 35.490000000000002 21.180000000000003 26.205000000000002 0.085000000000000006 39.57500000000001 30.325000000000003 26.975000000000005 32.115000000000002 39.435000000000009 28.100000000000005 29.450000000000006 48.775000000000013 30.420000000000005 31.105000000000004
decision_type=2 9 2 9 2 2 2 2 2 2 2 2 2 2 2 2 2 2 2 2 2 2 2 2 2 2 2 2 2 2 2 2 2 2 2 2 2 2 2 2 2 2 2 2 2 2 2 2 2 2 2 2 2 2 2 2 2 2 2 2 2 2 2 2 2 2 2 2 2 2 2 2 2 2 2 2 2 2 2 2 2 2 2 2 2 2
left_child=5 4 3 48 9 6 29 -8 10 -2 18 12 31 -14 15 16 17 84 73 20 -11 -21 51 -24 -23 27 -27 -10 68 39 55 32 33 34 59 -36 -15 -38 -34 40 41 64 -41 -6 45 -4 -47 -48 49 -3 -51 54 53 -53 61 56 -28 -50 77 -7 -61 62 63 -20 65 -1 -31 -68 -29 71 -71 -16 -73 -5 -75 -17 -76 78 -12 -80 81 -81 -83 -25 -13 -86
right_child=1 2 44 8 43 11 7 -9 25 19 58 14 13 36 69 75 -18 -19 22 21 -22 24 23 83 -26 26 30 28 -30 66 -32 -33 38 -35 35 -37 37 -39 -40 42 -42 -43 -44 -45 -46 46 47 -49 57 50 -52 52 -54 -55 -56 -57 -58 -59 -60 60 -62 -63 -64 -65 -66 -67 67 -69 -70 70 -72 72 -74 74 76 -77 -78 -79 79 80 -82 82 -84 -85 85 -87
leaf_value=0.060645924446184142 0.13278187966051869 -0.025030476604315385 -0.046775363868899855 0.0027598930899787634 -0.020656279337677393 0.083748137111407994 -0.057652979902722279 0.071311752054802779 -0.028668540929497735 0.017010445420496737 -0.024820757524716207 0.044588634756326191 0.011333963371220376 0.11920280773710036 0.054668929960083407 -0.015698032174949979 0.13285481103935071 -0.00029567749069089617 0.0082759606568335847 0.04164932037041915 0.095672778116645055 0.12497824688068115 -0.047923944295749699 -0.014578349461590472 0.069464631375712002 0.083509886154113269 -0.052680455129628122 -0.014045081898575238 -0.024476175725279679 0.051859728868325641 -0.037235449414512831 0.053401706421859083 0.15533895252547592 0.028684310949513816 0.06101761208590871 0.12132828945352682 0.028196942610563179 0.11271572237294875 0.10753788290410751 0.041660590365546327 0.12143029309862646 0.012478690278044805 0.10148421770075493 0.05503596519693385 -0.052274602636201178 -0.038788662760325936 -0.020450609649692066 0.047627555530994875 -0.021412601925816281 0.12158426823047552 0.052270332336302086 0.079046373781079884 0.087583745844895824 -0.00016087100987871334 -0.067223158140825814 0.046310919980402994 0.035304569526580544 0.031426643451390061 0.026189582167344769 0.10052099630510405 0.17007960109660872 -0.023220799413422914 -0.030275981345778691 0.071524157417156509 0.11035970821768526 0.11087671300112095 0.077211664166169161 0.13976463540657963 0.056795196408527919 0.14117830406452439 0.085441879304008594 0.11166739185326609 0.063572920182714182 -0.043234534097072008 -0.01222469113379792 0.044919817282083697 -0.055152455115998589 -0.028769304134459536 -0.040038966414799447 0.10414717674489497 -0.036042452014259124 0.0011748700845127856 0.073096751973684274 0.049679440732300115 0.074120644971126401 0.11660356049493895
leaf_weight=28.846216037869453 7.4385991394519797 3.835404470562934 223.05183539539576 28.240173496305943 3.526371017098425 4.4666776955127707 3.6724143922328931 4.5723883211612701 276.31584238260984 7.1048276424407941 35.337130345404148 8.3457775115966779 6.8351049125194576 6.7832913845777538 19.92544150352478 3.7090482115745527 4.5000933557748786 6.0136217921972266 8.2060591429472058 4.0566430017352131 6.4044110476970673 12.88641530275345 14.151101604104044 3.138822138309477 6.368606634438037 3.3543575182557133 4.0474587455391902 3.1714604645967501 10.38271354883909 3.9120979160070446 13.326396770775316 5.9686590731143943 6.0271012037992469 4.7661077976226798 20.245095640420914 11.857328221201895 7.9195788204669935 7.0625218152999878 31.773392155766487 25.936746373772625 5.4218817800283423 3.8516339361667624 4.0949380397796622 4.5635661482810974 267.37492330372334 45.590271212160587 8.6572322696447355 4.4932123571634284 4.6586962044239071 5.2775824517011625 4.6152422875165939 3.0638820677995744 3.9649037718772879 14.178980261087416 2.8775295093655577 4.4778358936309814 2.754559338092804 20.696285471320152 4.2110314145684233 3.8215645104646665 5.6939667761325836 8.9649010673165304 4.5777786672115317 5.6840381845831862 6.3672650605440131 4.5021513998508444 6.2986583262681943 6.4733094274997711 4.9418647214770317 5.6775470525026313 102.80798496305943 8.8118822425603884 9.9701777249574643 31.66137108951807 237.40044658631086 7.7893848866224289 4.7014237567782393 128.80260124057531 8.5302328541874903 2.6389238685369483 3.6870285645127288 4.9936884716153127 3.2208873406052589 5.7291799858212471 70.984962448477745 6.3404295444488517
leaf_count=153 45 26 1921 214 25 22 22 24 2186 46 283 44 34 33 102 20 22 33 62 27 39 79 104 22 39 24 32 24 77 20 104 30 30 25 103 60 40 35 159 140 29 21 21 32 2374 378 71 38 31 33 30 22 27 105 22 34 21 139 31 20 29 68 35 42 34 23 35 33 34 29 525 43 51 253 1813 40 36 999 68 20 29 39 24 40 369 32
internal_value=-8.7916e-06 -0.0245197 -0.027985 -0.0166996 0.066103 0.0778558 0.0660139 0.0138681 -0.0187238 0.089092 -0.0154956 0.0811115 0.0902005 0.066622 0.0767174 0.0674259 0.072454 0.0694894 -0.0116063 0.0802657 0.0543024 0.0953116 0.00110159 -0.0190847 0.106617 -0.0249844 -0.0044596 -0.026931 -0.000973093 0.0705062 -0.0164517 0.0973276 0.100285 0.0892278 0.0954893 0.0832939 0.0839844 0.0680389 0.11516 0.0652212 0.0746639 0.0688439 0.0498178 0.022042 -0.0476024 -0.0431692 -0.0294758 0.00281017 0.0272511 0.0573205 0.0892476 0.0101212 0.0276865 0.0139135 -0.00216911 0.00810288 -0.0170499 0.021718 -0.0231461 0.123489 0.142144 0.00465466 0.0181863 0.0341581 0.0743103 0.0674273 0.0955373 0.108916 0.0291041 0.0835148 0.0883588 0.0699383 0.0861372 -0.0147428 -0.0165483 0.0253663 -0.0130583 -0.0242558 -0.0143026 0.00180785 0.0263574 0.0475552 0.029375 0.0269354 0.0743879 0.0776041
internal_weight=2013.38 1531.33 1478.99 929.818 52.3494 482.046 103.95 8.2448 890.735 44.2595 567.962 378.097 123.22 28.6005 254.876 107.683 96.1849 91.6848 376.541 36.8209 13.5092 23.3117 74.5372 23.0191 19.255 322.772 27.9606 294.812 18.496 95.7049 24.6063 94.6199 88.6512 50.8507 46.0846 32.1024 21.7654 14.9821 37.8005 79.0208 48.9891 43.5673 30.0317 8.08994 549.167 281.793 58.7407 13.1504 39.0832 13.7282 9.89282 51.5181 21.2078 17.2429 30.3103 11.2799 6.80202 25.355 191.422 13.9822 9.51553 27.4328 18.4679 13.8901 39.7156 33.3484 16.6841 12.772 8.11333 147.193 108.486 38.7075 18.7821 302.003 273.763 11.4984 242.102 187.21 58.4079 23.0708 14.5405 10.8535 8.21458 8.868 85.6712 77.3254
internal_count=14752 12267 11935 7153 332 2485 555 46 6894 275 4358 1930 620 142 1310 560 500 478 2865 230 85 145 549 166 118 2536 215 2321 135 509 191 478 448 259 234 163 108 75 189 421 260 231 161 57 4782 2408 487 109 259 89 63 383 154 127 229 87 53 170 1493 71 49 207 139 104 210 176 88 68 58 750 554 196 94 2316 2102 60 1849 1462 463 180 112 83 63 62 445 401
cat_boundaries=0 40 86
cat_threshold=0 524288 0 4096 0 0 0 1065216 0 1048576 0 8192 8389632 0 0 0 268435456 0 0 4195328 0 8192 33554432 32 0 133120 67108880 0 0 0 32 8912896 0 0 1207959552 16 2147483648 4202496 32768 32768 16777216 0 128 0 1024 0 536870912 0 2097152 0 1073741824 0 0 1342177280 64 0 32784 524288 0 256 8388608 0 8388608 524288 536870912 0 0 512 0 2097152 64 64 0 0 0 0 134742016 0 540672 0 0 0 1048576 2048 0 1024
is_linear=0
shrinkage=0.056614


Tree=9
num_leaves=87
num_cat=0
split_feature=3 3 4 4 4 1 4 4 6 3 4 1 1 1 6 4 4 4 4 2 2 3 1 2 2 4 2 3 4 4 6 6 6 2 1 1 4 1 4 3 1 2 2 4 2 6 4 4 2 4 6 6 2 1 4 1 4 4 1 6 6 1 6 2 4 4 4 1 4 6 6 2 6 1 6 6 4 1 1 4 2 4 2 2 2 6
split_gain=1043.83 108.882 91.4093 50.8998 25.068 14.336 12.9525 11.441 8.99112 7.86801 7.7501 8.26719 7.24257 6.97444 10.9316 6.97636 6.91588 6.75648 6.1986 6.04859 5.95295 5.43282 5.27086 4.99162 4.8923 4.72354 4.67582 7.61592 4.24468 7.22649 5.35666 8.51879 4.35538 4.7694 4.69192 4.21534 4.09954 4.04788 3.87069 5.76172 3.82646 6.87551 3.7113 3.5828 4.10303 3.51722 3.56899 4.4618 3.49313 3.47499 3.33917 5.65215 5.22647 6.94766 4.04211 3.32521 4.70017 5.74195 4.38059 3.32467 9.57316 5.14143 5.03494 3.91156 5.07107 3.84677 7.42882 3.95187 3.72537 5.29358 9.43439 3.37777 3.64919 3.30385 3.28822 3.69649 3.26644 4.28694 3.26497 7.53965 3.68623 3.26339 3.29697 6.82538 3.32184 3.18928
threshold=1.5000000000000002 4.5000000000000009 5.6050000000000013 5.0050000000000008 5.7750000000000012 6.6250000000000009 4.8350000000000009 7.495000000000001 34.925000000000004 3.5000000000000004 5.4250000000000007 6.8850000000000007 6.7650000000000006 6.7550000000000008 38.180000000000007 6.9850000000000012 6.9850000000000012 4.0150000000000006 5.5850000000000009 0.18500000000000003 0.065000000000000016 5.5000000000000009 6.9650000000000007 0.075000000000000025 0.28500000000000009 7.5700000000000012 0.065000000000000016 2.5000000000000004 5.8450000000000006 6.1250000000000009 35.755000000000003 38.010000000000012 26.850000000000005 0.14500000000000005 6.6350000000000007 6.9050000000000011 7.6250000000000009 6.7550000000000008 6.2750000000000012 2.5000000000000004 6.6750000000000007 0.10500000000000002 0.03500000000000001 5.1350000000000007 0.17500000000000002 32.835000000000008 6.4650000000000007 6.745000000000001 0.085000000000000006 6.745000000000001 36.010000000000012 33.260000000000005 0.085000000000000006 6.7150000000000007 6.0050000000000008 6.8850000000000007 5.1850000000000014 5.1150000000000011 6.7950000000000008 34.045000000000009 34.45000000000001 6.7750000000000012 36.725000000000001 0.10500000000000002 5.785000000000001 6.2350000000000012 5.8050000000000006 6.8450000000000006 5.3650000000000011 30.865000000000006 32.055000000000007 0.10500000000000002 29.040000000000003 6.705000000000001 29.100000000000005 28.245000000000001 6.5650000000000004 6.705000000000001 6.7350000000000012 5.955000000000001 0.055000000000000007 6.3150000000000004 0.115 0.22500000000000003 0.10500000000000002 25.400000000000002
decision_type=2 2 2 2 2 2 2 2 2 2 2 2 2 2 2 2 2 2 2 2 2 2 2 2 2 2 2 2 2 2 2 2 2 2 2 2 2 2 2 2 2 2 2 2 2 2 2 2 2 2 2 2 2 2 2 2 2 2 2 2 2 2 2 2 2 2 2 2 2 2 2 2 2 2 2 2 2 2 2 2 2 2 2 2 2 2
left_child=2 3 6 17 -3 21 8 9 35 10 43 13 50 15 18 28 20 -2 23 -10 -13 -6 48 -15 40 81 74 45 30 -30 -12 -32 -31 34 -34 -1 -9 -38 -22 -40 41 42 -11 44 -5 -28 -47 -48 -19 -29 51 54 53 -53 -7 56 57 58 -8 65 -61 62 -62 -63 -65 66 68 71 69 -42 -71 72 -68 -35 75 -20 77 -36 -64 -80 -81 82 84 85 -4 -84
right_child=1 4 25 7 5 12 55 36 19 24 11 16 -14 14 -16 -17 -18 22 26 -21 38 -23 -24 -25 -26 -27 27 49 29 32 31 -33 33 73 76 -37 37 -39 39 -41 59 -43 -44 -45 -46 46 47 -49 -50 -51 -52 52 -54 -55 -56 -57 -58 -59 -60 60 61 63 78 64 -66 -67 67 -69 -70 70 -72 -73 -74 -75 -76 -77 -78 -79 79 80 -82 -83 83 -85 -86 -87
leaf_value=0.011461118980329489 -0.041025930734448608 -0.053132080577780488 0.081748963828805477 -0.0051131219675134773 0.099521992224370776 -0.066292505843604035 0.078975516848688615 0.088381359680167748 0.041531137233654793 0.0083347023414021247 -0.026134058221364307 0.038855083003922625 -0.039137972420928577 0.10076621235295093 -0.039174676139474687 -0.032612076351315494 0.085793468788721197 -0.014884974676769807 -0.0089773893932528961 0.10129700524985957 -0.016652160529068538 -0.0007391893399049923 -0.054987419327037393 0.01147869594580762 -0.066821116678160666 0.13498151676138501 -0.0309764072728736 0.017348665255367851 0.04898904940838221 0.056129539886502988 0.088296561878803081 -0.017904677925793724 0.061613853377660982 -0.058737587494526386 -0.032337249968768106 0.048182978103276576 0.064066895642056781 -0.015861181676283261 0.076836248723295503 -0.016286521558041181 -0.036021781049316644 -0.029368090724132084 0.075794012657711948 -0.02238859335825177 0.065070611666368156 -0.016467403107209615 0.084459154635092903 -0.011389472790414613 -0.029105137104673981 0.065668197389828917 -0.034641757569882733 0.11421324331107401 -0.017327344914197653 0.0039407480890646203 -0.012342599427961495 0.032600055053832427 0.050361158328229266 0.12892299030760765 0.029686783596174052 0.071855542574048664 0.04440714403043957 -0.033381079318715791 -0.027882931583667891 -0.051291735155214291 0.027264791571320873 -0.03557155623585577 0.059111301749476083 -0.02519860376460735 -0.045220616622867957 0.1186848532462068 -0.018150556783211244 0.081041377305339099 -0.0091452036838920881 0.0039050613520825229 -0.02457440569701393 0.064342780065994379 0.026965050716347781 0.019739221960832772 0.086508064137783933 -0.067453089574765077 0.017263071122010819 0.096629337198858134 0.071572760688364892 0.050401778145287464 0.03864406695254427 0.12262738888628069
leaf_weight=59.318901963531971 109.02613546699286 341.28939464688301 90.988059505820274 23.772617377340797 3.6404267102479926 5.1685223057866088 24.754738122224808 5.2787711769342414 34.032654568552971 5.0833218544721621 14.93420358002186 23.721394270658493 126.3672509342432 3.3510535955429059 27.697587192058563 10.503418937325476 5.4447509944438925 115.18344765156507 8.4707885980606061 6.4572193771600714 16.565742857754234 3.3047350496053696 16.393434792757034 5.0027929022908211 5.224405772984027 7.9818949848413459 16.635628178715709 27.053668715059757 22.873729139566422 6.2458782941102973 4.2350694462656957 5.651114284992218 5.8958372622728339 5.3960835859179479 10.73367825895548 12.055324181914328 4.0816708058118802 4.0418969094753265 4.2621962800621969 4.256000392138958 9.4119845181703585 7.0304336100816718 5.3807445243000984 56.263826049864292 3.0075687095522872 8.7807525619864446 3.3189177811145774 2.93160080909729 106.61636450141668 5.7916618064045897 22.986490987241268 3.406691908836363 5.6822653114795685 3.9599205181002617 32.070301473140717 14.647396728396414 50.246065318584442 5.7389553636312476 7.5397029370069495 4.8279734328389159 8.5489213541150111 31.499700717628002 11.307992123067381 3.7468582466244689 8.8660620078444463 36.229859173297882 4.0049703568220156 5.3540185987949362 18.096659556031227 2.4504133462905875 4.7368090003728867 3.4050998464226714 6.7275755032896996 5.3980520963668823 37.406392179429531 2.9789376482367507 15.160475283861159 9.5961244031786901 3.3071494624018651 2.804939866065979 3.9852599501609802 145.51095388829708 4.8141230344772366 7.0648309141397467 6.115376576781272 21.15422548353672
leaf_count=342 982 3236 431 185 24 42 130 33 187 35 109 168 1045 24 204 69 36 951 58 37 121 23 142 37 41 34 119 192 155 41 27 41 35 37 73 69 23 25 29 29 77 49 35 445 24 64 23 20 899 38 182 25 44 30 249 79 255 29 41 34 62 236 83 30 63 259 29 40 138 20 39 24 49 37 266 21 100 67 25 21 29 665 23 36 29 98
