tree
version=v4
num_class=1
num_tree_per_iteration=1
label_index=0
max_feature_idx=11
objective=lambdarank
feature_names=venue_code exhibition_time exhibition_start_timing pred_course nat_win_rate motor_rate boat_rate racer_id exhibition_time_z nat_win_rate_z win_rate_diff_b1 racer_target_enc
feature_infos=-1:4:7:9:18:2:21:20:10:8:17:0:22:6:5:3:11:19:12:1 [0:8.0999999999999996] [0:0.83999999999999997] [1:6] [0:8.4499999999999993] [0:63.890000000000001] [0:54.390000000000001] -1:941:24:87:414:869:50:175:205:425:433:471:481:531:602:680:757:792:962:1215:70:97:127:177:219:332:430:438:447:472:539:599:753:775:779:842:1157:1357:1359:123:197:276:444:520:556:572:628:830:854:863:978:1119:1158:1332:1344:1356:1371:1372:1444:2:74:125:277:293:312:348:364:386:391:402:475:477:493:547:621:658:694:725:731:745:850:861:889:961:1026:1109:1154:1226:1228:1378:1381:65:136:300:316:335:421:431:456:561:730:798:856:864:887:896:1000:1100:1151:1152:1361:1364:1387:19:46:48:75:80:230:263:275:294:298:344:363:392:404:409:415:542:559:574:598:618:652:701:796:799:818:849:851:965:1064:1092:1153:1232:1345:1443:1446:1451:1505:31:49:68:92:109:130:225:317:407:416:503:507:512:519:526:575:580:619:646:655:675:741:758:808:870:976:984:994:1001:1031:1040:1144:1199:1204:1220:1327:1391:1421:32:94:255:367:377:435:484:499:538:601:677:698:797:829:868:879:915:919:936:958:987:999:1062:1192:1225:1265:1275:1336:1389:1405:1457:16:25:37:45:47:103:172:194:217:273:304:306:338:379:399:418:423:452:540:610:638:686:750:763:816:824:845:873:877:934:940:1002:1018:1052:1110:1174:1201:1252:1255:1269:1337:1430:1494:1547:12:36:142:160:180:193:272:302:371:388:485:488:504:530:562:570:605:633:647:668:697:724:765:766:774:812:821:953:1053:1061:1066:1095:1101:1102:1155:1168:1306:1314:1341:1432:1472:29:51:135:141:173:187:198:211:220:221:280:314:352:356:359:378:383:412:464:489:505:533:585:597:661:665:673:683:693:716:734:747:790:801:866:893:932:985:1021:1113:1166:1188:1222:1287:1298:1309:1312:1352:1521:1552:21:72:88:126:129:149:156:161:169:192:196:204:227:231:247:248:274:309:318:321:341:346:360:366:400:410:411:441:443:466:482:494:557:560:587:603:609:611:627:634:657:664:708:714:756:761:772:776:794:802:819:897:918:920:949:996:1059:1104:1145:1161:1178:1185:1218:1246:1258:1278:1284:1286:1322:1342:1347:1369:1390:1392:1395:1412:1431:1452:1462:1477:1507:1511:1:6:52:73:107:121:128:138:163:179:233:237:238:243:244:266:270:291:329:330:333:347:373:374:375:380:384:405:427:442:468:478:497:523:532:536:537:573:576:578:607:624:649:653:667:670:672:681:688:689:710:739:759:764:814:822:828:834:839:841:905:908:939:945:952:1019:1027:1063:1075:1079:1085:1132:1133:1137:1143:1163:1164:1236:1253:1266:1282:1297:1305:1343:1358:1360:1373:1377:1427:1439:1488:1496:1504:14:18:27:28:54:77:79:81:93:105:131:155:159:174:181:185:213:232:245:258:262:284:307:311:327:345:368:369:385:389:394:417:439:450:457:458:463:469:479:487:545:546:577:581:589:592:596:600:614:616:660:666:678:695:704:706:719:722:742:749:768:771:781:815:825:837:857:859:872:874:878:902:917:922:937:957:967:983:1007:1035:1044:1047:1090:1094:1107:1118:1120:1126:1156:1160:1187:1189:1205:1209:1242:1256:1290:1296:1318:1339:1394:1454:1499:1549:4:7:17:39:44:62:106:116:120:124:143:190:207:208:212:226:246:301:323:336:340:362:408:422:461:480:490:491:508:514:521:529:548:550:553:564:569:623:696:721:727:732:735:736:737:769:773:777:803:820:838:846:847:848:855:871:875:876:884:900:909:933:935:972:1003:1008:1017:1022:1033:1055:1057:1086:1091:1105:1125:1139:1208:1214:1233:1271:1279:1300:1321:1376:1380:1420:1433:1447:1464:1489:1515:1517:1544:13:40:43:67:71:82:100:114:150:168:209:239:278:282:297:305:349:403:426:460:473:474:498:502:516:586:588:608:615:622:632:635:702:720:740:754:782:804:833:835:844:852:888:891:906:907:910:929:931:944:977:989:993:997:1010:1013:1023:1049:1070:1072:1081:1084:1115:1116:1117:1130:1131:1141:1146:1150:1159:1169:1170:1175:1176:1177:1179:1181:1213:1219:1264:1272:1277:1338:1404:1411:1437:1442:1455:1466:1475:1518:1530:10:22:23:60:69:76:98:122:137:139:171:228:229:253:254:256:267:269:292:299:354:376:432:446:451:454:459:492:495:496:501:518:535:558:582:593:594:620:630:650:690:712:728:770:817:890:892:904:913:925:930:979:1004:1012:1030:1036:1078:1123:1135:1140:1172:1210:1211:1244:1254:1260:1262:1281:1291:1308:1418:1419:1449:1492:1497:1527:1533:1538:0:38:146:148:164:178:287:296:325:351:358:393:506:527:534:544:563:568:591:642:643:645:733:755:823:827:903:959:963:991:1056:1069:1106:1114:1198:1241:1330:1374:1398:1416:1465:1482:1490:1498:1535:55:58:89:95:99:111:112:154:199:203:215:223:236:241:252:283:303:339:390:445:656:682:743:762:793:811:927:948:986:1041:1054:1073:1074:1082:1121:1206:1227:1240:1270:1293:1333:1399:1400:1529:3:42:104:144:147:152:158:170:183:186:189:261:288:290:350:357:372:395:429:465:554:631:648:659:711:787:795:901:1034:1077:1108:1128:1136:1138:1243:1245:1365:1368:1379:1401:1409:1510:1516:1525:61:102:115:119:134:157:188:240:271:355:361:370:387:437:453:483:486:524:555:604:612:639:703:729:752:760:780:836:862:881:899:911:921:924:926:938:943:947:951:954:970:980:982:1009:1014:1038:1173:1182:1194:1195:1212:1230:1249:1251:1259:1263:1267:1268:1276:1325:1363:1383:1445:1463:1467:1476:1478:1487:1520:1539:5:35:56:78:84:86:101:108:118:132:133:145:176:182:195:206:259:289:313:322:324:381:397:424:449:455:462:509:522:549:552:571:579:583:595:669:687:700:717:726:746:783:784:809:813:826:832:865:883:885:886:894:916:923:946:960:966:969:998:1016:1024:1050:1060:1068:1083:1098:1103:1124:1127:1129:1149:1162:1167:1180:1191:1221:1231:1261:1280:1285:1288:1299:1303:1315:1349:1350:1367:1384:1385:1396:1397:1403:1424:1453:1469:1534:1540:1542:1548:15:53:57:64:66:91:153:210:216:235:250:251:268:315:319:382:396:419:434:436:476:515:517:541:636:640:663:684:692:705:707:709:713:718:785:800:853:858:898:912:950:955:956:973:1020:1025:1032:1037:1043:1065:1071:1096:1099:1148:1165:1186:1197:1200:1202:1207:1216:1250:1257:1273:1295:1311:1313:1316:1323:1328:1366:1375:1386:1425:1434:1440:1441:1456:1460:1461:1468:1473:1480:1493:1506:1508:1509:1513:1531:1537:1545:9:83:85:117:162:222:224:265:279:320:337:342:401:413:500:510:511:528:567:584:613:637:644:679:691:748:789:806:807:831:968:974:1005:1006:1042:1046:1048:1134:1229:1239:1301:1302:1310:1326:1354:1370:1388:1410:1414:1422:1428:1470:1474:1502:1522:1523:1524:1532:1536:8:26:41:110:151:165:218:295:310:470:543:565:566:629:641:662:671:674:685:738:767:895:914:988:1011:1051:1067:1076:1088:1089:1093:1097:1171:1184:1196:1223:1224:1237:1238:1248:1307:1335:1353:1362:1406:1407:1408:1417:1429:1450:1481:1485:1541:1546:20:30:33:113:167:202:234:242:249:264:286:328:406:525:625:744:751:810:840:990:1028:1111:1147:1247:1289:1292:1319:1382:1435:1491:1528 [-2.0412414523190252:2.034381398162715] [-2.0226519115099069:2.0197588131742683] [-6.5:6.7400000000000002] [0.047609523809523803:0.52082291666666658]
tree_sizes=3540 4388

Tree=0
num_leaves=32
num_cat=0
split_feature=3 10 3 4 3 10 10 10 4 3 8 9 8 8 8 8 9 9 10 9 8 3 1 8 11 1 3 5 9 8 9
split_gain=2467.43 300.663 172.843 107.49 79.819 32.955 30.7721 29.6964 26.8193 23.0273 15.9821 15.5406 11.4772 10.1155 8.69567 7.73063 7.66518 7.15724 7.12225 6.96546 6.90208 6.49012 6.31636 5.42743 5.05989 4.98547 4.71586 4.57417 4.37159 4.21268 4.42754
threshold=1.5000000000000002 0.64000000000000001 3.5000000000000004 5.2950000000000008 4.5000000000000009 -0.92500000000000016 1.7050000000000001 -1.095 3.5250000000000004 4.5000000000000009 -0.50767629699978734 -0.18901299856157214 -1.3614328506688154 -0.56796183424709124 0.031861967876795808 -1.2003518760954168 0.22223327845080418 0.81437854000343801 1.4800000000000004 0.9912812420431969 0.35300225480911246 2.5000000000000004 6.7650000000000006 -1.2842435450580356 0.098921588254921602 6.7350000000000012 2.5000000000000004 27.935000000000006 0.44618856269892598 0.19673718583558222 0.26729804747769459
decision_type=2 2 2 2 2 2 2 2 2 2 2 2 2 2 2 2 2 2 2 2 2 2 2 2 2 2 2 2 2 2 2
left_child=3 2 5 8 6 20 13 -4 24 14 16 15 -6 -3 -9 27 -7 -5 -14 -8 -2 -12 23 -11 -1 -20 28 -10 -15 -13 -31
right_child=1 4 7 17 12 10 19 9 11 22 21 29 18 26 -16 -17 -18 -19 25 -21 -22 -23 -24 -25 -26 -27 -28 -29 -30 30 -32
leaf_value=-0.050233301941711751 -0.04418068527376684 0.02571790643175579 -0.096958822337021175 0.087135110673267666 0.015322720807942043 -0.016398091896677191 0.025986456913628716 -0.036042316182085546 0.0086912823580411001 -0.03939797248088904 -0.018565804902404909 0.076332358735393915 -0.05860981193878409 -0.025802155200776469 -0.066670444896605452 0.037056083001009134 0.021136382597896769 0.10053857605786527 -0.003821642273233835 0.061290187892856299 -0.069635145063851558 -0.042551633214806442 -0.090195091964521121 -0.076782009219699451 0.012640538866808456 -0.04337925412392242 -0.017181867970031548 0.081803913280347723 0.022339788186354129 0.036513347177268098 0.082316097963150731
leaf_weight=10.074891604483129 107.5057532582432 51.628669084981084 309.05187812447548 299.48006301373243 13.141808794811366 39.617162279784679 33.934539627283812 70.627203864976764 3.7705895751714733 17.398093096911907 93.697821285575628 105.88912636786699 68.571308087557554 9.7093513160943967 71.203227106481791 149.64593268930912 43.842457009479403 310.26378092169762 19.794991521164775 57.768369819968939 65.616602640599012 79.985833246260881 157.52487471327186 101.61039467714727 9.5245373621582967 31.706981740891933 69.374355738982558 24.811068184673786 28.083606136962771 24.043765652924776 12.153152182698248
leaf_count=63 1509 629 3850 1213 145 512 431 933 21 206 1206 453 925 129 987 741 519 1182 241 621 961 1171 1995 1288 51 433 973 103 333 123 53
internal_value=2.99104e-11 -0.0483145 -0.0640403 0.0784197 -0.000869203 -0.032968 0.0197012 -0.0824196 0.0505514 -0.0716792 -0.0189236 0.0548487 -0.03955 0.00322842 -0.0514186 0.0426853 0.00331927 0.0939554 -0.0455557 0.0482261 -0.0538284 -0.0296119 -0.0820706 -0.0713168 -0.0196791 -0.0281751 -0.00760606 0.0721586 0.00997169 0.070106 0.0518917
internal_weight=2491.05 1541.4 1157.68 949.657 383.714 430.266 250.499 727.416 339.913 418.364 257.143 320.314 133.215 158.796 141.83 178.228 83.4596 609.744 120.073 91.7029 173.122 173.684 276.533 119.008 19.5994 51.502 107.167 28.5817 37.793 142.086 36.1969
internal_count=24000 19997 15137 4003 4860 5878 3116 9259 1608 5409 3408 1494 1744 2064 1920 865 1031 2395 1599 1052 2470 2377 3489 1494 114 674 1435 124 462 629 176
is_linear=0
shrinkage=0.0618472


Tree=1
num_leaves=32
num_cat=7
split_feature=3 9 9 3 3 7 7 0 9 9 7 7 8 10 9 8 9 1 8 8 5 9 9 8 3 8 7 8 9 0 11
split_gain=2990.25 946.835 342.606 308.814 247.361 159.451 120.869 71.7261 70.9743 55.6074 54.8534 49.7827 41.9588 40.4861 38.4762 33.8937 31.3286 28.5055 27.7222 24.4589 24.3355 24.0498 23.9382 22.0054 21.8488 22.9055 21.3344 22.1372 19.5356 24.0936 18.711
threshold=1.5000000000000002 0.25625973187027035 0.11364584972558743 4.5000000000000009 4.5000000000000009 0 1 2 -0.65692269369289091 1.0649206874161059 3 4 -0.78457951435547901 1.4800000000000004 -0.57790809167643487 0.12117874323509846 -0.15913492831828668 6.7350000000000012 0.79291880927067904 -0.92577433845478674 34.205000000000005 -1.0815694854240299 0.61892661855151843 -1.3055230437051242 5.5000000000000009 -1.2171888408061375 5 1.0000000180025095e-35 0.94243200224238188 6 0.090410153256704998
decision_type=2 2 2 2 2 9 9 1 2 2 9 9 2 2 2 2 2 2 2 2 2 2 2 2 2 2 9 2 2 1 2
left_child=2 3 7 6 5 -3 21 15 26 24 -7 -12 -10 18 -5 20 19 -11 -13 -9 -1 -2 -4 -16 25 -6 -8 -28 29 -15 -17
right_child=1 4 22 14 9 10 8 16 12 17 11 13 -14 28 23 30 -18 -19 -20 -21 -22 -23 -24 -25 -26 -27 27 -29 -30 -31 -32
leaf_value=0.043989566113209012 -0.05376473352643784 0.070026447937648062 0.072022067366164275 -0.081836936124048854 0.018678162087339977 0.041874525932790681 0.0081637678030392936 0.036825224738846189 -0.0017840998966627264 0.017574245360575027 -0.030054338177122001 0.0067324596556273342 -0.03104598883766652 0.025549717943697255 -0.019385780491644404 -0.015798033029764624 0.042390241556273765 -0.023282761076409957 -0.018171749583405845 -0.0030825016111818595 0.077624451833699343 0.047972329567963289 0.08990637522117359 -0.063126014787068294 -0.0549266858587001 -0.035262751706966945 -0.040758988956641713 -0.06204468462212815 0.032321670452182316 -0.0173751550210683 0.038301324966379162
leaf_weight=150.38593968003988 9.8913364261388761 169.61892995238304 447.99739328026772 628.33959662169218 34.63518387824297 166.64277301728725 28.837052866816521 75.720322281122208 235.15925308316946 120.47994876652956 128.84868909418583 923.1221107840538 923.65985990315676 103.18012587726116 48.692727945744991 31.547573059797287 122.36680705845356 142.66442953422666 209.83417865633965 262.01934641599655 181.6894613802433 87.599519953131676 793.04509915411472 456.04779244214296 209.87086119502783 230.58846470713615 367.13701920211315 380.67049078643322 322.70575432479382 81.217749938368797 108.75760358572006
leaf_count=266 35 310 799 2921 98 348 89 135 644 344 341 2589 3139 211 166 60 215 545 659 470 288 217 1576 2052 858 988 1237 1487 541 178 194
internal_value=1.6662e-11 -0.0224845 0.062166 -0.0457495 0.00342014 0.0142226 -0.0313291 0.0338386 -0.0346247 -0.0273842 0.00892438 0.00560232 -0.0251079 0.00856879 -0.0716223 0.0505537 0.0152474 -0.00457649 0.00211997 0.0058647 0.0623923 0.0341475 0.0834504 -0.0589064 -0.0400168 -0.0282187 -0.0492705 -0.0509136 0.0231455 0.00708684 0.0261371
internal_weight=8182.97 6009.44 2173.53 3166.03 2843.41 2105.17 2032.95 932.487 1935.46 738.239 1935.55 1768.91 1158.82 1640.06 1133.08 472.381 460.106 263.144 1132.96 337.74 332.075 97.4909 1241.04 504.741 475.095 265.224 776.645 747.808 507.104 184.398 140.305
internal_count=24000 19997 4003 11987 8010 5177 6848 1628 6596 2833 4867 4519 3783 4178 5139 808 820 889 3248 605 554 252 2375 2218 1944 1086 2813 2724 930 389 254
cat_boundaries=0 44 90 91 136 179 216 217
cat_threshold=0 262144 0 0 0 8192 0 0 1048576 0 0 524288 256 516 32768 0 67108864 528384 0 256 0 0 0 33554432 67110912 524288 0 0 0 0 2 32768 67584 33554432 2147483648 1 67108866 256 1536 66560 0 0 0 32 536870912 131072 0 0 0 1 0 128 0 0 128 0 0 67108864 2147483648 0 0 16384 0 2048 0 0 1048576 8 0 16779272 512 8192 0 0 0 134217728 0 256 0 16777216 41943040 163840 0 4096 0 0 0 32768 0 33554432 661456 4096 0 0 0 1024 0 0 0 0 0 0 33556480 4 268451841 0 0 0 1048576 33554432 1048576 0 256 0 135282688 16777344 0 4718592 32 0 131152 8388612 0 0 0 33554432 0 0 0 0 8388608 0 2684354560 2 65536 16 0 8192 0 2684354560 0 0 0 0 0 0 32768 32768 1073741824 2147518464 16777472 16 524288 0 0 8192 301989888 4210688 0 0 0 4096 0 536870912 0 0 0 67108864 0 0 2097152 33554432 0 1073741824 0 0 2048 0 33554432 0 268500992 8388608 0 0 0 0 0 0 0 0 0 0 0 0 16777216 131200 0 0 524288 0 2048 0 0 0 0 0 0 0 0 0 0 0 0 0 0 4 1835437
is_linear=0
shrinkage=0.0618472


end of trees

feature_importances:
exhibition_time_z=15
nat_win_rate_z=15
pred_course=10
win_rate_diff_b1=6
racer_id=5
exhibition_time=3
venue_code=2
nat_win_rate=2
motor_rate=2
racer_target_enc=2

parameters:
[boosting: gbdt]
[objective: lambdarank]
[metric: ndcg]
[tree_learner: serial]
[device_type: cpu]
[data_sample_strategy: bagging]
[data: ]
[valid: ]
[num_iterations: 100]
[learning_rate: 0.0618472]
[num_leaves: 32]
[num_threads: 0]
[seed: 0]
[deterministic: 0]
[force_col_wise: 0]
[force_row_wise: 0]
[histogram_pool_size: -1]
[max_depth: -1]
[min_data_in_leaf: 20]
[min_sum_hessian_in_leaf: 0.001]
[bagging_fraction: 1]
[pos_bagging_fraction: 1]
[neg_bagging_fraction: 1]
[bagging_freq: 0]
[bagging_seed: 3]
[bagging_by_query: 0]
[feature_fraction: 0.903395]
[feature_fraction_bynode: 1]
[feature_fraction_seed: 2]
[extra_trees: 0]
[extra_seed: 6]
[early_stopping_round: 0]
[early_stopping_min_delta: 0]
[first_metric_only: 0]
[max_delta_step: 0]
[lambda_l1: 0]
[lambda_l2: 0]
[linear_lambda: 0]
[min_gain_to_split: 0]
[drop_rate: 0.1]
[max_drop: 50]
[skip_drop: 0.5]
[xgboost_dart_mode: 0]
[uniform_drop: 0]
[drop_seed: 4]
[top_rate: 0.2]
[other_rate: 0.1]
[min_data_per_group: 100]
[max_cat_threshold: 32]
[cat_l2: 10]
[cat_smooth: 10]
[max_cat_to_onehot: 4]
[top_k: 20]
[monotone_constraints: ]
[monotone_constraints_method: basic]
[monotone_penalty: 0]
[feature_contri: ]
[forcedsplits_filename: ]
[refit_decay_rate: 0.9]
[cegb_tradeoff: 1]
[cegb_penalty_split: 0]
[cegb_penalty_feature_lazy: ]
[cegb_penalty_feature_coupled: ]
[path_smooth: 0]
[interaction_constraints: ]
[verbosity: -1]
[saved_feature_importance_type: 0]
[use_quantized_grad: 0]
[num_grad_quant_bins: 4]
[quant_train_renew_leaf: 0]
[stochastic_rounding: 1]
[linear_tree: 0]
[max_bin: 255]
[max_bin_by_feature: ]
[min_data_in_bin: 3]
[bin_construct_sample_cnt: 200000]
[data_random_seed: 1]
[is_enable_sparse: 1]
[enable_bundle: 1]
[use_missing: 1]
[zero_as_missing: 0]
[feature_pre_filter: 1]
[pre_partition: 0]
[two_round: 0]
[header: 0]
[label_column: ]
[weight_column: ]
[group_column: ]
[ignore_column: ]
[categorical_feature: 0,7]
[forcedbins_filename: ]
[precise_float_parser: 0]
[parser_config_file: ]
[objective_seed: 5]
[num_class: 1]
[is_unbalance: 0]
[scale_pos_weight: 1]
[sigmoid: 1]
[boost_from_average: 1]
[reg_sqrt: 0]
[alpha: 0.9]
[fair_c: 1]
[poisson_max_delta_step: 0.7]
[tweedie_variance_power: 1.5]
[lambdarank_truncation_level: 30]
[lambdarank_norm: 1]
[label_gain: ]
[lambdarank_position_bias_regularization: 0]
[eval_at: ]
[multi_error_top_k: 1]
[auc_mu_weights: ]
[num_machines: 1]
[local_listen_port: 12400]
[time_out: 120]
[machine_list_filename: ]
[machines: ]
[gpu_platform_id: -1]
[gpu_device_id: -1]
[gpu_use_dp: 0]
[num_gpu: 1]

end of parameters

pandas_categorical:[["1", "10", "11", "12", "13", "14", "15", "16", "17", "18", "19", "2", "20", "21", "22", "23", "24", "3", "4", "5", "6", "7", "8"], ["2538", "2878", "3024", "3054", "3070", "3072", "3075", "3081", "3105", "3107", "3156", "3158", "3159", "3161", "3175", "3176", "3202", "3207", "3212", "3224", "3226", "3232", "3233", "3246", "3251", "3256", "3257", "3265", "3268", "3277", "3282", "3284", "3286", "3289", "3293", "3294", "3297", "3300", "3302", "3303", "3304", "3305", "3306", "3313", "3319", "3327", "3333", "3334", "3339", "3340", "3349", "3350", "3352", "3353", "3355", "3357", "3361", "3362", "3370", "3372", "3377", "3381", "3385", "3388", "3392", "3401", "3406", "3411", "3412", "3415", "3422", "3430", "3432", "3434", "3435", "3436", "3439", "3441", "3442", "3444", "3445", "3448", "3454", "3455", "3458", "3459", "3461", "3463", "3467", "3470", "3471", "3473", "3474", "3475", "3477", "3478", "3482", "3484", "3489", "3497", "3499", "3502", "3503", "3505", "3507", "3508", "3509", "3514", "3516", "3517", "3518", "3519", "3523", "3527", "3528", "3535", "3539", "3541", "3542", "3543", "3544", "3546", "3548", "3550", "3551", "3554", "3556", "3557", "3558", "3562", "3563", "3564", "3566", "3567", "3568", "3569", "3572", "3574", "3576", "3577", "3578", "3579", "3580", "3581", "3582", "3583", "3584", "3587", "3589", "3590", "3591", "3596", "3602", "3604", "3605", "3606", "3611", "3612", "3613", "3614", "3615", "3616", "3617", "3618", "3619", "3620", "3621", "3623", "3627", "3629", "3630", "3635", "3637", "3641", "3642", "3643", "3645", "3647", "3652", "3653", "3654", "3655", "3656", "3659", "3660", "3661", "3662", "3663", "3664", "3679", "3680", "3681", "3684", "3685", "3686", "3687", "3690", "3692", "3696", "3699", "3701", "3703", "3704", "3708", "3710", "3711", "3712", "3713", "3714", "3715", "3716", "3717", "3718", "3719", "3721", "3722", "3726", "3730", "3731", "3737", "3740", "3741", "3742", "3744", "3745", "3746", "3747", "3748", "3752", "3757", "3761", "3769", "3771", "3772", "3773", "3775", "3776", "3777", "3778", "3779", "3783", "3784", "3787", "3788", "3790", "3792", "3793", "3796", "3797", "3800", "3801", "3804", "3805", "3807", "3808", "3811", "3812", "3813", "3814", "3820", "3822", "3825", "3826", "3827", "3828", "3831", "3833", "3834", "3837", "3838", "3839", "3841", "3842", "3843", "3845", "3848", "3849", "3850", "3851", "3852", "3853", "3854", "3857", "3859", "3860", "3863", "3866", "3867", "3868", "3869", "3870", "3871", "3872", "3874", "3875", "3876", "3878", "3880", "3882", "3885", "3888", "3889", "3891", "3892", "3893", "3895", "3896", "3897", "3898", "3900", "3901", "3904", "3905", "3906", "3907", "3908", "3909", "3910", "3911", "3912", "3915", "3918", "3920", "3922", "3928", "3929", "3930", "3931", "3932", "3933", "3934", "3935", "3940", "3941", "3942", "3944", "3945", "3946", "3947", "3948", "3949", "3950", "3951", "3952", "3955", "3957", "3959", "3960", "3961", "3963", "3964", "3965", "3966", "3967", "3968", "3973", "3974", "3975", "3976", "3977", "3978", "3981", "3982", "3983", "3984", "3986", "3987", "3988", "3989", "3990", "3992", "3993", "3994", "3995", "3997", "3998", "3999", "4000", "4002", "4003", "4004", "4006", "4007", "4009", "4010", "4011", "4012", "4013", "4014", "4015", "4016", "4017", "4019", "4020", "4022", "4023", "4024", "4025", "4027", "4028", "4030", "4031", "4033", "4034", "4035", "4036", "4039", "4040", "4041", "4042", "4043", "4044", "4045", "4047", "4049", "4050", "4051", "4052", "4053", "4054", "4055", "4057", "4058", "4059", "4060", "4061", "4062", "4063", "4064", "4065", "4066", "4067", "4068", "4069", "4071", "4073", "4074", "4075", "4076", "4077", "4079", "4081", "4082", "4083", "4084", "4085", "4086", "4089", "4090", "4092", "4093", "4094", "4095", "4096", "4097", "4098", "4099", "4100", "4102", "4103", "4104", "4105", "4106", "4108", "4109", "4110", "4111", "4112", "4113", "4114", "4116", "4117", "4118", "4119", "4120", "4121", "4122", "4123", "4124", "4128", "4129", "4131", "4133", "4134", "4136", "4137", "4138", "4139", "4140", "4142", "4143", "4144", "4145", "4146", "4148", "4150", "4151", "4152", "4154", "4155", "4156", "4158", "4159", "4161", "4162", "4163", "4164", "4166", "4167", "4168", "4169", "4171", "4172", "4173", "4174", "4175", "4177", "4179", "4180", "4181", "4182", "4183", "4184", "4186", "4188", "4189", "4191", "4193", "4195", "4196", "4197", "4199", "4200", "4201", "4202", "4203", "4204", "4205", "4207", "4208", "4209", "4210", "4211", "4213", "4214", "4215", "4216", "4218", "4219", "4220", "4224", "4225", "4226", "4227", "4228", "4229", "4230", "4231", "4232", "4233", "4234", "4236", "4237", "4238", "4239", "4240", "4241", "4243", "4245", "4246", "4247", "4248", "4251", "4252", "4253", "4254", "4256", "4257", "4258", "4259", "4260", "4261", "4262", "4263", "4264", "4266", "4268", "4269", "4270", "4271", "4272", "4273", "4274", "4275", "4276", "4277", "4278", "4281", "4283", "4286", "4287", "4288", "4289", "4290", "4292", "4293", "4294", "4295", "4296", "4297", "4298", "4299", "4300", "4301", "4302", "4303", "4305", "4306", "4308", "4311", "4313", "4314", "4315", "4317", "4318", "4319", "4320", "4323", "4324", "4325", "4327", "4329", "4330", "4331", "4332", "4335", "4336", "4337", "4339", "4342", "4343", "4344", "4345", "4346", "4347", "4348", "4349", "4350", "4351", "4352", "4355", "4356", "4357", "4358", "4359", "4360", "4361", "4362", "4363", "4364", "4365", "4366", "4367", "4368", "4369", "4370", "4371", "4372", "4373", "4374", "4375", "4376", "4377", "4379", "4380", "4381", "4382", "4383", "4384", "4385", "4387", "4388", "4389", "4390", "4391", "4393", "4394", "4395", "4396", "4397", "4398", "4400", "4401", "4402", "4403", "4404", "4405", "4406", "4407", "4408", "4409", "4410", "4411", "4413", "4414", "4415", "4416", "4417", "4418", "4419", "4420", "4421", "4422", "4423", "4424", "4425", "4427", "4428", "4429", "4430", "4431", "4432", "4433", "4434", "4435", "4436", "4437", "4438", "4439", "4440", "4441", "4442", "4443", "4444", "4445", "4446", "4447", "4448", "4449", "4450", "4451", "4452", "4456", "4457", "4458", "4459", "4460", "4461", "4462", "4463", "4464", "4465", "4466", "4467", "4468", "4469", "4470", "4471", "4472", "4473", "4474", "4475", "4477", "4478", "4479", "4482", "4483", "4484", "4485", "4486", "4487", "4488", "4489", "4491", "4494", "4496", "4497", "4498", "4499", "4500", "4501", "4502", "4503", "4504", "4505", "4506", "4508", "4509", "4510", "4511", "4512", "4513", "4514", "4515", "4516", "4518", "4519", "4520", "4521", "4522", "4523", "4524", "4525", "4526", "4527", "4528", "4529", "4530", "4531", "4532", "4533", "4534", "4535", "4536", "4537", "4538", "4539", "4540", "4543", "4544", "4545", "4546", "4547", "4548", "4549", "4550", "4551", "4552", "4553", "4555", "4556", "4557", "4558", "4560", "4561", "4562", "4563", "4564", "4565", "4566", "4567", "4568", "4569", "4570", "4571", "4573", "4574", "4575", "4579", "4580", "4581", "4583", "4584", "4586", "4587", "4588", "4589", "4590", "4592", "4593", "4594", "4596", "4598", "4600", "4601", "4603", "4604", "4607", "4608", "4610", "4611", "4614", "4615", "4618", "4619", "4623", "4624", "4625", "4626", "4627", "4630", "4631", "4632", "4633", "4635", "4636", "4637", "4638", "4639", "4640", "4641", "4642", "4643", "4644", "4645", "4648", "4649", "4651", "4652", "4653", "4654", "4656", "4659", "4660", "4661", "4664", "4665", "4666", "4669", "4672", "4674", "4675", "4676", "4677", "4678", "4679", "4680", "4681", "4682", "4683", "4684", "4685", "4686", "4688", "4689", "4691", "4692", "4693", "4694", "4695", "4697", "4700", "4702", "4703", "4704", "4705", "4706", "4708", "4709", "4710", "4711", "4713", "4714", "4715", "4718", "4719", "4720", "4723", "4724", "4725", "4726", "4727", "4728", "4729", "4730", "4731", "4732", "4733", "4734", "4735", "4736", "4737", "4738", "4739", "4740", "4743", "4744", "4746", "4747", "4748", "4750", "4752", "4753", "4754", "4757", "4759", "4760", "4761", "4762", "4764", "4765", "4766", "4769", "4771", "4772", "4773", "4775", "4776", "4778", "4779", "4781", "4782", "4784", "4785", "4786", "4787", "4788", "4789", "4790", "4791", "4792", "4793", "4794", "4796", "4797", "4798", "4803", "4804", "4808", "4809", "4811", "4812", "4813", "4815", "4816", "4817", "4819", "4821", "4822", "4823", "4824", "4825", "4826", "4828", "4831", "4832", "4834", "4835", "4836", "4837", "4839", "4840", "4842", "4843", "4844", "4845", "4846", "4848", "4850", "4851", "4852", "4853", "4854", "4856", "4857", "4861", "4863", "4865", "4866", "4871", "4872", "4873", "4874", "4875", "4876", "4878", "4879", "4880", "4882", "4883", "4885", "4886", "4887", "4888", "4889", "4890", "4891", "4892", "4893", "4894", "4895", "4896", "4897", "4898", "4899", "4900", "4901", "4902", "4904", "4905", "4906", "4907", "4909", "4910", "4911", "4914", "4917", "4918", "4919", "4924", "4925", "4926", "4927", "4928", "4930", "4931", "4932", "4933", "4934", "4936", "4938", "4939", "4941", "4942", "4943", "4944", "4945", "4947", "4948", "4949", "4950", "4951", "4952", "4953", "4954", "4956", "4957", "4958", "4959", "4960", "4961", "4962", "4963", "4964", "4965", "4966", "4967", "4969", "4973", "4974", "4976", "4978", "4979", "4980", "4981", "4982", "4983", "4984", "4985", "4987", "4988", "4989", "4990", "4991", "4992", "4994", "4995", "4997", "4998", "5000", "5002", "5003", "5004", "5005", "5006", "5007", "5008", "5009", "5010", "5011", "5012", "5013", "5014", "5015", "5016", "5017", "5018", "5019", "5020", "5022", "5023", "5026", "5027", "5028", "5029", "5031", "5032", "5033", "5034", "5035", "5036", "5037", "5038", "5039", "5041", "5042", "5043", "5044", "5045", "5046", "5047", "5048", "5049", "5050", "5051", "5052", "5053", "5054", "5055", "5057", "5058", "5060", "5061", "5063", "5064", "5065", "5066", "5067", "5068", "5069", "5070", "5071", "5073", "5074", "5075", "5076", "5077", "5078", "5079", "5081", "5082", "5083", "5084", "5085", "5086", "5087", "5088", "5089", "5090", "5091", "5092", "5093", "5095", "5096", "5098", "5100", "5101", "5102", "5103", "5105", "5106", "5107", "5108", "5109", "5110", "5111", "5112", "5113", "5114", "5115", "5117", "5118", "5120", "5121", "5122", "5123", "5124", "5125", "5126", "5127", "5128", "5129", "5130", "5131", "5132", "5133", "5134", "5135", "5136", "5137", "5138", "5139", "5140", "5141", "5142", "5143", "5144", "5145", "5146", "5147", "5148", "5150", "5151", "5152", "5153", "5154", "5155", "5156", "5157", "5158", "5160", "5161", "5162", "5163", "5164", "5165", "5166", "5167", "5170", "5172", "5173", "5174", "5175", "5176", "5177", "5178", "5179", "5180", "5181", "5182", "5183", "5184", "5185", "5188", "5189", "5190", "5191", "5192", "5193", "5194", "5195", "5196", "5198", "5199", "5200", "5203", "5204", "5205", "5206", "5207", "5208", "5209", "5210", "5211", "5212", "5213", "5214", "5216", "5217", "5218", "5219", "5220", "5221", "5222", "5223", "5224", "5226", "5228", "5229", "5230", "5231", "5232", "5234", "5235", "5236", "5237", "5238", "5239", "5240", "5241", "5242", "5243", "5244", "5245", "5246", "5247", "5248", "5249", "5250", "5252", "5254", "5255", "5257", "5258", "5259", "5261", "5262", "5263", "5264", "5265", "5266", "5267", "5268", "5269", "5270", "5271", "5272", "5273", "5274", "5275", "5276", "5277", "5278", "5279", "5280", "5281", "5282", "5283", "5284", "5285", "5286", "5287", "5288", "5289", "5290", "5291", "5292", "5293", "5294", "5295", "5296", "5297", "5298", "5299", "5300", "5301", "5302", "5303", "5304", "5305", "5306", "5307", "5308", "5309", "5310", "5311", "5312", "5313", "5314", "5315", "5316", "5317", "5318", "5319", "5320", "5321", "5322", "5323", "5324", "5325", "5326", "5327", "5328", "5329", "5330", "5331", "5332", "5334", "5335", "5336", "5337", "5338", "5339", "5340", "5341", "5342", "5343", "5344", "5345", "5346", "5347", "5348", "5349", "5350", "5351", "5352", "5353", "5354", "5355", "5356", "5357", "5359", "5360", "5361", "5362", "5363", "5364", "5365", "5366", "5367", "5368", "5369", "5371", "5372", "5373", "5374", "5375", "5376", "5377", "5378", "5379", "5380", "5381", "5382", "5383", "5384", "5385", "5386", "5387", "5388", "5389", "5390", "5391", "5392", "5393", "5394", "5395", "5396", "5397", "5398", "5399", "5400", "5401", "5402", "5403", "5404", "5405", "5406", "5407", "5409", "5410", "5411", "5412", "5413", "5415", "5416", "5417", "5418", "5420", "5421", "5422", "5423", "5424", "5425", "5426", "5427", "5428", "5429", "5430", "5431", "5432", "5433", "5434", "5435", "5436", "5437", "5438", "5439", "5440", "5441", "5442", "5443", "5444"]]
